5000 40
2455 0.6625876 0.76406914 0.63521904 -0.6563782 0.5981192 -0.32919392 -1.3122618 0.28838983 -0.1852111 -0.17926957 0.1347672 0.20550343 -0.008067305 -1.0028633 0.09321076 0.66688484 -1.1807555 -0.35068855 -0.8079439 -1.2833023 0.62170136 0.09989538 -0.23756266 0.19208805 0.74654657 0.20414813 0.071993396 1.322749 -0.87631863 -0.21983628 0.713006 -0.63380736 0.17999572 -1.3160939 0.2005925 0.43607578 0.05166972 0.6648581 -0.044317268 -0.55460155
1822 0.6694334 1.1117465 0.26360628 -0.62502384 0.50528395 0.35634768 -0.42646113 -0.33945304 -0.16109991 1.8402215 0.11948356 0.38248366 -0.7645788 1.3873948 -0.69544613 0.8283747 -0.72333217 -0.3941017 -0.077048935 -0.7355037 -0.39957985 0.9417711 -0.19174948 -0.47209796 0.9381106 -0.0654285 -0.04518279 0.7094536 -0.34279406 -0.10741951 0.8066833 -0.48815194 0.4892326 -0.2444472 0.13549039 0.55100703 0.4354646 -0.19899848 -0.22695619 -0.12646654
1305 0.45786273 0.8429014 0.25705728 0.32485908 0.9739384 0.66370845 -1.1672306 0.29574662 -0.05843653 -0.3920079 -0.36518106 0.45067185 -0.20580085 -0.060554385 0.411326 -0.5880063 -1.1126773 0.15875909 0.7037693 -0.5478151 -0.390581 -0.17192087 -0.35894698 1.3270711 0.91664606 -0.77763206 -0.5107851 0.2262504 0.3443625 -0.085132815 1.0755606 -0.27443787 -0.6652048 -0.5185169 0.4530395 0.45263034 0.14438127 0.2942066 -0.43705618 -0.65296036
2074 0.9469461 0.34634966 0.25578013 -1.2484225 0.9348833 0.08461418 -0.5498862 -0.29616147 0.4596075 0.17760514 0.5025823 0.5409632 0.20458293 -0.42682078 -0.021920431 -0.11368024 -1.8791286 -0.12348473 -0.106968224 -0.14111742 0.42334932 0.07790526 -0.6742921 0.07814751 -0.601985 -0.37610757 1.5224047 0.5573956 0.03200948 -0.6999867 0.42399463 -0.25862974 -0.087390386 0.23531519 -0.71559477 0.76635045 0.7860757 -0.41357204 -0.72661823 -0.3238041
113 1.0425664 0.28919002 -0.6337051 -1.1430173 -0.046438854 1.2924639 0.3236843 -0.070998915 0.33207753 0.9030189 -0.37125567 -0.86617833 0.121387914 -0.5376879 0.31498504 -0.2747293 -1.5428796 -0.23423086 0.43343297 -0.16284126 0.5680515 -1.0979296 0.4177173 -0.66885924 0.13216722 -0.28228742 -0.15070757 0.75679964 0.26297444 -0.013520336 0.2909986 -0.5391005 -0.08521918 -1.148352 -0.15196197 0.48906794 0.41520837 -0.08153839 -0.80695236 -0.28620613
4229 0.06499134 0.8398136 0.16852775 -0.6802911 0.27948573 1.0665525 -0.70357805 -1.4699078 -1.0833575 0.7001551 -0.43990833 0.6083321 -0.46469173 -0.4965157 -0.6546666 -0.73756653 -1.1306006 -0.29976997 0.65415305 0.052003376 -0.14588697 -0.43993005 -0.24240777 0.4605239 0.38304758 -0.8028478 0.46496037 1.4371599 -0.14394377 1.1243981 -0.42324176 0.00158925 -0.15137315 -0.16815153 -0.38327274 0.640859 0.29649466 0.57157487 -0.32138363 -0.63099086
926 0.61104345 0.5562518 -0.042678613 -0.8898675 -0.2845385 0.66647655 -0.7694531 0.24632987 0.37215886 0.35511068 -0.57376313 0.6408821 -0.36417127 0.8331412 -0.18024945 -0.16331984 -1.2033664 -1.2900747 -0.12384772 -0.1293097 -0.20172553 1.2993883 0.94668424 0.3141785 -0.06855893 0.033518333 -0.36335343 1.491076 0.3118887 0.90633726 0.802127 -1.0986784 1.040544 -0.4386502 0.16736159 0.52082974 0.8454751 0.73372823 -0.38994575 0.034291197
3357 0.24335589 -0.4570056 -0.86545867 -0.31143343 0.92631835 0.0761611 -1.0987397 -0.23102893 -0.048063204 0.5177031 -0.19950263 0.7295337 -0.568959 -0.55501825 1.136094 0.74103624 -0.5282603 -0.521396 1.0571778 -1.3607073 -0.28431267 0.244185 0.097792424 -0.05538755 0.3548056 -0.8469508 0.34090546 0.31349313 -0.12580566 0.8566807 0.04974589 0.023643352 1.1150458 0.4988964 0.45285618 0.8375317 0.6763027 -0.5039091 -1.3612115 0.09449976
1624 0.52795285 0.78905976 -0.26396546 -0.69544965 -0.61484814 0.29864648 -0.83550686 0.16142742 0.5141329 1.212635 -0.28629243 0.90755725 -0.60381347 0.8310942 0.2517349 0.17657983 -0.7394512 -1.1280565 -0.20846674 0.29385877 -0.6235082 1.2903423 0.86811787 0.5024726 0.2810861 -0.20612547 0.25718102 1.2702177 0.22727886 0.9024037 0.35511458 -0.86012626 0.21855217 -0.9367081 -0.26340094 0.019733937 0.6350158 0.626516 -0.6925529 -0.18101084
1879 1.8101845 0.1149354 0.4454275 -0.7630555 -0.10735086 0.27321193 0.32059434 0.14232056 0.9929296 0.4362135 -0.71634746 -0.19002676 -0.424205 -0.3632693 0.21934389 -0.4143983 -0.5848106 -0.18638417 0.17170528 -0.9010628 0.1409393 0.074665956 0.14317626 -0.67455965 0.14513917 -0.79745346 -0.06936011 1.0579425 -0.37492537 0.09690207 -0.3463696 -0.8252703 -0.29618 -0.62371725 0.07844142 0.17634436 0.17758489 -0.73582125 -1.6283123 -0.3506681
1676 -0.57013184 0.9695475 -0.2726069 -0.48230016 0.7321558 0.73589724 -0.26398852 -1.1924597 -1.1960409 0.8613218 0.15953621 0.47273424 -1.0395939 0.24102096 -0.30088106 -0.20465139 -0.63524747 -0.56277037 0.53527206 -0.03320635 0.15982847 -0.27808064 0.1203991 0.7376848 -0.48574376 -0.74412686 0.3450829 1.2140683 -0.5830649 0.017675212 -0.5423737 0.08835961 -0.6600948 -1.1583518 0.8261939 -0.2676701 0.076999 0.020613741 -1.0943362 -1.0206418
3866 1.5625544 0.33766574 0.024969274 -0.4745827 -0.19434913 0.23682743 0.33310756 -0.029811606 0.5301769 0.41899246 -0.898693 -0.7878972 -0.47618148 -0.14508316 0.35378528 -0.3343813 -1.1040733 -0.6168293 0.45919058 -0.96317077 0.566103 0.30283856 0.59068704 -0.3865535 0.15466295 -0.8174128 -0.10054136 1.066507 -0.30426258 0.16373955 -0.05479022 -0.16450845 -0.5465401 -0.4149619 -0.19943501 0.65151614 -0.06391872 -0.7682853 -1.145118 -0.47148383
3692 -0.21700123 0.5911598 0.21566075 -0.42008612 0.9558109 0.7800735 -0.18999511 -1.318233 -0.9114182 0.6758199 -0.03223974 0.26746953 -0.803027 -0.14443327 -0.49949798 -0.7329774 -0.4955425 -0.8333157 0.6043904 -0.04431943 0.053693756 -0.044202358 0.0025890432 0.32984215 -0.014308199 -0.55240554 0.35582185 1.376621 -0.9303364 -0.52712804 -0.09396197 0.2619625 -0.556396 -0.9201674 0.772897 -0.10320618 0.3488821 0.21662256 -1.3900932 -1.1327696
2613 -0.71858674 1.3958502 -0.3390254 -0.07980531 1.449473 0.15333535 -0.95672536 -0.11549952 -0.53188235 1.302841 -0.1598322 1.1376069 -0.12215859 -0.41062915 0.3331656 0.23411226 -0.737089 -0.7172125 0.18837388 -0.010772516 0.39237604 -0.3460908 -0.11535654 0.069161385 0.15770772 -0.6637257 -0.3625194 0.8358616 0.58018976 0.5438415 0.6414409 -1.3588462 0.49124646 -0.6862663 -0.94615245 -0.22823781 -0.3924659 -0.14289694 -0.52952313 -0.5829611
1044 0.8857149 0.39251938 0.35379782 -1.204329 1.0118171 0.23651566 -0.45079228 -0.34184134 0.32983539 -0.07493239 0.44308916 0.4318251 0.34082633 -0.21212408 0.28531528 -0.015545898 -1.8628117 0.08568141 0.026099065 -0.22294873 0.39400095 -0.2886659 -0.49416497 -0.18699823 -0.7842511 -0.6357045 1.0565392 0.09265344 -0.51872677 -0.8367013 0.40662083 -0.4292276 0.11138226 0.3664874 -0.17128032 0.89661974 0.7529045 -0.4333677 -0.8277481 -0.63181424
215 0.5357707 0.9319304 0.21786535 -0.6981535 0.08436746 0.6653208 -0.5521848 -0.28492868 0.13777371 1.7923734 0.18996356 0.4960333 -0.78148144 1.1513089 -0.9493957 0.3053819 -0.7488131 0.003922924 0.3822215 -0.710617 -0.3103604 1.0369731 0.047895487 -0.4647059 0.8825121 -0.06785263 -0.04592547 0.51537704 -0.17208822 0.10772663 0.8090651 -0.6883302 0.36192465 -0.35885838 0.76970357 0.54944646 0.8475084 -0.33653903 -0.1231753 0.0019754197
1904 0.27272266 0.31772232 0.46156868 -0.4510021 0.77582246 0.93035746 -0.10100226 -1.5681342 -0.8469429 0.72406816 0.31935975 0.21454258 -1.5509701 0.1121036 -0.34789902 -0.7144509 -1.1863014 -0.78874683 0.97691447 -0.041754477 0.10002881 0.2594621 0.17099807 0.73006076 0.3438126 -0.23638384 0.13410386 1.0233641 -0.96858025 0.3532008 -0.6616191 0.4430374 -0.5566208 -0.5401618 0.40013987 0.57150024 0.7290811 0.41087297 -0.5455045 -0.54294854
3926 0.5535353 0.5744514 0.6253125 -0.06486874 0.4814162 0.97665596 0.193248 0.33987838 -0.23242861 1.1640881 -1.5195332 0.28566638 -0.06628984 -0.18503489 1.0875854 -0.0976585 -0.77082396 0.036893345 0.81372315 -0.2847857 0.69652194 -0.29177982 1.0881281 0.091551416 -0.116089374 -0.27114737 0.53115886 -0.44105843 0.15526396 0.16740026 -0.72665954 -0.6830753 -0.07638425 -0.25925896 -0.021307206 0.20281263 0.66184926 0.67146325 -0.85174376 0.11666033
3388 0.1564917 0.53376657 0.7274225 -1.0096875 1.0561076 0.7666917 -0.7974531 0.28901753 0.17485939 -0.27776507 0.16616821 -0.11467708 -0.67353207 -0.70140433 -0.06312002 0.91676956 -0.9200433 -0.485636 -0.42348486 -1.058106 0.4993768 -0.29304945 0.13464002 0.49657342 0.6306881 0.11405469 0.24074307 0.89257634 -0.6144726 0.26039457 0.48537472 -1.3958228 0.16625856 -1.565973 0.33749846 0.74826264 -0.2343782 0.6087996 0.7436267 -0.032110218
532 0.3622462 1.6302093 -0.43007073 0.05889414 1.0484749 0.24475846 -1.5175927 1.0133581 0.045384053 1.1199279 -0.16201532 0.29571235 -0.32121336 -0.7482279 1.0042223 -0.29822016 -0.19597192 -0.3946931 0.68337256 0.15278338 0.27563566 -0.5910769 -0.45588875 0.76312923 -0.0021495998 -0.8660232 -0.22674292 0.91354537 0.16742735 -0.113920026 0.70887274 -0.5036122 -0.6629751 0.10839566 0.19151455 0.6194732 -0.10705375 0.84744984 -0.6853685 -0.44225705
765 -0.560775 1.4469758 -0.4251606 0.12243846 1.4503043 0.082168445 -1.1939001 -0.120219305 -0.97782964 1.5592622 -0.28654483 1.177714 -0.24029177 -0.63263357 0.37255496 0.10870445 -0.6177016 -0.6301606 0.12490896 -0.10156449 -0.060119964 -0.4801163 -0.09415859 0.15991521 0.32494673 -0.33127838 -0.22339852 0.8448871 0.31997597 0.5310095 0.81967974 -1.5240159 0.341685 -0.5138755 -0.69501346 -0.16307874 -0.43502402 0.32353607 -0.801839 -0.65460795
1749 1.0750784 0.5555162 -0.19046625 -0.15735385 0.23380366 0.57639796 -1.1805431 -0.08665808 0.3809829 1.6128621 -0.17301418 0.7337659 -0.33831242 0.82685435 -0.49580207 0.46291173 -0.8021467 -0.35505334 0.50770926 0.06865136 -0.5423482 0.20746025 0.6722787 -0.8632228 0.033167493 0.117869146 0.42763278 1.0577946 -0.5248313 -0.42351952 0.69182634 -0.4769385 -0.04042087 -0.09522117 1.0366273 0.3942211 1.0207126 0.16158547 -0.33304316 -0.58282113
2983 0.7765169 1.2114451 -0.37507156 -0.14033458 0.26623994 1.0923473 -0.82153136 -0.0036543747 0.33434862 0.9660119 -0.67195654 0.8307936 -0.7767746 0.79795724 -0.35093877 0.50957614 -0.794986 -0.33688873 -0.28353614 -0.0351384 -0.47598714 0.21869794 0.4674207 -0.6767752 -0.17143151 0.3059276 0.40214443 0.9241201 -0.42266193 -0.32574075 0.47439447 -0.8681834 -0.122011065 0.26006123 0.7418794 0.76954776 1.0104154 -0.013456026 0.08356936 -0.9023171
3360 -0.59753644 0.16619018 0.30954316 -0.23027067 0.5489734 0.7808953 -0.02620671 -0.04279468 0.34269518 0.47982794 0.86469895 0.80203176 -0.47710276 -1.0728478 0.23484586 -0.20728986 -0.5816954 -0.9345921 0.41096875 -1.2753701 0.04334733 -0.05971417 0.6589096 0.15702733 -0.095072985 0.010099856 0.3103473 -0.12828813 -0.38297555 1.9067489 0.5941949 0.12937579 0.5125105 -0.23198433 -0.029252337 0.6804815 0.393116 -0.39154062 -1.3032255 -0.17467122
568 -0.04534474 1.0181202 0.5327503 -0.61707205 0.49102312 0.4668008 -0.6252588 -1.4452558 -1.0043229 0.41329858 -0.17508326 0.032501623 -1.0082526 0.021100052 -0.55551845 -0.33985844 -1.0705543 -1.0567493 1.6877997 0.0019857236 0.24668981 -0.3345414 -0.29554036 0.79982513 -0.028306281 -0.39023158 -0.07724229 1.4611146 -0.46286026 0.00083975354 0.20478368 0.2527166 -0.9092927 -0.16923407 0.87863517 0.6508787 0.5709171 0.05616688 -0.29427275 -0.37340614
1407 1.3223133 0.7141295 -0.42901853 -0.6507766 0.9973379 0.7569291 0.12860022 -0.7191618 0.7421216 0.12903607 0.10880097 0.43009847 0.4071186 -0.33506927 -0.0075656786 0.61915004 -1.2401425 -0.022265809 -0.038364984 -0.32660452 0.28735638 -0.4395227 -0.5025503 -0.81722146 -1.2952286 -0.4731177 0.74163693 0.096917205 -0.37748048 -0.049798694 0.49831417 -0.39095914 -0.081158325 -0.58269453 0.3315165 -0.18352878 -0.18227683 -0.057444118 -1.3795224 0.1157855
2059 -0.48906207 0.19684128 0.1236928 -0.43735668 1.1407272 0.16167875 -0.93038464 0.038454317 -0.22551097 0.39461532 -0.120564096 0.72262233 -0.49667907 0.07124687 0.87791896 0.5431461 -0.8915558 -0.27104908 1.4036415 -1.5079637 -0.3703634 -0.018604087 0.069924906 0.37873158 -0.5579411 0.59199786 0.29742175 0.39719418 -0.80532175 1.0095936 0.12577331 0.21361494 0.23409225 0.5988642 0.37922353 0.9778181 0.35476902 -0.24538486 -1.399045 -0.09277151
1398 1.1773384 0.8582756 1.4091336 -0.6806046 -0.35221544 -0.2650201 0.22137322 0.17830871 0.22166002 0.61804193 -0.47915712 0.25270796 -0.51658744 0.28235695 0.32105154 0.021758514 -0.5581983 0.04539846 0.70920676 -1.2310047 0.9655734 -0.12254268 0.83885306 -0.18084271 0.01837982 -0.5723711 -0.39339942 0.6421651 -0.19228989 -0.2450747 0.37003464 -0.83527815 -0.32889274 -0.5762988 -0.4015709 0.02767608 -0.17607094 -0.28228483 -1.52607 0.015465216
2291 -0.60018057 0.5543255 0.2894134 -0.06531447 0.23124148 0.011692437 -0.10104545 -0.0757885 0.31702492 -0.06970183 1.1749768 0.5778352 -0.99829054 0.33825484 0.5096776 -0.506318 -1.2686988 -1.10409 0.33040786 -0.5194136 0.37671912 -0.15147667 -0.0872466 0.41666886 0.062107854 -0.8273086 0.42695656 0.28674692 -0.0025820127 0.8236429 1.2743036 0.020927459 1.2897402 -0.5367928 0.64774597 0.91150856 0.0030125657 0.05658382 -1.1185908 0.21547875
990 0.53486615 -0.30142206 -0.3099342 -0.10049888 1.2237862 0.14702128 -0.86205065 0.13527703 -0.78798616 0.0666204 -0.1337228 0.8905709 -0.8872127 -0.0485145 1.2932599 0.39073238 -0.8846984 -0.98966306 0.6642906 -1.0523243 -0.28462675 0.14758922 0.25288093 0.31064853 -0.110164545 -0.6428142 0.4856531 0.43054777 0.110091075 1.1545738 0.15197238 0.5825601 -0.03241541 0.13612467 -0.378453 0.9025425 -0.16931014 -0.25573614 -0.9614841 -0.1426843
2178 0.5155054 0.5927406 0.62854147 -1.0558931 0.8811794 0.7365094 -0.27009377 -0.10589837 0.0641304 0.1511994 0.4412346 0.5763374 0.38359144 -0.24577507 -0.1561727 0.4249804 -1.5162436 -0.31289628 -0.089752465 -0.09525587 0.40261716 -0.3394214 -0.94605523 -0.21067038 -0.9074041 -0.3344381 1.7101077 0.5935933 -0.0065420573 -0.83281904 0.43691626 -0.66421276 0.38077208 0.23867585 0.3295354 0.66138834 0.42787758 -0.36643955 -1.0190055 -0.37213624
2550 1.29458 0.7326729 0.8650269 -0.97434944 -0.6611956 -0.2802734 0.29832375 0.106426194 -0.1916961 0.61005884 -0.27045715 0.16090488 -0.871001 -0.112625964 0.46494514 -0.0947428 -0.8419847 0.070667535 1.1853584 -0.706438 1.0329449 -0.25006133 0.11904016 0.025279546 -0.64811325 -0.35817054 -0.32245263 0.31978908 -0.11582645 -0.02607475 0.43972015 -0.7643015 -0.49258748 -1.7123199 0.05754925 -0.061314885 -0.10598552 -0.38807145 -0.8978281 -0.034801524
1665 -0.61432916 0.59473425 0.46478772 0.2061433 0.09727645 -0.20594269 0.0280878 0.026263744 0.6849161 0.19923197 0.10843886 0.42182133 -0.9527175 -0.45163688 0.19583663 0.041386694 -0.41880304 -0.8663606 0.0586577 -0.97473663 -0.18366699 0.29076943 -0.018999187 -0.060182232 -0.6290448 -0.7107299 -0.18531193 0.040472694 -0.9954079 1.5013123 0.7966336 0.09938279 0.56024987 -1.1852345 0.92591697 0.9498078 0.7191081 0.39295664 -1.1752936 -0.24440254
3892 1.0120584 1.2491359 -1.0570871 -0.37138876 0.8003872 0.0689594 0.27303508 -0.2731929 0.32404426 0.26440924 0.394056 1.0749222 0.27425072 -0.38701746 -0.45072946 -0.15717089 -2.040046 -0.0265452 -0.19523823 -0.5294116 -0.5029226 0.07130668 0.10034282 -0.033937905 -0.6023639 -0.9413068 0.8419626 0.54488355 0.22781244 -0.4662157 0.22350225 -0.098455615 -0.24075916 -0.2373457 -5.0830276e-06 0.64055824 -0.027971564 -0.6150558 -0.8089249 0.20926405
1458 1.1774809 1.0005926 0.024797881 -0.72653925 1.3758391 0.20048562 -0.380789 -0.88862425 -0.16858277 0.3147149 0.2592238 -0.0015182381 0.039290708 0.23243356 0.4015257 -0.13000956 -1.4535913 0.1037435 -0.14598937 0.6809224 0.42158836 -0.0024514839 -0.55723715 0.0017957122 -0.5394513 -0.37048358 0.8034209 -0.24961083 0.03138828 -0.21069357 0.49858317 -0.20507815 -0.69048685 -0.08090068 0.21330257 1.2983034 0.5614866 -0.10966732 -0.29393256 -0.012677686
3507 0.6166903 0.62275636 0.25966057 -0.9930955 1.2909566 0.4157119 0.27299643 0.44940197 0.15438695 0.462583 1.034481 0.08396968 -1.1137167 0.12852769 0.024124674 0.33728614 -0.34027508 -0.35936418 1.1434872 -0.35230514 0.6797288 0.24161331 -0.19627176 0.6417112 -0.54594666 -0.6806177 -0.28050616 -0.2160653 0.4124757 0.7773191 -0.6687206 -1.177178 -0.5803476 -1.040449 0.23643588 -0.18202046 0.22446144 0.56649053 -0.9347682 -0.5145555
538 0.8269918 0.9546337 0.061007015 0.116338946 0.81974113 0.49808618 0.17799205 -0.5327664 0.802591 0.7228802 -0.3122016 -0.022265047 0.48996466 -0.5631042 0.17562412 -0.48942256 -1.3142985 -0.91388714 0.85969424 0.27872866 0.73843396 -0.14475736 0.7838537 -0.09366372 0.12052672 -0.36361012 0.5550894 -0.083090775 0.15602769 -0.7029676 0.115634575 -0.94025904 0.898324 -1.1856948 0.3705044 -0.3546861 0.5177455 -0.17645542 -0.8512686 0.50066674
1682 0.72499645 0.50571084 0.07439299 -0.942689 1.3549951 0.2659495 0.19057243 0.5795722 0.23805796 0.5641619 0.8266078 0.1375058 -1.1018221 0.061665203 0.3313057 0.19762982 -0.42096952 -0.29481122 1.1953715 -0.48230168 0.7571949 0.049196497 -0.19092467 0.67346114 -0.5194507 -0.5599183 -0.26160184 -0.1506932 0.3319388 0.73435456 -0.8460617 -1.2179112 -0.60128134 -1.1136671 0.31176305 -0.07382034 -0.009412905 0.5447683 -0.75452906 -0.22936353
2706 0.41870654 0.53877926 -0.08637303 -1.0090557 -0.5359302 0.7606306 -0.9990958 0.1975464 0.46029294 1.4590998 -0.026331587 0.6579464 -0.23869734 1.0277822 -0.45824015 0.80064917 -0.64269644 -0.6973142 -0.051425617 -0.30814222 -0.07131012 0.25839368 0.06817169 0.72098005 -0.6007348 -0.019507276 0.9455502 0.3231789 0.049793474 0.4447739 -0.12890713 -1.0797973 -0.1571844 0.029964129 0.4579397 0.777195 1.4231739 -0.10347229 -0.10383393 0.38082832
4554 1.1761633 0.5497649 0.29276016 -0.914362 0.9760127 0.16778937 -0.84362745 -0.08290155 0.106271334 -0.16986878 0.10568922 0.18447228 -0.0026433622 -0.22060184 -0.21088687 0.12275616 -1.867926 -0.14657673 -0.015488059 0.13977538 -0.103255935 0.6938683 -0.41732833 -0.35826406 -0.7257097 -0.13914846 1.0414871 0.09330961 -0.17047697 -0.6078984 0.53522813 -0.94659936 -0.079094514 0.25967875 -0.33283943 0.46569034 1.1997172 -0.21831702 -0.44636172 0.046675917
4109 1.296711 0.58119684 0.6699826 -0.0709834 -0.36890674 0.09026824 0.016496215 -0.107687764 0.21313353 1.2024422 -0.8188883 -0.65870494 -0.44099 -0.41006136 -0.14478372 -0.011416625 -0.7049991 -0.23334295 0.37965855 -1.309197 0.89978826 0.1958678 0.36917028 -0.22408015 0.31977952 -0.87533367 -0.11674282 0.6890601 -0.18669811 -0.16287446 -0.31840646 -0.9470189 -0.1830056 -0.4733033 -0.10634527 0.42261487 -0.25094607 -0.47931573 -1.2363172 -0.47701752
3878 -0.21702775 0.3770986 -0.1400324 -0.5461527 1.0771748 0.93142825 0.16481556 -1.1885734 -1.2266595 0.5585489 0.23087321 0.049148355 -1.2360702 -0.01815563 -0.7300854 -0.35202372 -1.1185322 -0.9183616 0.1675063 -0.118077755 0.12149779 0.1279461 -0.20449005 0.11203384 -0.07405676 -0.77569014 0.35525686 1.1534845 -0.4419543 0.006826735 0.034081757 0.3377987 -0.87580365 -1.0665581 0.8740727 -0.07802312 0.22144437 0.121650524 -1.2119356 -1.0478513
1310 1.1200877 0.83274937 -0.47565165 -0.1437467 0.53586113 0.7288106 -0.8732352 0.032091565 -0.042069122 1.4354728 -0.10350687 0.6666081 -0.3536095 1.1134405 -0.16469464 0.40534258 -0.6973319 -0.20404929 0.25004956 0.14542677 -0.31667066 0.5539309 0.3931082 -0.8797323 0.30970615 0.20013237 0.24341796 0.7366646 -0.8645097 -0.34088585 0.9535638 -0.62450576 0.09525174 -0.1488072 0.9648926 0.63690984 1.2587569 -0.44250864 -0.36757782 -0.675363
1198 0.4200484 -0.12581772 0.11282216 -0.59128374 1.0957439 0.32991394 -0.77412677 0.32922804 -0.07489015 0.4132938 -0.29327962 1.2088307 -1.0969244 0.5826128 1.3469065 0.28094712 -0.49945426 -0.9064924 0.9140109 -0.60577893 0.16032459 -0.0145449415 0.3759229 -0.12809303 0.28676346 0.2807589 1.4014006 0.5207879 -0.028013378 1.2412658 0.21493055 0.5925883 0.16151448 -0.2487381 -0.19830191 0.95384455 -0.15459768 0.39921227 -0.62427807 0.28387588
4612 0.27079695 0.45514235 0.74164903 -0.08323154 0.93712974 0.58714485 -0.46890992 0.19706683 -0.12705459 0.7576342 -1.0965624 0.41276976 -0.5148368 -0.08610274 1.1931726 0.3332569 -0.2936671 -0.24292137 1.0104368 -0.93576914 0.23877628 0.25973815 0.5700781 0.3225638 -0.00676864 0.015447611 0.42601964 -0.35681686 0.38494772 0.7073945 -0.21252565 0.09210711 0.29613712 0.39668947 0.00873507 0.22408874 0.46049637 0.6431157 -1.4934309 0.20451441
3754 1.5412991 0.31328052 0.6107564 -0.48679197 0.05661235 -0.27745515 0.28616902 0.17510998 0.79908895 0.619579 -0.5455898 -0.07068746 -0.83691037 0.030115118 0.38777018 0.20723313 -0.52668816 -0.27388147 0.7114041 -0.60185426 0.039987795 -0.74965674 0.63305324 -0.9739976 0.036768295 -0.7682842 0.23842734 0.61533654 -0.80737275 0.1160357 0.102310576 -0.7828772 -0.53186876 -1.2894636 -0.31166667 0.017711923 -0.20123383 -0.6256545 -1.2777147 -0.15479298
4023 1.1627414 1.1000515 0.6163078 -0.9142754 -0.76761484 0.583593 0.51394224 0.19803646 0.20195694 0.5660702 -1.1920923 -0.381073 0.07051219 0.13442048 0.8313452 0.1410363 -1.5533068 -0.404433 0.6578026 -0.4598832 0.78541046 -0.17719606 0.27179375 -0.11646053 -0.024302969 -0.26094395 -0.32311532 0.87436634 -0.41438937 0.5195398 0.65774435 -0.3871705 -0.25148728 -0.40756425 0.53958577 -0.059054136 -0.08215017 -0.74563336 -0.83990073 -0.5309141
4763 0.18772385 0.85361266 0.12676823 -0.6805387 0.18813777 0.5726461 -0.29585934 0.1761595 -0.34979832 1.8869902 0.19019441 0.52594393 -0.44999975 0.8156955 -0.89644825 0.7626875 -0.7743295 -0.84694386 0.30808425 -0.5965129 -0.55735403 0.97392714 -0.009810492 1.0021845 -0.50845283 0.35656366 0.33258635 0.6576322 0.28831047 -0.076502115 0.9712974 -0.8987645 0.5060104 -0.40909204 0.7729472 0.39616218 0.8262251 -0.45263776 -0.17166473 0.077917956
1601 0.49224114 1.002329 -0.90808433 -0.950363 1.1717193 0.23802157 0.6524067 -0.05952238 0.11553855 0.3417771 0.038666125 0.6146814 0.18010631 -0.113970146 0.17464262 0.45810863 -1.7343631 -0.7414083 -0.16410446 -0.45848328 0.04378411 -0.2484745 -0.47145033 -0.85181874 -1.4348147 -0.5822123 0.6807117 -0.14292884 -0.07394506 -0.11217177 0.23365657 -1.0326897 -0.33000404 -0.71029115 0.12400703 0.52058804 -0.2548508 0.33704928 -0.5729903 0.4307394
3125 -0.12050549 -0.65359265 1.0595544e-05 -0.67882353 0.8692472 0.9074749 -0.8217586 -0.69419485 0.20723933 0.25190258 -0.94747573 0.53603524 -0.24991831 -0.29203168 0.27815163 0.2360113 -0.8216613 0.04087298 -0.2177311 -2.2112947 0.24603266 -0.05579332 0.5552614 1.0664953 0.083907545 -0.42433795 0.1330238 0.7523216 -0.5803849 -0.30563945 0.45080957 -0.6952224 -0.30352998 -0.62849087 0.039845537 -0.28284153 0.53707105 1.1904124 -0.41093108 0.033686507
2643 0.9411585 0.6674325 0.06483639 -0.0980593 0.422238 -0.30134326 -0.144005 -0.48088259 0.5319593 0.72747004 0.8855168 0.9275151 0.38756567 0.36250687 -0.32602713 0.12531328 -1.6816679 -0.17650302 -0.10832905 -0.4266053 0.37639013 -0.043563616 -0.11699242 0.7629103 -0.9781096 -0.5950941 0.9396536 0.15799296 -0.6278037 -0.77021015 0.239348 -0.7029662 -0.52799517 0.11413053 0.091184966 0.76076716 0.9755459 0.055519287 -0.7994834 -0.09419124
1192 1.7314439 0.1957069 0.50801486 -0.7696971 -0.13143633 1.2457378 0.28602338 0.36964566 0.7012871 0.29179978 -0.7617414 -0.2797678 -0.20792736 -0.67014825 0.081967734 -0.40011707 -1.0195761 0.024156393 -0.10671573 -0.27440384 0.48205203 -0.21105388 0.09226634 -0.71961045 0.22736725 -0.8282096 0.41101226 0.58169943 -0.11545241 0.24687925 -0.18782777 -0.5999314 -0.48276526 -0.71296805 -0.05241783 -0.162713 0.63851553 -0.29094023 -1.5120229 -0.6833165
925 0.1760887 0.031040981 -0.14715625 -0.22907929 0.9464117 0.71871835 -0.19487545 0.27578285 -0.035975374 0.2769391 -1.1666373 0.009619994 -0.14624545 0.22556162 0.7966859 0.21120775 -0.31163242 0.420685 -0.34333754 -1.034282 -0.034819342 -0.3814586 -0.1729444 1.179543 -0.057355613 -0.8840401 0.48513818 1.5185325 -0.6614779 0.28392088 1.4145263 -0.8401064 0.53017193 -1.2447306 -0.20533374 -0.0606028 1.0117991 0.12321107 0.04780213 -0.37943047
1611 0.60638183 0.8657607 -0.32000524 -0.57006377 -0.5735981 0.37729147 -0.6219808 0.2430214 0.46137005 0.82622963 -0.081232935 0.7935371 -0.65210295 0.7473172 0.13569951 0.12888047 -0.7495494 -1.160994 -0.30377513 0.07304431 -0.533064 1.3193624 0.94063294 0.70406795 0.1176744 -0.15383896 0.13660413 1.5502717 0.17958951 0.75130165 0.41680443 -1.1053102 0.2274431 -0.87863266 -0.32823876 -0.02965539 0.54696923 0.4880595 -0.7701839 -0.19485912
3211 0.7532508 1.5492117 -0.5004189 -0.07519769 1.1178406 0.71135455 -1.3341061 0.9243992 -0.28672254 0.9721115 0.28604224 0.4416409 -0.17992082 -0.2988922 0.6144708 -0.90932196 -0.17857534 -0.6521 0.7245142 -0.3186849 0.2964614 -0.76809686 -0.1654476 0.79207695 0.70752674 -0.5168824 -0.31923422 0.68885034 -0.04488071 0.06375279 0.4919003 -0.3989081 -0.74982417 0.115953185 0.3875353 0.5852022 -0.14895102 0.8104679 -0.6970691 -0.6012321
1420 0.80534863 0.9162516 -0.3264804 0.19776298 1.0493468 -0.48022163 0.17852513 -0.79135615 0.92902833 0.5575117 0.793958 0.33305416 0.6594751 0.05780816 -0.09816455 0.03299624 -1.6344899 -0.22767027 0.43281615 -0.106110826 0.34542358 -0.08929341 0.21436328 0.93319345 -0.8023101 -0.38207424 0.53863317 0.54485404 -0.6802466 -0.52172005 0.47343922 -0.83940923 -0.5403239 -0.04954544 -0.11452405 0.8930728 0.794648 -0.51502544 -0.86588085 -0.19919218
1366 1.1188042 0.65090895 -0.6319371 -1.2911471 -0.10593183 0.78984916 0.58592826 0.07296156 0.012264855 0.60502136 -0.46816197 -0.38262507 -0.28243363 -0.23568799 0.2986736 -0.13217792 -1.6957963 -0.27255464 0.31834775 -0.51244295 0.31886378 -0.46948186 0.1380841 -0.46949145 0.19135499 -0.7380897 -0.19632845 0.14621666 -0.43518665 0.061309308 -0.5150295 -0.28085363 -0.10394425 -1.1323663 -0.61404103 0.4668739 -0.20882758 -0.97664624 -1.1555816 0.049375143
4277 -0.139815 0.8948738 0.30756587 -0.7901439 0.6119725 0.9616707 -0.44534248 -1.5687362 -0.5768175 0.6234704 0.19263013 0.39995015 -0.6610915 -0.15552348 -0.55159056 -0.49822447 -0.6370571 -0.40384158 0.76248705 -0.023620268 -0.09805449 -0.3824941 0.26199076 0.1283321 -0.1364766 -0.5628218 0.5839797 1.5650665 -0.7191781 -0.20330945 -0.23227078 0.5628423 -0.37258902 -0.69374514 1.1019799 0.09214444 0.5481004 0.065189555 -1.3480692 -1.2984346
883 0.693328 0.72407955 -0.58379966 0.14559963 0.37767494 -0.102663614 -0.8189652 -0.2612161 0.42348358 1.4512669 0.4098861 0.6880158 -0.21072367 0.17715998 -1.3175876 1.048355 -1.0943481 -0.66521984 -0.20525043 0.025820611 -0.037201904 -0.47205785 0.10400274 0.63557726 -0.3549801 -0.56173867 0.21690145 0.5130208 -0.37497512 -0.18924892 0.4571338 -0.057541143 -0.024767704 0.06281737 0.42495117 1.1300753 1.1844379 -0.102001086 -0.5424542 -0.29640445
4849 0.5852276 0.4786324 0.5778716 -0.6112475 0.67953205 0.9554095 -0.7900304 -1.5748712 -0.7411022 0.305192 -0.28305966 0.16752969 -0.97239494 0.24199836 -0.29197282 -0.59890354 -1.095881 -1.0645586 1.0296094 0.4485366 0.040051155 -0.18576346 -0.760632 0.9397548 0.09717455 -0.24715073 -0.24291839 1.4091018 -0.48622516 0.334572 -0.03564542 0.118013784 -1.0669838 -0.2911174 0.07604047 0.88463575 0.9413862 0.2456312 -0.49158797 -0.002655854
2297 0.5840674 -0.20689343 -0.3912903 -0.35093942 1.2445707 -0.4402876 -0.6655795 0.6752686 -0.5541516 0.11290691 -0.021730678 1.1489656 -0.97009456 0.20868939 1.022082 0.11677654 -1.0079963 -0.74125606 0.47684228 -1.4639975 0.5004711 0.22202837 0.026561335 0.19432998 -0.8072801 0.03504073 0.26254717 0.9429796 -0.039319966 0.9314096 -0.061923694 0.10761678 0.321031 0.14591546 0.1298981 1.1028602 -0.3092221 -0.46650678 -0.7558044 -0.010367197
4520 -0.32230133 0.81975305 0.5108433 -0.08931772 0.63803834 -0.8125946 0.26564056 0.11515623 0.025966316 0.2921338 0.14788227 0.9527488 -0.80476123 0.19165514 0.5333721 -0.5736286 -0.45301446 -1.0522789 0.47792283 -0.39281085 0.13354826 0.5493088 -0.06734397 0.37269193 -0.5589336 -0.65866965 0.2539883 0.5738529 -0.3628513 1.0223081 1.0017005 0.2127175 1.2889603 -0.51395726 0.6487777 1.2473674 0.13487579 0.20139164 -1.6205162 -0.028721187
4257 1.2451516 0.38262293 -0.08477574 -0.45782667 0.4780087 0.36275822 -1.7571065 0.049426515 0.825513 1.5546886 0.039531633 0.7066045 -0.34718275 1.2765248 -0.26503018 0.35994622 -0.4236448 -0.31159908 0.43459347 -0.09024238 -0.40128544 -0.37466243 0.44304556 -0.45573568 -0.12485371 0.12364563 0.20660515 0.5653521 0.20438024 -0.011633561 0.6648304 -0.4706367 0.10672889 -0.257134 0.962837 0.30002606 1.0454173 0.33163562 -0.38467988 -0.60483027
2557 -0.96834046 1.3710746 -0.18783809 -0.099141814 1.0073979 0.25178024 -0.63883114 -0.46964568 -0.5513417 1.7203255 -1.0127175 1.4652357 -0.34563887 -0.37492928 0.31478053 0.14718413 0.0011661751 -0.24340072 0.36137578 -0.31639102 0.32769996 -0.33977044 0.03507147 -0.10250425 -0.25608104 -0.7459258 0.23690021 0.87582463 0.012216617 0.37027657 -0.3318366 -1.5052544 0.27913576 -1.1509527 -0.68921006 -0.22694132 0.0055728992 -0.48560983 -0.9157142 -0.08355077
1365 1.0209897 0.381002 -0.38012707 -0.4832539 0.8166701 1.1293014 -0.55902743 -0.6539665 0.8986401 0.20223793 0.5447694 0.53432655 0.24424435 -0.26209903 -0.16177496 0.2651641 -1.5570949 0.55564505 0.17132245 -0.00553667 0.4554151 -0.72721547 -0.44632852 -0.28869134 -0.90873843 -0.09094205 0.9585885 0.29010466 -0.57829624 -0.07693516 0.5067116 -0.92385405 -0.09627985 0.020711545 0.0016111904 -0.023465158 -0.31687328 -0.15444769 -1.255306 -0.0609748
2031 0.8253565 0.7030094 0.9406974 0.09106739 -0.316027 0.2697704 -0.030201148 -0.32753202 0.03755489 1.1329657 -1.2618843 -0.6016376 -0.27588227 -0.19636 0.6052686 -0.27215344 -0.57902217 -0.7652301 0.4381454 -0.8541699 1.1846788 0.6804417 0.32429567 -0.13498482 -0.2317566 -1.0530268 -0.27252385 0.5899404 -0.32923284 0.10765662 -0.04658536 -0.39202023 -0.76911765 -0.33174476 -0.4635233 0.5595776 -0.13033456 -0.2826536 -1.226244 -0.32603896
3487 -0.118850514 0.7911536 -0.7663987 0.5714535 -0.24601503 0.3830242 -0.57257694 -0.2325808 -0.6528246 0.7405278 0.9546314 0.3624048 -0.6496143 -0.34235948 0.25952184 0.19114472 -0.262622 -0.49982843 -0.27912456 -1.1937759 0.62524563 -0.112511836 -0.5088455 -0.3530884 -0.122699305 -0.6687635 0.03226546 0.22012357 -0.5311932 1.2420261 0.93980306 -0.02885742 0.6262853 -1.1246209 0.4824801 0.73950744 0.9421331 0.48263934 -1.7179625 -0.25168064
3643 0.08933806 0.55109084 0.5066102 -0.70426387 1.1672888 0.28209847 -0.69383395 0.0791227 -0.35326698 -0.7814368 -0.09479189 0.10104904 0.017959543 -0.6431086 -0.16459875 0.67724645 -0.8661926 -0.097944945 -0.21923372 -1.3001688 0.37841547 -0.014451136 1.00982 0.25620192 0.61143446 -0.11980193 0.5007423 0.82625604 -0.25922236 0.4948823 1.5311007 -0.65497386 -0.3373131 -0.9373703 -0.0362496 -0.16527113 1.0815954 0.17282914 0.04315139 -0.9090213
2618 1.1006964 0.28929833 0.08908103 -0.47370225 0.22782716 0.47553417 -1.405765 0.0642801 0.73743105 1.636485 0.2591173 0.57658833 -0.4656166 1.2688535 -0.43350852 0.16602348 -0.54821587 -0.14131679 0.44950122 -0.17966227 -0.59237504 0.36036435 0.45238417 -0.120303914 0.3006613 0.071058616 -0.08514169 0.10042619 0.14046009 0.25440848 0.76540846 -0.60071456 0.21689118 -0.5885456 1.1799238 0.74036473 1.0416147 0.4242444 -0.38430324 -0.6277398
4433 -0.13726144 1.1199682 0.4520072 -0.5122099 0.49025512 -0.008780745 -2.315117 0.639859 0.09684628 -0.36794114 0.1274752 -0.33104613 -0.27572554 0.15574853 -0.17629884 -0.5075567 -1.0109714 -0.41226208 0.18636088 -0.64359736 -0.32114854 0.16598009 -0.4522079 -0.14230233 0.6325335 -0.86864823 0.754038 0.27259696 -0.55321115 -0.057951055 0.35625714 -1.0396281 -0.25918886 -1.0346937 0.12827393 0.52787143 0.14828059 -0.17390929 -0.5504375 0.087336875
967 0.92465174 0.687585 -0.25406116 -0.12408323 1.4314333 0.5869779 -0.17999968 -0.5955473 0.7519343 0.7944509 -0.75686187 -0.040171012 0.98743284 -0.15955316 0.4489003 -0.32997984 -0.9924672 -1.0764536 0.6734715 0.21969143 0.8415489 -0.16794635 0.7711534 0.19318312 0.0034266326 -0.2950962 0.7930701 0.19277358 -0.07522533 -0.35129726 -0.37714952 -0.60192305 0.4386955 -0.8987254 0.09167947 0.2008056 0.6260604 -0.67409235 -0.6929335 0.31879285
13 -0.23427302 0.3996885 0.2160948 -0.59302574 0.9711988 0.6784608 -0.7906068 0.6626582 0.2659173 0.56439745 -0.6383573 0.7604229 -0.39388886 -0.5417924 0.72265357 -0.0113460645 -0.9868712 0.034994755 0.27865395 0.28839213 0.46994802 0.06533041 -0.44351882 0.79551697 0.14528324 -0.84925896 -0.9223127 0.39506528 -0.39320156 -0.096838295 1.2695956 -0.40412378 -0.77486986 -0.213008 0.28024986 -0.62285477 1.213528 0.83520484 -0.9119586 0.7157398
3227 0.9503814 0.6978624 -0.93226767 -0.5709038 0.9757012 -0.44701093 -0.47681075 -0.317975 0.66760176 0.83963555 0.497508 0.82529694 -0.3421406 -0.04360368 -0.66248745 -0.41731092 -1.3804119 -0.31508836 -0.6381907 -0.5477934 -0.8120968 0.1861909 -0.13032047 0.04002635 -0.43179566 -0.52663255 0.9925442 0.5186424 -0.0076537896 -0.9593128 -0.027695065 -0.6565708 -0.3450378 -0.11447408 0.13036558 0.7936348 -0.0013511841 -0.4653546 -1.1469897 -0.043864828
557 -0.29023176 0.35775337 0.48563188 -0.6309299 1.1566498 0.9017269 -0.7069379 1.0562857 -0.07141995 0.5376948 -0.857832 0.8288323 -0.62577754 -0.7696298 0.5781739 0.029280035 -1.0309856 -0.28877324 0.28665334 0.18346106 0.12894522 0.24970314 -0.40282887 1.1311262 0.3618525 -0.88037115 -0.3829289 0.26372615 -0.050794248 0.3957457 1.4940956 -0.12832506 -0.5093878 -0.53514016 0.6748917 -0.59365255 1.2049272 0.5199118 -0.39755496 0.6097829
52 -0.197921 -0.28161958 -0.12673086 -0.41656908 0.5307257 0.45353115 -0.74462754 -0.73917 0.20236352 -0.0734181 -0.15689723 1.0880042 -0.43481624 0.18236925 0.4740256 -0.4637507 -0.55039793 0.3807318 -0.49766523 -1.9099561 0.35109377 -0.4121767 1.0241749 0.9938061 0.018164778 -0.7028344 0.511811 0.9390084 -0.3378422 0.279475 0.86451036 -1.2258887 -0.6684086 -1.0969877 0.3504616 0.29524407 0.6482362 0.12681203 0.11128063 -0.2527706
545 0.45547235 -0.118832886 0.3373699 0.22100574 0.8547035 0.64164853 0.047525745 0.20875011 -0.33560592 -0.060704213 -0.7185043 0.16284548 -0.059161596 -0.6331093 0.44545358 0.006092765 -0.6578036 -0.31207386 0.2722286 -1.4146569 -0.05636071 -0.19285816 0.10144785 1.8072245 0.27322578 -0.65241337 0.65434426 0.5159759 -0.3395844 0.2776988 1.7060459 -0.70450217 -0.06609581 -1.0947897 0.34377027 0.41882935 1.2002629 0.22717883 0.14325325 0.07087726
1977 0.5264191 0.6895892 0.009689083 -0.6601297 -0.5779855 0.5095314 -0.61156374 0.25106767 0.5581376 0.7632148 -0.22918437 0.7246614 -0.60044074 0.81037396 0.0036298083 0.023491891 -1.0586812 -1.0567901 0.036524273 -0.04589387 -0.24448438 1.3193401 0.8879577 0.479044 0.040620334 0.17556655 -0.36629125 1.602283 0.23002978 0.93151104 0.75018525 -1.5480279 0.6923374 -0.73735845 0.25792867 0.41109556 0.49401745 0.84127825 -0.47800258 0.12098204
494 -0.57166076 0.2870174 0.076153785 -0.13412428 0.81275773 -0.42263982 -0.14893398 0.032708663 -0.068385996 0.22506121 0.95960325 0.6896811 -0.82195586 0.1480408 0.62205017 -0.44277868 -0.7338933 -1.1946439 0.29566285 -0.516846 -0.019744504 0.02910057 0.27974433 0.39294466 -0.16012308 -1.1166881 0.10164291 0.08013302 -0.07356775 0.85079414 1.2329873 -0.10994018 1.2612023 -0.50759804 0.3462091 1.1776934 0.08081848 0.20822981 -1.5218737 0.22143522
3379 -0.3844662 0.26755095 0.36682686 -0.3423886 0.9680447 -0.97341204 0.20251408 0.060806897 -0.004259304 0.27546874 0.434501 0.64726996 -0.72667956 -0.14540605 0.656417 -0.10089683 -0.55361986 -1.0298978 0.48940378 -0.61332464 0.0065336092 -0.0725719 0.025978858 0.33125144 -0.38593483 -0.8563098 -0.09052493 0.372552 -0.4428095 0.96455795 1.0288721 -0.09856677 1.453964 -0.6641139 0.25467053 1.5152416 0.27262884 0.24551642 -1.5914708 0.10823934
3632 -0.23472884 1.0787961 0.7072405 -0.95101774 0.111427344 0.7882921 -0.73265463 -1.2440575 -0.36370835 0.49493632 -1.0684386 0.30688918 -0.6695637 0.08071931 -0.76310843 -0.8867661 -0.7473666 -1.1950042 1.2246991 -0.019645683 -0.28551087 0.010201854 -0.28278887 0.44353575 0.52553016 -0.94101787 0.2584815 0.693428 -0.4206576 0.74298763 -0.08582239 0.0052234097 -0.5148567 -0.5680591 -0.15014796 0.70918703 0.022997463 0.43056697 -0.26152274 -0.895251
4031 0.4516033 0.8414457 -0.29697183 -0.7490839 -0.7494407 0.7179898 -0.3175411 0.22353658 0.5860316 0.86527723 -0.044287354 0.8609399 -0.70754266 0.9616437 0.017331837 0.3465702 -0.8030242 -0.92200893 -0.069502376 0.0038498687 -0.32884884 1.1340877 0.7512042 0.42371076 0.1172095 -0.06953905 0.070642576 1.7808127 0.010011334 0.7618754 0.4081428 -1.3915855 0.42424858 -0.40582842 0.047291934 0.19240078 0.39751303 0.78100663 -0.5441952 0.2227022
1799 1.1889282 -0.46893206 -0.19047163 -0.56733143 0.19769302 0.013359492 0.18535921 -0.06093685 0.35843223 1.0432454 -0.47559223 -0.27098963 -0.74533194 -0.3480789 0.9333556 -0.005351419 -1.0321462 -0.12238569 0.4973358 -0.27784786 0.46484688 -0.3613198 0.40449217 -0.9087838 0.12235944 -1.0433407 0.32990146 1.1284779 0.30831495 -0.030174294 0.8780318 -0.87350476 -0.22398558 -1.253539 -0.14772163 0.17588472 -0.7432348 -0.084472194 -0.98328865 -0.27145737
2076 0.50160503 -0.08520896 0.40515965 0.5390006 0.7999794 0.9843828 -0.8208065 0.1080954 0.011530728 1.1198804 0.17389517 0.8246085 -0.9866512 -0.85722256 0.8530713 0.13152526 -0.27819884 -0.8974531 0.99866 -1.1148356 -0.05925216 -0.44747978 0.54441696 0.12978546 -0.32615927 -0.13375674 0.7097268 0.008272941 -0.050719 1.1178188 0.315426 0.43162122 0.1729259 0.08852792 -0.22611777 1.2345213 0.45497346 -0.40388367 -0.57473254 0.5206489
4646 -0.042405598 0.4949953 0.27464998 -0.7098057 1.0669479 0.57951933 -0.36022702 -1.1841205 -0.96945393 0.27021772 -0.024912246 -0.039498445 -1.1075306 -0.07479804 -0.96466357 -0.25321126 -1.5501953 -0.6989343 1.1139795 0.060311433 -0.21897529 -0.1671756 -0.25931168 0.48435906 0.6029202 -0.6244571 0.22076097 0.92482734 0.3142236 0.1028349 0.20676883 0.38855672 -1.106414 -0.54905957 0.753592 0.740493 0.52551895 -0.5263913 -0.7004349 -0.37776473
1539 -0.7631739 1.4336737 0.026601681 -0.035887733 1.1017821 0.45981795 -1.0291315 -0.41484845 -0.6700688 1.6197294 -0.53621525 1.181126 -0.28845787 -0.15168355 0.5809553 0.22130398 -0.79674673 -0.5794295 0.22788957 -0.061159827 0.7067878 -0.36378774 -0.14963071 -0.3612581 0.08377538 -0.66234094 -0.21120532 0.54925734 0.48850182 0.6245486 0.48311225 -1.3296413 0.057283726 -0.93305755 -1.2593949 -0.3020015 -0.2968437 -0.27300528 -0.5951972 -0.5913399
4663 0.79504055 1.1139994 0.05366489 -0.8055689 0.3594425 0.020884968 -0.45687997 -0.117486954 -0.63399273 1.510106 0.1859588 0.41754296 -0.7375105 1.3213483 -0.8330829 0.96866554 -0.66361195 -0.3223527 0.16327555 -0.2513 -0.3332541 0.8994887 0.13999532 -0.30528247 0.15086858 0.12601654 -0.3030699 0.7225548 -0.17914626 0.09075471 0.39820775 -1.0541747 0.76870465 -0.7752753 0.14339708 1.172905 0.67774266 -0.45208716 -0.47250146 -0.2511473
709 1.653971 0.70943254 1.2269956 -0.57588005 -0.29179853 0.09027572 0.3755537 0.03764076 0.122551896 0.7989609 -0.56115186 0.12483237 -0.4686364 -0.28931108 0.29907668 -0.14676984 -0.32495397 0.3361649 0.5596922 -0.9933218 1.2052282 0.2518969 0.13918217 -0.09712772 -0.51890516 -0.87128496 -0.3819902 0.7495581 0.2874226 0.08966165 0.6721852 -0.46035177 -0.44763732 -0.56861097 -0.0617778 0.2975461 0.32315695 -0.4407666 -1.319729 -0.2232189
828 0.5601185 1.2008952 -1.0000726 -1.099048 0.8197626 0.39542314 0.370689 -0.044895217 0.19560216 0.05042443 -0.38866132 0.42679372 0.28105122 -0.13475725 0.3242335 0.27958438 -1.544025 -0.42479405 -0.44007552 -0.71567553 0.14748348 -0.13260102 -0.6480021 -0.72331154 -1.1550677 -1.3310192 0.67166215 0.0882262 -0.10887043 -0.563054 0.2521879 -0.48075503 -0.0044626906 -0.45606956 0.3454926 0.511355 -0.028347803 -0.08098795 -0.6534282 0.06639378
4762 0.87051415 0.68082863 -0.21016058 -1.0242854 0.9968128 -0.005402294 -0.028693024 -0.30591792 0.5893179 0.34673458 -0.07521842 1.5198126 0.0056679817 0.32813823 -0.010892978 0.62584054 -1.3203908 -0.775604 -0.5670813 -0.66656303 -0.10915057 -0.7290102 -0.7026413 -0.016407885 -0.44923994 -0.41540262 0.7219808 -0.050048325 0.20011343 -0.74109507 0.8461669 -0.38498935 -0.8816963 0.26518378 0.061582517 0.37869707 0.23494682 0.2631559 -0.529816 0.2640727
3295 -0.37587628 0.6199099 -0.09802809 0.29686022 -0.031702932 -0.05842161 0.38180313 0.07940956 0.3636469 0.26628545 0.3320679 0.24295963 -0.675384 0.04413105 0.7540073 0.2609207 -0.6615513 -0.36942327 0.33717725 -0.4289947 0.17792813 -0.44162285 -0.7397812 0.09121352 0.52534145 -0.8942347 -0.30632183 0.39410836 -1.2577555 1.2143248 0.5491496 -0.6593114 0.98964256 -1.0342945 0.12476052 1.2729825 1.1724802 0.3982589 -1.6362685 -0.23770794
2302 0.5032085 0.8451211 -0.1688935 -0.4081691 0.4828736 0.49576366 -0.04019061 -0.055889025 0.15964925 1.3217299 -0.055662084 1.0690463 -0.3978941 1.1903439 -1.2325231 1.2026603 -0.7217181 -0.16598222 0.18419248 -0.27556983 0.14396386 0.83400196 -0.2024667 -0.31292075 0.058034893 -0.3492415 -0.04564769 1.0675443 0.26837283 -0.26140714 0.57515275 -0.03242798 0.52277213 -0.9064078 -0.07018264 1.3199306 0.60765547 0.9226041 -0.5603073 -0.40788493
1011 0.80968374 1.2481165 -0.38398725 0.6378241 0.79126817 0.035670094 -0.3282176 0.25646195 0.85095054 1.5137348 -0.050270338 1.4076279 -0.37902567 0.14286315 -0.91521853 0.06760607 -1.3349675 -0.10530569 0.26460728 0.579487 -0.13748914 -0.6088363 -0.24665122 -0.13937733 -0.46780217 -0.36483425 -0.12974998 0.26510096 -0.20604841 0.6679408 0.5625827 -0.47293776 0.55949867 -0.06751587 0.25343436 0.7262261 0.8283059 -0.32198572 -0.13615265 -0.56297636
2744 0.3323914 0.748702 0.25711206 -0.31244758 1.587571 1.051998 0.08311232 -0.377511 0.5532045 1.0124031 -0.9275826 -0.4186175 0.5376611 -0.135451 0.60236466 -0.23430575 -0.8185444 -0.8049865 0.82882184 0.2732069 0.491829 -0.23214464 0.3858822 0.30830285 0.24084459 -0.48329076 -0.006474406 -0.18408884 -0.633191 -0.6076813 -0.47757462 -1.0221123 0.509897 -0.7524656 0.43605053 0.6806693 0.2909894 -0.2889256 -0.6734621 0.53634214
2334 0.60881305 0.65996236 -0.16004479 -0.19053356 0.25149813 0.18648115 -0.6124286 -0.08994322 0.08951043 1.4489111 0.65747565 0.42220312 -0.06620948 0.5071744 -1.2202477 1.3001101 -1.1979358 -1.0997837 -0.033949565 -0.36689553 -0.06277169 -0.40723842 0.3853506 0.8601369 -0.095412485 -0.23240526 0.3359817 0.5962168 -0.37872806 -0.4389207 0.50452036 -0.50626427 0.008734836 0.0857581 0.58803535 0.71106887 1.1823831 -0.28665605 -0.3253617 -0.039746564
1709 0.8224004 0.91409874 0.4930969 -0.74615383 1.2202451 0.45525548 -0.89606994 -0.14448427 0.32467481 0.32427108 0.77870464 0.6826126 0.5666133 -0.18914084 -0.31497484 0.11297151 -1.2885311 -0.019954655 -0.24176389 -0.059670698 -0.072574146 -0.01884782 -0.87578696 0.24161994 -0.44028938 -0.6140927 2.056887 0.6975213 0.098953985 -0.35186556 0.44619513 -0.36148712 -0.10695758 0.0043933247 0.20037769 0.72973305 0.12463185 -0.13740003 -0.68607503 0.1515214
871 -0.13483603 -0.09326097 -0.25960836 -0.2634733 1.005115 -0.11116968 -1.1711085 -0.16397832 -0.34532046 0.4698569 -0.34779373 0.7451299 -0.69327736 0.0016308312 1.0113199 0.42511946 -1.0007868 -0.34238476 1.0342133 -1.7527266 -0.020276595 0.0012684957 0.12588014 0.14092638 -0.14878576 -0.13028955 -0.05577838 0.43891972 -0.27930897 0.72581613 -0.15759522 0.10689217 1.0254562 0.75483125 0.46076053 0.91191834 0.6579344 -0.4149633 -1.1243666 -0.21532051
2242 0.3244077 0.9972902 0.12419449 -0.024975229 0.729429 -0.085519 0.05683508 0.55773115 0.48425573 1.3341945 -0.62641877 0.9684475 0.10808495 -0.48684505 0.18658943 -0.62085664 -1.7724975 -0.75510824 -0.1761724 0.31644526 0.9656803 -0.49328005 0.71725154 0.3829679 -0.47113302 -0.63115925 0.2496588 0.0766341 -0.33111778 0.4289482 -0.8134266 -0.78976053 0.27648702 -0.9191509 0.43412888 -0.13893628 0.3528036 -0.038821343 -0.2235107 0.52727
3699 -0.340111 0.04053349 0.27561906 -0.47579357 1.0558717 0.5987531 -0.7479516 0.7684796 0.012782163 0.80437607 -0.55272627 0.88623345 -0.5928717 -0.47634408 0.642984 0.29989272 -0.9422341 -0.12713632 0.50871503 -0.17735092 0.13492192 0.710336 -0.94021463 0.86931014 0.34346652 -0.8617493 -0.86634094 0.6288202 -0.3338963 0.2797285 1.4582664 -0.29990864 -0.71226007 -0.09855825 0.22988966 -0.7267207 0.82658523 0.4795501 -0.9313594 0.2499386
1610 0.43074718 0.5091716 0.8161736 -0.05045856 0.005413654 0.7527192 -0.23371343 -0.13108672 0.8168962 0.29341286 -0.22772765 -0.06167507 -0.50824744 -0.15483384 0.609347 0.4531022 -0.462193 -1.333828 0.5990009 -0.89965236 0.6394166 0.5128134 0.11232459 -0.16491424 -0.24438843 0.06499481 0.5995555 -0.87356704 0.27892202 0.4232584 -0.044927303 -0.1867488 -0.15292995 -0.43151924 0.38267684 0.21881223 -0.21051694 -0.039823286 -1.9929833 -0.37322003
4091 0.37975475 -0.7634303 -0.16097635 -0.1272709 1.0636536 -0.22657916 -0.79939824 -0.010517234 -0.40102205 0.17148638 -0.29674667 0.5933658 -0.9272898 -0.36427087 0.86055046 0.09180128 -0.9575161 -1.2797086 0.38420644 -1.5230832 -0.49572703 0.19189875 0.4388156 0.12971078 -0.24318795 -0.66473925 0.52327645 0.6962379 0.16393155 1.0662614 0.12077066 0.24662752 0.45676193 0.12305149 -0.03944839 0.9052619 -0.16055487 -0.76355773 -1.2706804 -0.019259222
3687 0.33128196 -0.019043488 -0.18110134 -0.3685294 1.0992588 0.34116498 -0.8927616 0.32131866 0.05607301 0.26677987 -0.16235232 1.2187469 -1.2937638 0.3669071 1.4243308 0.048133705 -0.7584429 -1.135832 0.6600945 -0.3920463 0.4370947 0.044109195 0.20469978 -0.28045824 0.16901352 -0.25480437 1.2093179 0.37645876 0.0572732 1.0625217 0.49171343 0.53419614 0.2335699 -0.032435313 -0.16514833 1.3541664 -0.23265557 0.09210783 -0.20209311 0.36023307
3374 1.0622587 0.8283133 -0.21419744 -0.845735 0.6416294 -0.021931024 0.0261654 -0.44151974 0.51465726 -0.011605104 0.64632386 1.0275207 0.023031026 -0.0032561938 0.12535273 0.17070577 -1.5720861 -0.16217417 0.035361927 -0.4283415 0.22385833 -0.4396334 -0.45041004 0.3056668 -0.74371845 -0.7533452 0.9848423 -0.34161043 -0.4692433 -1.2887707 0.40276134 -0.115036696 -0.2702066 -0.4931275 -0.04222205 0.2199912 1.1208032 -0.5419346 -0.707583 -0.053153817
1641 -0.2090982 0.34447038 0.29297543 -0.64753157 1.1574115 0.8487665 -0.71696 0.7965657 0.12421184 0.32510257 -1.0824708 0.5548951 -0.4435439 -0.56469953 0.45425925 0.12795234 -0.92874086 0.0028125576 -0.023441352 -0.046347193 0.6917852 0.17783286 -0.1478035 0.9007158 0.44181815 -0.6940357 -0.5379492 0.6407341 -0.04119146 0.22479329 1.3674171 -0.30055782 -0.27089128 -0.29926097 0.45858803 -0.6663217 1.0409847 0.7215771 -0.67926276 0.8149452
2671 0.3031975 0.68914497 0.53210104 -0.89905286 1.0300651 0.43824878 -0.5339327 -1.5475105 -0.9913103 0.087379485 -0.58954996 -0.045464806 -0.87342185 0.033664647 -0.65070873 -0.53015715 -1.3254273 -0.931185 1.061156 0.35623065 0.105356865 0.0862867 -0.5879978 0.5249903 0.32061774 -0.5182652 0.6031578 0.59514993 0.0892822 -0.16499184 0.4608128 0.28423953 -0.9818908 -0.2257665 0.31633633 0.87001675 0.42783526 -0.11064993 -0.6673551 -0.13758413
2050 0.4311692 0.77655995 0.36155096 -0.63858676 1.2279366 0.2793268 -0.2326038 -0.46764663 -0.37685534 -0.72629505 -0.22795418 0.23841292 -0.8380137 -0.09159883 0.34368545 0.5431366 -0.79536015 -0.13507356 -0.7546125 -1.0070586 0.585729 0.13221306 0.38393232 -0.05798745 0.616066 -0.17737915 -0.27251327 0.96111494 -0.8345797 1.1843594 1.32455 -0.55146646 -0.5777946 -1.2390467 0.52406496 0.42722037 -0.34292617 0.8427012 0.25050515 0.036720347
4405 1.5341673 1.007644 0.5134471 -0.77735895 -0.4221435 0.5754296 0.4216007 -0.042628113 0.6823504 1.5075285 -0.34146073 -0.37316796 -0.04613674 -0.6854591 0.10304649 -0.19976987 -0.2545409 -0.4077513 1.4952089 -0.7087274 0.9146789 -0.37283278 0.31424677 0.113949925 -0.050239127 -0.15351118 0.39432788 0.9387325 0.1575029 -0.40094373 -0.026585214 -0.9831744 0.0022466392 -1.2439135 0.18334976 -0.060191818 -0.19681619 -0.024187492 -0.5404038 -0.152138
338 -0.16745862 -0.16798174 -0.40118518 -0.43309087 0.7699416 0.65767854 -1.0443276 -0.5486975 0.31900892 0.1889699 -0.4067266 0.6984718 -0.6404115 0.20345719 0.533965 -0.24210976 -0.36941805 -0.08591264 0.1312744 -1.9009405 0.47049376 -0.352271 1.0425897 1.069863 0.2750688 -0.10534441 0.25626165 0.41446882 -0.59231794 0.03798012 0.92218375 -1.123889 -0.6155807 -1.3781307 0.35787234 0.08568652 0.077869296 0.5067248 0.41906992 -0.62341756
2848 0.719528 1.2568502 -1.3825054 -0.7629096 1.2202002 0.21404664 0.556873 -0.38998213 -0.03827612 0.10866421 -0.0739908 1.0068364 0.38741598 0.017485378 0.023927597 -0.18063016 -1.682206 -0.3970941 -0.22688457 -0.7750826 0.21056478 -0.24414273 -0.30645493 -0.5399246 -0.80423844 -1.1725597 0.58025104 0.2236861 -0.061154366 -0.47674292 0.15121044 -0.42150232 -0.029345967 -0.54072285 0.014194336 0.5159002 -0.19442724 -0.1447355 -0.5921209 0.42183486
2592 0.29124805 0.5733657 0.0627751 -0.937682 0.48692882 0.8152365 -0.5756542 0.012713455 0.0060656616 1.3019464 0.079064034 0.6731814 0.4283662 0.96263766 -0.7754077 1.0613778 -1.648593 -1.0957865 0.2839185 -0.33208406 -0.23678905 0.56259197 0.17421733 0.5792804 -0.30541238 0.26028574 0.58165276 0.07710295 -0.14493288 -0.4124142 0.7149712 -0.7695476 0.17843372 -0.07957772 0.3418759 0.6771488 1.0283327 -0.82486916 0.008407529 0.39509875
3795 -0.017116683 0.5409074 0.31705272 0.09086509 1.1329818 0.3666274 -1.07054 0.030677428 -0.334512 0.9938059 0.053938344 0.8832535 -0.63027203 -0.008702289 1.2809609 0.30406123 -0.76898056 -0.50830853 1.098242 -1.0694954 -0.42751753 -0.16615507 0.20441025 0.33239403 -0.5009748 0.72290283 0.34850633 0.7044306 -0.43475226 1.1814997 -0.44698226 0.2419057 -0.2054843 0.44494322 0.17582504 0.991566 0.06151052 -0.07404801 -0.99323773 0.09549596
2766 0.49619195 0.6382245 0.29126003 -0.9911738 0.394132 0.53401875 -0.78012097 -1.1152469 -0.6626432 0.48491132 -1.1163113 0.61349905 -0.76746446 -0.25575468 -0.6136735 -0.48988515 -0.42157292 -1.021096 0.8935417 -0.13203791 0.2386802 -0.27428523 -0.72778654 0.73138845 1.1032407 -0.47808403 0.6673741 0.96374196 -0.3312862 0.34068596 0.006139147 0.28780586 -0.74889565 -0.37634057 -0.5714359 1.1841465 0.4971616 0.40075386 -0.41911542 -0.5482592
2396 1.1996627 0.22950159 -0.54727024 -0.5773793 0.46143135 0.9458396 0.120704785 -0.27650902 0.8861868 0.08838547 -0.79583263 -0.76550573 -0.56380373 -0.41263068 0.25564733 0.04851193 -1.5808858 -0.48752767 1.0054792 -0.6117635 0.59684163 0.22385105 0.5907852 -0.44335237 0.21839307 -0.93623495 -0.1661428 0.53932905 -0.12668213 -0.14095774 -0.28663817 0.102794155 -0.039934903 -0.9969379 -0.20539267 0.55229884 -0.20326653 -0.7281596 -0.68129605 -1.0896753
262 1.4357451 -0.40018645 0.053330775 -0.62475413 -0.39178032 0.49069998 0.04729148 -0.13416965 0.18465278 0.32481423 -0.6117308 -0.14619526 -0.50189686 -0.09152182 0.64686584 0.5839117 -1.1745583 -0.28276777 0.6707585 -0.45951295 0.7082193 -0.42124975 -0.041941546 -0.6687737 0.08874346 -1.3879285 0.27944428 0.70154995 0.9624195 0.07322976 0.88774306 -0.8124662 -0.56692284 -0.73247933 0.34697735 0.2903802 -0.52594733 0.11605421 -1.1706179 0.21408631
914 0.6911683 0.32507977 0.1787372 -0.09646194 1.1438979 0.46007743 -0.9062842 0.64219916 -0.5158333 0.66898596 0.27268502 0.8934499 -0.8985532 -0.08915612 1.280992 0.28802642 -0.59365726 -0.86006856 0.7250635 -1.3499749 0.11585358 -0.009689877 0.3572029 0.15412198 -0.2995802 0.49905613 0.3890979 0.6765318 -0.23410532 1.1404368 -0.5583819 0.44264576 -0.16781211 0.15062067 0.07752869 1.040707 -0.3011121 -0.058161747 -0.64317566 0.43250546
3143 1.2008163 0.21698283 0.22117521 -0.3828434 -0.16243681 -0.105151705 0.61995715 0.22429071 -0.41392326 0.99238443 -0.2763573 -0.1467652 -1.2507116 -0.04225865 0.7828499 -0.2298338 -0.94320923 -0.23647347 0.4276687 -0.7331503 0.66761726 0.007161213 0.749771 -0.73222816 -0.09413762 -1.2654979 0.1520057 0.6715148 -0.014867872 0.24013624 0.74413 -1.2702093 -0.3244173 -0.83497125 0.20459506 -0.15754558 -0.94081044 0.25025237 -0.9084608 -0.70316094
2325 0.8511398 0.68720365 0.12650897 -0.114616245 1.3018553 1.111782 0.5951639 0.0071540563 0.48848447 1.1049535 -0.9731186 -0.4190564 0.26984861 -0.4595929 0.47311616 -0.2665817 -1.1160477 -0.49637228 0.92566633 0.30383027 0.5463947 -0.5021502 0.009304204 0.21226937 0.06377733 -0.53192085 0.27879062 -0.48153293 -0.46387294 -0.5171297 -0.11169192 -0.9037276 0.8277968 -1.3184566 0.4554341 0.45997867 0.12412243 0.10498877 -0.78864336 0.012138537
379 1.1982677 -0.2798022 -0.26574787 -0.8965815 0.05783469 0.47262445 0.15879384 -0.71461105 0.80791616 0.9636522 -0.35375193 -0.21026954 -0.67839164 -0.5671989 0.8543222 -0.08089288 -1.1481847 -0.30167487 0.20568469 -0.2565042 0.40251985 -0.48281762 0.40893447 -1.1161156 0.031546015 -0.6404894 0.098366484 1.2353275 0.23984528 -0.025835317 0.7235314 -0.5884663 -0.30249697 -1.401871 -0.1873162 0.40736556 -0.64521813 -0.39927852 -0.4956581 -0.65090275
2341 -0.17311004 1.1227678 -0.09042227 -0.5253009 0.40988094 0.33278444 -1.79411 0.35344872 0.35324773 -0.120027654 0.4536609 0.25378224 -0.08692948 0.21424805 -0.106892094 -0.5565061 -0.75754684 -0.39603975 -0.29193076 -0.9545926 -0.5989484 0.014134695 -0.9010786 -0.09815888 0.5718854 -1.179491 0.8769006 0.10636219 -0.61620945 -0.0051170303 -0.028877104 -0.7175502 -0.5851514 -0.6178552 -0.16620523 0.9145187 0.11258345 -0.16603872 -0.6637571 0.13560744
4139 -0.7599475 0.059466675 -0.17045641 -0.30534106 0.29955336 -0.05468111 -0.33630717 0.008528457 0.12348079 0.059402686 1.1218146 0.7407802 -0.8282947 0.37384477 0.45046997 -0.23749137 -1.1431338 -1.0758575 0.5480406 -0.5286914 0.40574604 0.0028085234 0.19147785 0.27880567 0.16820472 -1.0323615 0.29155293 0.014728759 -0.33386624 0.76330525 1.2776471 0.0034878994 1.0634732 -0.5754688 0.702665 0.86554104 0.008838504 -0.079147026 -1.5415083 0.554258
1082 0.34902167 0.679651 0.22848935 0.08803047 0.45224118 0.3375363 0.470955 -0.2944297 0.9072015 0.6151914 -0.5867202 0.31857944 -0.22707552 -0.46498954 0.5263795 -0.43562406 -0.92476875 -0.85748965 1.3838844 0.2079812 0.6797347 -0.52489877 1.038525 0.092533715 0.49785665 -0.52924246 0.6847241 0.20285313 -0.07839675 -0.3114385 -0.35947272 -1.2015566 0.3341598 -1.1090201 1.1639444 0.37778813 0.22997607 0.5712106 -0.5717146 0.4360978
2501 0.48768055 0.8094215 1.2515908 -0.30865422 0.85488987 -0.034941465 -1.4387641 -0.20139864 -0.4536542 -0.2668671 0.09013892 0.19358781 -0.5700295 -0.6736106 0.540841 0.7570633 -0.94586474 0.07570185 -0.5985322 -1.1655024 0.49317527 0.25823778 -0.36054614 0.08933611 0.24152395 0.49555424 0.22809179 1.2857374 -0.7817855 0.22387831 1.0695754 -0.7439004 0.78221136 -0.94096327 0.33762115 0.45345452 0.30800956 0.9498822 0.0945967 -0.5749667
3444 -0.34776855 1.204289 -0.3442536 -0.16770035 -0.5197561 0.064964056 -0.5651101 0.343138 -0.1072645 0.17007118 1.0872897 0.45307845 -0.9971569 -0.34704375 0.79593015 -0.16653194 -0.93841445 -0.24310313 0.26800135 -0.6407331 0.37056813 0.12079846 -0.6260543 -0.0392854 0.20961067 -0.31924167 0.4233113 0.08694427 0.57277936 0.79381007 1.1078726 -0.0035246625 0.30114222 -0.82313275 -0.2346355 1.8707957 0.9616643 -0.024786426 -0.978179 -0.2440109
4165 1.251171 0.43842328 0.32038197 -0.58842844 -0.3126297 0.32169375 0.103227876 -0.060744226 0.09004751 0.85492635 -1.1405891 -0.5875294 -0.40434667 0.16332929 0.51481205 -0.26712617 -0.92997956 -0.97922355 0.21261689 -1.2698555 0.5643604 -0.009848957 0.08709239 -0.27072996 0.42173737 -0.62790555 -0.4370667 0.5565669 -0.38591507 0.04385002 -0.66770595 -0.7099962 -0.19138269 -0.41617277 -0.41806588 0.32364982 0.2792152 -1.0384365 -1.4975915 -0.40867043
133 0.86871976 -0.1837159 -0.5492313 -1.0548192 0.33654836 0.81360507 0.2346009 -0.96959656 0.92606276 0.82507014 -0.6758629 -0.18910554 -0.39757589 -0.533544 0.6805566 0.18289262 -1.5802003 -0.15900643 0.9065785 -0.2951061 0.56570756 -0.16040011 0.5597623 -1.0583899 0.28986123 -0.71717906 -0.1769378 0.95754474 0.22775942 0.11682463 0.5546417 -0.27543184 -0.6039485 -1.0673561 -0.26435155 0.38373592 -0.63823825 -0.138345 -0.4744695 -0.42091942
2375 0.4328401 0.26263088 0.3939282 -0.8893052 1.2161864 0.6607256 -0.921501 0.4461771 -0.025106002 -0.41313502 -0.11272575 -0.16155906 -0.9749486 -1.0655904 -0.5719558 0.7822354 -0.5938687 -0.06328829 -0.78269243 -0.86448574 0.07298209 -0.09640204 -0.43891892 0.40489608 0.5795989 -0.30833232 0.019352913 1.0049579 -0.46494773 0.43579507 0.45264894 -1.3484203 -0.07815792 -1.0430965 0.66307044 0.752338 -0.39255992 0.87033635 -0.20031895 0.13555826
4079 -0.7279575 0.100323215 -0.12187949 0.13469382 0.2613279 -0.04084463 -0.13017082 -0.10757523 0.16921605 0.28872603 1.083088 0.62434024 -0.7245506 -0.17108203 0.5769911 -0.25210732 -1.0369099 -1.161929 0.23908271 -0.69125086 0.058996763 -0.040065058 -0.14576626 0.2538624 0.34847096 -0.9157005 0.22316507 0.09004435 -0.17631616 0.43546033 1.3631794 -0.12895988 0.96993387 -0.7284505 0.19328852 1.196035 0.32660556 0.19654359 -1.5947001 0.4850344
4387 -0.06281382 0.35595152 -0.51786286 0.109795995 0.76595235 1.0860013 -0.85567594 0.17898187 0.047030054 -0.19884641 -0.9056241 0.16796298 -0.2987035 0.43700674 0.44293508 -0.1614601 -0.34476224 0.87535805 -0.110528685 -1.5813451 0.5099764 -0.24223311 0.15199521 1.2218298 -0.08123583 -1.0651643 0.32527822 1.251298 -0.3006426 0.30444697 1.0341747 -0.8509006 0.13297734 -0.74808353 0.03996083 0.07513701 0.8135318 -0.0011388591 -0.21379682 0.24236427
4007 -0.040499326 0.81231993 -0.012700068 -0.7467067 0.70305717 0.6142588 -0.27848938 -1.2693019 -0.8437821 0.5541685 0.11041554 0.78431845 -0.32582435 -0.37082186 -0.45654577 -0.7662371 -0.58258635 -0.48656487 0.93193024 -0.15963246 0.12803523 -0.032667693 0.3584972 0.054694388 -0.17845203 -0.5970477 0.3863859 1.5509036 -0.86199236 -0.22308224 -0.39241108 0.530284 -0.5351379 -0.7642727 1.0351697 0.075546764 0.8030511 0.3003906 -1.3924744 -1.129061
3134 0.894598 0.25408155 0.21697776 -0.27043074 -0.054181594 0.26765803 -0.91036904 -0.4154725 0.3706197 1.7151887 -0.25174454 1.0773584 -0.024884952 0.42076743 -1.191877 0.5165846 -1.1272393 0.25283805 0.49965262 -0.49515852 -0.4126595 0.80611426 0.4965102 -0.136924 -0.07692897 -0.22590303 -0.0059577017 0.10292163 -0.23363313 0.17903738 1.0931721 -0.920573 -0.19490284 -0.31820756 0.83764744 0.8561284 0.72903895 0.36192092 0.018940138 -0.11984932
1633 -0.5451617 1.4510984 -0.44646582 -0.2978121 -0.13648279 -0.10268607 0.42382634 0.21860844 0.36992827 0.247502 0.87928426 0.35381657 -0.9183551 -0.6580956 1.0012895 0.12561348 -0.9231638 -0.15923445 0.57507056 -0.6034941 0.39254248 0.23898777 -0.58282745 -0.21018733 -0.06078032 -0.4567141 0.36123398 0.17475832 0.13150185 0.7676609 1.1572895 0.007813529 0.5426172 -0.84761894 -0.043766957 1.5454708 1.0056108 0.022249922 -0.9567819 -0.21556476
2554 0.4746287 1.5760844 -0.43763328 -0.1411817 1.1330612 0.21031451 -1.4866362 1.1578358 -0.38035512 0.8414677 0.34493005 0.2622769 -0.20267962 -0.24541509 0.34198424 -1.0426824 -0.3277001 -0.7695264 0.9560535 -0.43266407 0.4281934 -0.4871053 -0.10516404 0.8341505 0.44982353 -0.45453274 -0.5667755 0.78561646 0.18760689 0.08058795 0.72158605 -0.57006764 -0.49010774 -0.2020466 0.49411604 0.48675653 -0.5147423 0.56865585 -0.8339415 -0.38518453
3787 -0.73775405 0.94244343 -0.1823785 0.43900666 0.32417116 -0.3683888 -0.10769785 -0.24218574 0.07454317 0.32785618 1.2136097 -0.12113163 -1.0525138 -0.15243344 1.0430787 -0.37757912 -0.66114193 -0.73194754 0.34857434 -0.35386977 -0.23971975 -0.08940982 0.2771952 0.10421818 -0.21981172 -0.5703654 0.32728142 0.50658244 0.05066109 0.78337294 0.95426637 -0.5074316 0.31237125 -0.9414208 -0.3623059 1.2076131 0.72342384 0.18348016 -1.7408651 0.26678282
4082 -0.00919993 0.051364552 0.24872948 -0.65613645 0.44059923 0.29471046 -0.58262867 -0.74463826 -0.14394568 -0.24592486 -0.26749313 0.7058156 -0.7528738 0.19344051 0.5478996 -0.43559334 -0.16141729 -0.24671543 -0.039841942 -1.2176483 -0.29759762 -0.34393698 0.60217017 0.87540823 0.9115779 -0.294864 0.92492115 1.3015937 -0.740963 0.49576908 0.70484525 -1.453958 -1.0172857 -1.1204528 0.22672081 -0.15015809 1.1522946 -0.29708612 0.004737605 0.19322959
286 0.73381555 1.7109182 -0.5456112 -0.04130273 1.2391502 0.94086057 -1.1106112 1.0200492 -0.19537717 0.57454705 0.58138585 0.47814316 -0.034471087 -0.14207688 0.58466023 -0.9266709 -0.32769787 -0.6878606 0.77288145 -0.6337981 0.49320722 -0.6934235 -0.13530652 0.7001534 0.64391226 -0.49102104 -0.49506754 0.6897758 -0.086075135 -0.11401815 0.53099 -0.3744812 -0.48523885 0.46453753 0.29124022 0.66906625 -0.10642629 1.0085952 -0.83129954 -0.42607385
1975 0.24087967 0.9767587 0.36782423 -0.8944649 0.81493616 -0.28351963 -1.4155657 0.4985853 -0.39356688 -0.17551604 -0.0037234707 0.30615968 -0.35945714 -1.2091792 -0.0733548 0.49432576 -0.4410132 -0.30417418 -0.9344685 -1.3290575 0.9508183 0.68353343 -0.2576998 0.2570755 0.70231235 0.06052385 -0.101651154 1.1598389 -0.65335053 -0.16493952 0.7994778 -0.55957764 0.33898297 -1.2511389 0.0448463 0.35304752 0.46673787 0.2717806 -0.3422574 -0.046963956
4060 -0.48430032 0.236375 0.48666564 -0.19741066 0.720301 0.45163503 -0.5380859 0.03516045 0.5222538 -0.03942713 -0.95517504 0.31864837 -0.17575961 -0.18211986 0.23516782 -0.13737585 -0.53350604 -0.005143534 0.640888 -1.6282113 0.3218062 -0.44741875 0.19507907 1.3880278 0.29554287 -0.91848415 0.8380884 0.9605025 -0.039818075 -0.2880642 1.2527469 -0.9134637 -0.17873311 -0.97329265 -0.33230212 0.24833864 0.51854074 0.43552795 0.53669554 -0.2573211
3887 0.7570734 1.047376 -0.16860043 -0.3659563 0.34902853 1.007198 -0.5586708 -0.11123575 0.5835344 0.86887693 -0.16405556 1.1321288 -1.0022795 0.7854082 -0.5493529 0.31203708 -1.0045074 -0.036598545 -0.40004554 0.07889107 0.26950037 0.83146447 0.04934142 -0.7028286 0.27453616 0.021913266 0.056730844 0.23501575 -0.39157864 -0.21911931 0.68430763 -1.0560495 0.16926284 0.3398136 0.49116722 1.0202572 0.60869193 -0.26495796 0.025754035 -0.69413763
3090 0.45750836 1.0024195 -0.36906528 -0.91552436 -0.873796 0.2730519 -0.44478065 0.35646448 0.4124475 1.1571229 -0.062870644 1.158876 -0.71846104 1.098774 0.07033414 0.6150857 -0.9751836 -1.0028434 0.26951432 0.041090913 -0.63506305 1.0266 0.5651117 0.53288734 0.32264915 -0.142317 0.12510751 1.2990336 0.018711781 0.80551106 0.40942279 -1.2508174 0.45874098 -0.54878604 -0.17346121 0.1428655 0.29820356 0.35135022 -0.5065426 -0.09314264
520 1.125362 0.3111625 -0.06650598 -0.2511053 0.07878674 0.14514968 -1.0852184 -0.45771733 0.15416704 1.6785 -0.29421028 0.9640875 -0.039374076 0.42054805 -1.2271594 0.47297934 -0.99722546 -0.008114911 0.90126497 -0.6968054 -0.053059142 0.7751808 0.46974316 -0.6214685 0.17780474 0.1075206 0.19527672 0.80808675 -0.3039688 -0.07714086 0.8418084 -0.88401395 0.06919993 -0.28812337 0.8942073 0.5950908 0.9970387 0.54210955 0.09876495 0.18950231
1033 0.27724147 0.7820012 0.33611482 -0.33978215 0.73020804 0.48397335 -1.7445469 0.30470365 -0.3058819 -1.0274372 0.37757507 -0.2236845 -0.57012945 0.10611586 0.19651614 -0.16617335 -1.0891092 -0.426518 -0.03701841 -0.5814894 0.15634169 0.5681584 0.17783546 0.033895124 0.8193816 -0.19047518 0.60855967 0.85807997 -0.34429204 0.42907625 0.3301093 -0.5675943 -0.5121309 -1.7333828 0.6210036 0.6342449 0.71319956 0.5008286 0.58604056 -0.3991787
29 -0.07944311 1.238761 -0.29336917 0.25537103 -0.35869652 -0.20988688 0.04246486 -0.0162563 0.0046782745 0.18099001 0.62927413 0.33178383 -0.8664273 -0.2882015 1.0537705 -0.15124367 -0.58478796 -0.23360445 0.25635666 -0.28834334 0.1676222 -0.6252623 -0.73234725 0.097396396 0.41858763 -0.64050543 0.24755651 0.24872893 -0.91709983 1.2553673 0.66664696 -0.54227656 0.85734975 -1.0709674 0.12107034 1.0100474 0.96993184 0.34864262 -1.4502232 -0.21030888
4617 0.6653015 0.36559552 -0.58245844 -0.6723198 1.230743 0.17708991 0.15061435 -0.22435983 0.8590718 0.74578434 0.45930916 0.6682589 -0.16506527 -0.067087345 -0.22940587 0.4003144 -1.720762 -0.77443427 -0.9235439 0.049004935 -0.059785724 0.21555576 -0.25790924 -0.29704085 -0.4710602 -0.4220512 1.11089 0.65831614 -0.3126025 -0.5801385 0.062009994 -1.1795127 -0.14640835 0.3926226 0.39522043 0.6810153 -0.01813198 0.24631156 -0.70933515 -0.18856393
4143 -0.69217294 1.2379916 -0.33376598 0.042424187 0.78976434 0.53682995 -0.67234087 -0.30145368 -0.2740277 1.5755408 -0.7717798 1.8749887 0.22998746 -0.59911627 0.72125053 0.23709922 -0.17259355 -0.745335 0.24207124 -0.4458719 -0.13203971 0.18765998 0.2573316 -0.6252981 -0.40139312 -0.6841699 0.24221039 0.89994925 -0.07981441 -0.1211194 0.2889107 -2.1208847 0.024309393 -1.1501974 -0.81960255 0.024861991 0.16278553 -0.5335008 -1.003665 -0.34449118
148 -0.652077 0.5096333 0.10265458 0.5627317 0.2803511 -0.07274576 0.68984973 -0.1614578 0.61919534 0.3000933 0.48069936 0.16916569 -1.0339998 0.10023838 1.0447526 0.13518012 -0.67607224 -0.5477045 0.6730677 -0.350984 0.22169307 -0.23450571 -0.5482858 0.14868079 -0.0036198443 -0.5881273 -0.51304364 0.70141053 -0.5418727 1.2086302 0.6868238 -0.8598304 0.6727174 -1.1399605 0.112663954 1.2090558 1.0761231 0.4380898 -1.593955 0.06420323
749 -0.32308146 1.2272809 -1.0938386 0.6539941 -0.33771315 0.17439234 -0.71866524 -0.5532855 -0.6897352 0.36442193 0.66846764 0.21665743 -0.60559434 -0.34549132 0.83366245 0.68486553 -0.5090849 -0.40217787 0.30823585 -1.0734242 0.9594567 -0.14477442 -0.512236 0.22515595 0.62457615 -0.48966557 0.067183174 0.0051549166 -0.33490872 1.3613393 0.5233166 -0.77423114 0.30434343 -0.9933487 0.3693452 0.91141933 0.7111848 -0.04241043 -1.6479452 0.04244724
2166 0.5550759 0.9574369 0.79327106 -0.6905639 1.2534889 0.66656953 -0.40286264 -0.21083215 -0.11178195 -0.15774925 0.17056347 0.1910711 -0.11876361 -0.6477444 0.7020919 0.76303804 -0.47925296 -0.35909173 -0.3526305 -1.001001 0.69521284 0.07940152 0.15112394 0.26207593 0.83256185 0.20277564 0.35410902 0.7970277 -0.5366498 0.82639295 1.3505821 -1.1931983 0.008418914 -1.2455177 0.66485107 0.329765 0.20649476 0.4247174 0.8951526 -0.10200176
563 -0.32346746 0.92050064 0.016412735 0.037605785 0.19568309 -0.11148568 0.13654074 0.17502305 0.40747318 -0.22510181 0.85343456 0.4806853 -1.1782522 0.30921155 0.4697833 -0.34025487 -1.4337232 -0.9406769 0.40432775 -0.098942876 0.11215449 0.09495572 -0.13248868 0.26053414 -0.16789123 -0.7084157 0.3855235 0.15795411 -0.06850697 1.1684915 1.0345125 0.21331528 1.1491367 -0.70382965 0.66401935 0.7086295 0.14683211 0.19250757 -1.4102165 0.10321925
4505 1.5563195 0.3859058 0.37611735 -0.6616258 -0.34039065 0.68313175 0.5300844 -0.073510766 1.0323722 0.5798963 -0.8035545 -0.41977194 -0.5359589 -0.52991474 0.18931465 -0.22515027 -0.9721823 0.085079834 0.30696037 -0.8941793 0.032714643 0.105368264 0.27771854 -0.320369 0.20824257 -0.48611438 0.31836417 1.3016081 -0.11090193 0.25589284 -0.18464212 -0.58585006 -0.35593718 -0.5281448 0.31253806 0.096627116 -0.18620814 -0.4534636 -1.2344719 -0.7922264
3872 -0.14894988 0.96982026 -0.72942716 0.28262907 -0.5361131 0.32499805 -0.41954616 -0.037318617 -0.44111976 0.51783997 0.9254265 0.5280456 -0.69160336 -0.41363513 0.31774226 0.56194437 -0.8902258 -0.14955048 0.03705889 -0.48220447 0.47386324 -0.48364705 -0.9886544 -0.12105957 0.7246631 -0.45951092 0.39996955 0.16890931 -0.8448183 0.92674303 0.33366483 -0.14187552 0.3744998 -1.5422535 0.1251163 0.9334205 0.8611871 0.47384304 -1.5552366 0.28936523
1262 0.56590885 0.7596248 -0.13017923 -0.6716954 -0.6875355 0.24769647 -0.5939732 0.09176363 0.54728335 0.8334153 -0.35072833 0.92968774 -0.33998126 0.71118504 -0.120594256 0.10246744 -0.83326787 -0.95337886 -0.0092218695 -0.062378798 -0.22767414 1.3831804 0.6116607 0.66967416 -0.0378212 -0.053407226 -0.059973437 1.6109914 0.3443362 0.8050023 0.6051797 -1.2469517 0.4604663 -0.7826557 0.08287528 0.1860342 0.83490485 0.9928801 -0.47078928 0.043752734
1028 -0.4382981 -0.32339773 0.5741066 -0.39613715 0.5182563 -0.48880637 -0.85054445 -0.040210932 -0.026365424 0.55818796 -0.23391335 0.660783 -0.28671336 0.14985582 1.195281 0.1883729 -1.3229918 -0.85665697 1.3563493 -1.2786405 -0.2782006 -0.05214067 -0.042977624 0.3446752 -0.4834591 -0.02331346 0.03643522 0.44484118 -0.15009215 1.1217204 0.6447788 0.16274203 0.6987384 0.27466857 0.0027928394 0.93332094 0.44782194 -0.61786914 -1.0739135 -0.19591336
3089 0.28427774 0.9484809 -0.1162817 -0.8238295 -0.24846643 0.4420381 -0.30240747 0.41684726 -0.32529387 1.2825162 0.15393247 0.591716 -0.6408624 0.95945114 -0.73307306 0.8038364 -0.73572046 -0.99931353 0.57416314 -0.6434505 -0.36234033 1.0481149 0.0995739 0.8645586 -0.12452097 0.5818724 0.37765515 1.2089664 0.48734403 0.0080633685 0.8200463 -1.0855194 0.34959188 -0.46530178 0.40402234 0.6814064 0.44141373 -0.26693466 -0.17499106 -0.06093323
1308 0.6612515 0.7526242 0.74242157 -0.41638836 0.5886083 -0.0022087956 0.5865813 0.27799192 0.19039233 0.58354604 0.96271485 -0.20222528 -1.0432719 0.39548007 0.24599613 0.21343368 -0.47391537 -0.49645206 1.1063522 -0.6815057 1.0290272 0.39158237 -0.06886482 0.35281762 -0.7312958 -0.75569886 0.048525214 -0.05883509 0.5183409 0.74451965 -0.37640747 -1.289308 -0.5777278 -1.313075 0.14267118 -0.18300599 0.24221484 0.4622929 -0.72107273 -0.38116086
3128 0.8532011 1.5119791 -0.7125771 0.43103155 1.4582386 0.14445716 -0.65016246 0.4278881 -0.20800705 1.5913451 -0.095978945 1.070115 -0.4179648 -0.17915314 0.14481097 -0.20108774 -1.1529067 -0.43672627 -0.421206 -0.09740037 0.639344 -0.82598716 0.16296169 -0.31816196 -0.47515324 -0.7438434 -0.12403922 0.42267653 0.03533097 0.48155573 -0.3333399 -0.6262379 1.1538604 -0.920023 0.30699277 -0.0043552173 0.37707475 -0.110321805 0.45572197 0.25271645
2688 0.6829699 0.17880277 0.54011065 -0.77531505 0.7758904 0.84935844 -1.0742452 -1.0208263 -0.98990387 0.3446488 0.019971615 0.48701864 -1.2896159 0.07012531 -0.2943116 -1.0731264 -0.40544474 -0.4423336 0.90554297 0.034551073 0.20633806 -0.2552202 -0.7183165 1.0879811 0.9750585 -0.22548956 0.15528987 0.8903135 -0.4313029 0.788432 -0.076395154 -0.16379574 -0.636645 -0.46130905 -0.44347057 0.6439067 0.7339896 0.1154675 -0.5934911 -0.40836364
751 1.3538531 0.7912683 0.17304642 -0.47621322 -0.42021796 0.50423396 0.5193099 -0.43541828 0.35432112 0.44270125 -1.0240339 -1.066679 -0.6294471 -0.32787588 0.3401066 0.053973686 -1.5367417 -0.3410278 0.9272178 -0.8047182 0.33155674 0.25624314 0.471189 -0.5155512 0.25320753 -0.5111354 -0.27034876 1.1923292 -0.030325053 0.3296301 0.42706746 -0.58529603 -0.50102973 -0.47558376 0.2672387 0.008860606 -0.1995834 -0.5168033 -0.90524864 -0.6424629
2093 0.5835199 1.0920318 -1.1021973 -0.88549644 1.0413872 0.094293214 0.3178066 -0.40788049 0.061801635 0.30945945 -0.082099184 0.86310387 0.18941389 0.19076435 0.3652181 0.28047994 -1.59636 -0.5399525 -0.28393817 -0.71912163 0.45889372 -0.23945571 -0.74920696 -0.7276577 -1.2161028 -0.9216619 0.67274547 -0.10911427 -0.30161807 -0.552355 0.31275007 -0.6463161 -0.09135286 -0.60324526 0.269296 0.22251227 0.07830815 0.22908068 -0.21443264 0.087863654
3190 0.62726396 1.06139 -1.0389373 -0.88323796 0.9413938 0.18128493 -0.16738693 -0.13123119 0.26523367 0.29122075 -0.16306596 1.2066023 0.5744532 0.660202 0.26331607 0.4077088 -1.2254237 -0.23084362 -0.134522 -0.38765347 0.32540596 -0.8685205 0.047085416 -0.38817397 -1.1629246 -0.38829616 0.32716152 -0.33555502 -0.16111211 -0.37802073 0.28108203 -0.7249314 -0.03159422 -0.41415036 0.34339574 0.3302725 0.07213536 0.24296737 -0.91814554 0.8389048
2622 -0.7585037 1.0939442 0.6076957 -0.23811717 -0.28701514 0.2382627 -0.13398615 -0.32667273 0.084478244 0.070423216 0.77918106 0.55393213 -0.63866854 -0.31704718 1.0074526 -0.47508374 -0.78356975 -0.7749197 0.16469465 -0.9977256 0.4064881 -0.18629272 -0.5280883 0.0054388833 -0.32723597 -0.28087795 0.3010479 0.6025211 -0.086014025 1.7072667 0.97243255 -0.3192137 1.0510956 -0.3867298 0.57926095 0.7049861 -0.15983866 -0.06346253 -1.0614687 -0.38939446
548 0.6207553 0.5341083 -0.384538 -0.73370135 -0.50002426 0.45772952 -0.64506733 0.03157442 -0.28489923 0.8492964 -0.13531344 0.715082 -0.29390064 1.0002902 -0.4142103 0.16023012 -0.9250076 -1.5333016 -0.45696536 -0.4714946 -0.035283927 0.9741599 0.08556779 1.1948322 -0.6065671 -0.39887017 0.6005664 1.1706797 0.47684592 0.5398581 0.37658283 -0.9812212 0.55968535 0.037926603 -0.37156755 0.54771084 1.6207416 0.11811458 -0.5152235 0.19809094
4753 -0.04873936 0.9505201 -0.07261069 0.2942072 -0.1994192 -0.15865679 0.0011596113 -0.23101988 0.23497626 0.11741622 0.4582979 0.1949963 -0.7679391 -0.56274307 0.48870608 -0.2882364 -0.99567795 -0.7573399 0.11950219 -0.38089296 0.1274437 -0.44749215 -0.72352284 -0.120652676 0.08375492 -1.0706547 -0.060434915 0.17066519 -0.875217 1.7948071 0.8981208 0.091712944 0.8308212 -0.47625554 0.6835539 0.8235341 0.66112065 0.30426335 -1.5568599 -0.41380224
4490 1.4824936 0.80836064 0.89502573 -0.6476448 -0.53109473 0.041049045 0.42865846 -0.025463223 0.09374399 0.5256752 -0.088482566 -0.026001036 -0.9143869 -0.103314176 0.53139895 0.1633998 -0.43458015 0.10368804 1.2619585 -1.0285728 0.9946063 -0.294659 -0.09582918 0.030377155 -0.5819527 -0.67488986 -0.4384628 0.6207563 0.35423258 0.059494365 0.7246004 -0.7329132 -0.4651774 -0.9775311 0.1621801 0.027461527 -0.2575401 -0.002365622 -1.0034075 0.077497624
3081 0.22761995 0.92209023 0.353815 -0.8493764 0.3708569 0.49466252 -0.4010435 0.23085135 -0.26584414 1.945549 0.047070425 0.5432588 -0.18569836 0.7141094 -0.9695517 1.0898407 -1.0067081 -0.78875035 0.14897925 -0.6642211 -0.27170685 0.74013 0.12655678 0.67013067 -0.02477294 0.21473181 0.33375362 0.23347263 0.11660208 -0.5237346 0.6852421 -0.4432213 0.46233997 -0.37821478 0.4638161 0.74743724 0.98764765 -0.37222046 -0.023827808 0.29354322
3818 0.36487082 0.54168326 0.5596257 -1.166724 0.49683022 0.852084 -0.8513758 -1.3747998 -0.5385368 0.3523566 -1.1841213 0.34322935 -0.7380479 -0.05508085 -0.65648544 -0.5677885 -0.8103455 -1.2187027 0.5748977 0.3382111 -0.47873417 0.0050655385 -0.59090644 0.4773119 0.43944332 -0.71591836 0.7444732 1.2828496 0.09971509 0.6813342 -0.0045530414 0.25439507 -0.8867991 -0.54960555 -0.6676911 0.8087845 0.777289 0.30025822 -0.7745794 -0.20893322
679 0.96605456 0.3327828 0.07116426 -1.0330276 0.28584412 -0.006243474 0.6144796 0.6486785 0.9965084 1.3413937 -0.5688825 -0.667375 -0.37980476 0.1763346 0.44663915 0.5614948 -1.0713887 -0.42224115 0.5148303 -0.2307451 0.61586696 -0.62588555 0.27358767 -0.21653318 0.22675718 -1.0945874 0.69384724 0.36945528 -0.2031323 0.1384194 0.10728244 -0.56989723 -0.241805 -1.2789174 -0.014105721 0.39183694 -0.89109415 -0.28280407 -0.93441784 0.74977845
3044 -0.7568104 0.14624238 -0.02187145 -0.717382 0.32785317 0.29226163 -0.7414648 -0.19157954 0.22153842 -0.11677029 0.7145318 0.89647126 -0.8816327 0.6726953 1.3993955 -0.16590738 -0.82488394 -1.4082898 0.75852585 -0.5455937 0.4030882 -0.030578239 0.06280034 -0.51732546 -0.15559912 -0.43595672 -0.052883063 0.42318887 -0.5612735 1.2260374 1.0102746 0.3643557 -0.2314191 -0.08831509 0.014962189 1.1873013 0.18553513 -0.18352695 -1.019977 0.3549885
2999 0.15512413 0.7801688 0.7846756 -0.67670846 1.4614741 0.41046068 -0.8354577 0.40604272 0.024734879 -0.46969378 -0.015718142 -0.066494524 0.18390815 -0.32927307 0.59356785 0.6701735 -0.9183659 -0.20833799 -0.2626449 -1.0240946 0.35786027 -0.02319489 0.6081509 0.14161706 0.5524595 -0.15871347 0.42221394 0.7300893 -0.6348613 0.0066766837 1.1262889 -0.9117291 -0.31343848 -1.8025407 0.20403527 -0.28100604 0.563301 0.13108134 0.5585826 -0.6277927
4890 0.88958144 1.1671656 0.3537877 -0.50339913 -0.2204019 0.5345706 0.6215081 -0.2691198 -0.65898246 1.0450647 -1.0741239 0.3662349 -0.23349707 -0.43081918 -0.019779311 0.09617403 -0.355445 -0.0016085776 1.0768772 -0.7532805 1.3001 0.2826578 -0.013529858 0.025925752 -0.25887132 -0.62916946 -0.40221637 0.09890974 0.0694859 0.5274458 0.14446393 -0.9354823 -0.59763426 -0.8779814 -0.18446569 -0.31718048 0.023467839 -0.27405378 -0.9493519 -0.6244129
1110 0.9946093 1.0113777 -0.34536946 0.1252895 0.67574483 0.06647691 -0.25622794 -0.22498277 0.73107743 1.6543624 -0.14201063 1.1602931 -0.22311987 0.73222715 -0.78140366 -0.19130686 -1.2474422 0.13268419 0.09699338 0.22795576 -0.7934194 -0.19338858 -0.7152125 -0.057233773 -0.6364312 -0.25421154 -0.17413433 -0.09527534 0.30404276 0.46493247 0.9165384 -0.7929296 0.2923087 -0.34352952 -0.12338157 0.90391886 0.9162595 0.22554699 -0.17843966 -0.41565984
3104 -0.83120567 1.3425413 -0.0489682 0.117937334 1.3379251 0.618133 -0.9294741 -0.49251026 -0.5280255 1.5411407 -0.6396619 1.218949 -0.17811745 -0.029906569 0.60122174 0.16489768 -0.33843872 -0.4910629 0.3155662 -0.28403443 0.34900856 -0.27709973 -0.029508926 -0.4692617 0.17009196 -0.6722899 -0.07545614 0.7008326 0.34181985 0.4598394 0.33201337 -1.3154329 0.0549511 -0.8962611 -1.1760821 -0.20816475 -0.11651216 -0.31391925 -0.57531416 -0.5340073
3007 0.6433424 0.66104305 -0.46371514 -0.22679117 0.1364757 1.1238358 -0.34161663 0.07669632 0.2172249 1.0581417 0.049079016 1.0264281 -0.6480499 1.0368254 -0.55669534 0.21114679 -0.8080572 -0.10515794 -0.2011954 0.050270263 0.47840813 1.2711635 0.29100457 -0.6561786 0.21717396 -0.09400621 0.29305357 0.54521894 -0.381645 0.14434971 1.1343242 -1.3000368 0.050213665 0.13323371 0.53199583 0.95470595 0.6023277 -0.74257284 -0.33908206 -0.11437237
2741 0.47179005 -0.64272344 0.103277184 -0.25456852 1.2584194 -0.20471227 -0.65159523 0.38611665 -0.39559963 0.19865902 -0.1923412 0.96236193 -0.62300915 0.221215 1.2434971 0.4532648 -1.1653271 -1.1249119 0.73699164 -1.507804 -0.14440483 0.30864453 0.086726256 0.07573112 -0.66210604 -0.39199486 0.34815678 0.9333121 0.1097667 0.9986653 0.30882174 0.35183984 0.52410614 0.20048791 0.054259866 0.905411 -0.14819658 -0.37386426 -0.87447125 0.11699806
4057 0.5245012 -0.38835597 -0.50378656 -0.5820901 0.928191 -0.15531749 -0.8807461 0.27460173 -0.6994652 0.5643332 -0.22166109 1.2654719 -1.1959988 0.07127694 1.2171888 0.14733706 -1.0043874 -0.74899995 0.4977737 -1.3071481 0.0024599677 0.31555712 -0.035864882 0.16857009 -0.028517809 -0.054424945 0.56274194 0.92271864 -0.45278463 0.8976953 -0.027801057 0.501889 -0.042668886 0.18697861 -0.20987937 1.0432738 -0.43484902 -0.31908682 -0.8114731 0.1982299
2720 1.196062 0.5651098 -0.0829747 -0.44341308 0.067763515 0.2971298 -1.5632117 -0.17959842 0.35700896 1.7362343 0.29165623 0.47427386 -0.5285972 0.8885664 -0.45957416 0.33513853 -0.4618356 -0.23175217 0.6968898 -0.14875339 -0.6030528 -0.05960227 0.49977782 -0.5103097 0.34798852 0.009186875 0.058538444 0.66343445 -0.15119454 0.041075338 0.39310735 -0.64036995 0.40818584 -0.3616668 1.1191919 0.39633194 1.1187876 0.13905062 -0.22024678 -0.6973963
3927 -0.8885206 0.3430592 0.57846415 -0.06620392 0.2152366 0.26480427 -0.3035045 -0.2395413 0.12094884 0.20004986 0.9880334 0.85201126 -0.5486759 0.14414193 0.52464163 -0.6789013 -1.0204083 -1.1412272 0.58640337 -0.78367 0.25759757 -0.016090471 0.09384773 0.22391142 0.2710029 -0.6935712 0.23347518 0.22880918 -0.19753672 0.5182223 1.3993223 0.031121297 1.1847706 -0.66969794 0.61791915 1.083352 -0.19309026 0.030830802 -1.3743213 0.3442835
3311 0.9577838 1.0676068 -0.049249906 -0.62626684 0.19462283 0.60183734 -1.0760808 -0.27376574 0.19038247 1.9141529 0.117479414 0.46655667 -0.7741178 1.3364106 -0.31608853 0.3864601 -0.57967454 -0.22381373 0.3079611 -0.2650286 -0.26129243 0.7321833 0.13503312 -0.6145532 0.5185461 0.3361511 0.0990238 0.6740685 -0.088411175 -0.060853854 0.009242427 -0.63613605 0.10697795 -0.4240964 0.8489393 0.783843 1.0107445 -0.05502922 -0.14076999 -0.14305766
2273 0.15640709 1.0538695 0.25116742 -0.3561367 1.0293481 1.2173015 -0.7517613 1.2755194 -0.054325294 0.46022078 -0.64572173 0.6839261 -0.69766945 -0.6756159 0.42415154 -0.156388 -0.98157173 0.39285272 0.32981417 -0.24661815 0.55659735 -0.10270386 -0.38782263 1.0166739 0.48614532 -0.7496762 -0.33508882 0.49391428 0.37225774 -0.3628717 0.85987073 0.008411862 -0.19945033 -0.017585848 0.63858336 -0.33345926 0.3737393 1.000951 -0.77639556 0.14739668
2698 0.020392207 -0.78764546 0.3048227 -0.28984323 0.7293353 0.087806486 -0.6790609 0.06888573 0.060802497 0.4219799 -0.45641625 0.62392855 -0.695104 -0.5519173 0.74814564 0.24387535 -0.7479764 -1.1857136 0.71005803 -1.4149425 -0.6102847 0.15571317 0.59240854 0.11621496 -0.43469495 -0.47600138 0.5676879 0.39980346 -0.0150837675 1.324105 0.24216348 0.15430924 0.57567966 0.26801774 -0.026285522 0.9633349 0.52149725 -0.7440817 -1.4328508 0.11916813
2142 0.36051047 0.48218068 0.22997892 -0.56848437 1.3020817 0.68620896 -0.7660331 0.26402575 -0.1116706 -0.58372533 -0.036020182 0.080270685 -0.12929706 -0.56919044 0.57731915 0.4072079 -0.7004222 -0.26346862 -0.39395586 -1.5050658 0.18865484 0.19248407 0.2723055 0.13680774 0.84320104 0.3354822 0.11188466 0.42144173 -0.63258433 -0.30180612 1.1174234 -0.9912886 -0.121126264 -1.4624635 0.05477445 -0.28841388 0.9119579 0.016891658 0.014256074 -0.9000175
2164 -0.8010217 1.2399533 -0.119156614 -0.09988898 0.7591292 0.6049319 -0.90738946 -1.0218506 -0.7221184 1.048891 -0.5229295 0.95911837 -0.7532268 -0.45313054 -0.2217796 0.2373937 -0.8448321 -0.29512694 0.13043883 0.10381325 0.6684173 -0.49336627 0.059861843 0.5573993 0.23330417 -1.2321644 -0.27186623 0.83423984 0.2719902 0.3674767 -0.12587157 -0.8190475 0.005803821 -0.8870458 -0.9170215 0.017623002 -0.24180332 -0.356703 -0.26545164 -0.7739853
397 0.1508053 1.0662408 0.07081842 -0.7563011 0.9094086 0.7963956 0.29081967 0.15414868 0.39354196 0.5585407 -0.8604083 0.5042186 -1.8174044 -1.0757147 0.02196621 0.3527902 0.2037853 0.19855307 0.295259 -0.8035193 0.35873583 0.17243767 -0.48097727 0.54402244 0.4265393 -0.43417364 0.006078478 0.4061792 -0.8421004 -0.046573747 -0.59333813 -0.7401224 -0.35126972 -0.20439662 0.2976581 -0.022374464 0.91990477 0.18762182 -1.5453755 0.6472723
4450 -0.440639 0.7814146 0.3625711 -0.29331923 1.2437344 -0.06793271 0.2176097 0.060289342 0.23673677 -0.1921246 -0.19893694 1.1245723 -0.93379456 0.07888126 0.6527068 -0.4576441 -0.25532672 -1.0397863 0.5577695 -0.6018284 0.3622201 0.45612207 0.0983902 -0.21968865 -0.721928 0.45329472 0.6698424 0.6233547 0.4721185 0.76072234 0.40029627 0.19403389 0.6393259 -0.8610442 0.69176686 1.1892169 0.06165224 0.13443111 -1.3234302 -0.17107363
2753 -0.21973476 0.765068 -0.17762811 0.23888017 -0.39168966 0.5875972 -0.88574624 -0.18659936 -0.5915721 -0.14766057 0.944604 0.68506324 -0.9754122 -0.401086 0.08846297 -0.027698679 -0.7872396 -0.72291726 0.6989705 -1.009729 0.42256558 -0.40914172 0.35105982 -0.124283515 0.20059074 -0.30232465 -0.14752008 -0.40236995 0.007830078 1.0923775 1.3445987 0.3154993 0.17415318 -0.75014776 -0.047017615 1.2280945 0.44636574 -0.26928538 -1.5369896 0.06612682
295 1.2782689 0.9625044 1.5675943 -0.54975015 0.105693884 0.25743997 0.7879249 -0.10690432 0.3512628 0.68649 -0.45262432 0.022781167 -0.8814295 -0.56863475 -0.068161756 0.27733672 -0.5532115 0.20183054 0.75697154 -1.2865132 0.9899992 0.015202915 0.26357824 -0.16426903 0.13521315 -0.44679537 -0.46485832 0.39029777 -0.17320637 -0.40332705 -0.065876186 -0.8713695 -0.7086086 -0.44949338 0.09301358 0.5383952 0.02973327 0.05529343 -1.5219141 0.049787425
4281 0.999805 0.8490366 0.23354733 -0.7831828 0.6626616 0.27670306 -0.22127359 -0.36100903 0.07643671 0.18763025 -0.10592354 0.060785115 0.26384434 -0.42646852 0.14152238 0.67610276 -1.5841521 -0.29187426 -0.30249134 -0.070002794 0.103512526 -0.31814018 -0.4317015 -0.9106578 -1.444833 -0.9363465 1.0275458 -0.0936119 -0.28358072 -0.45287782 0.39500484 -0.5330929 0.54271275 -0.36540723 0.7459126 0.23052707 0.52878404 -0.692115 -0.95676196 -0.25300315
3087 -0.61583537 0.49520057 0.89776415 -0.4474273 1.2256166 0.416571 -0.87099975 0.046338562 0.4075183 0.15263604 -0.43496934 0.5834093 -0.40865207 -1.4655021 0.12730335 0.40849733 -0.32457283 -0.45445356 -0.44149664 -0.9247958 0.10255445 0.049558654 -0.47242573 0.18961002 0.6090556 -0.08004506 -0.95641553 0.5520246 -0.17616321 0.1207906 0.44508877 -0.61569357 0.27351028 -0.86715615 0.6641004 0.11667436 0.18677434 0.73722714 -0.48614308 0.38401636
3301 0.021746514 0.5302583 0.54518694 0.06968913 0.2815444 0.59951913 0.1679287 -0.07747647 1.2953739 0.43205863 0.084491566 0.020275371 -0.5615052 -0.6153073 0.60809135 0.39419207 -0.3721105 -1.4716175 0.44971663 -0.992452 0.5786442 0.13758881 0.24167025 -0.15898493 -0.18918347 -0.1439083 1.018486 -0.79265743 -0.008104697 0.6354212 -0.014765496 -0.124518916 0.12648426 -0.6832093 0.3683635 0.37879345 -0.037617765 -0.13851261 -1.6603755 -0.7417697
1818 0.8243857 0.57937235 0.5407729 -0.4776115 -0.41740808 0.75768983 -0.09272551 0.10185094 0.08998143 0.85905576 -1.0094857 -0.41870862 -0.81525415 -0.12440156 0.9129262 0.1573571 -1.113846 -1.118599 -0.116448976 -0.99248093 0.55229664 0.085230865 0.66925526 -0.1263169 0.25353456 -0.31892073 0.06588594 -0.24589992 -0.20820898 -0.1361485 -0.5564377 -0.40035 0.082306355 -0.23464696 -0.1403627 -0.002982493 -0.039802384 -0.63928264 -1.6722423 -0.9150186
409 0.16157702 1.0321809 0.02558845 -0.34420612 0.339296 0.41936865 -1.6730291 0.3673802 0.028637344 0.30467078 0.33646876 -0.368165 -0.71975493 0.4529862 0.43524393 -0.6593026 -0.5917494 -0.0011762264 0.04634433 -0.7125517 -0.15394421 -0.22600074 -0.5773483 0.33467418 1.0424474 -0.7990044 1.464118 -0.21230064 -0.7527144 0.2710435 0.11841961 -0.5265675 -1.2795084 -1.0251317 0.07111158 1.1410972 0.39765778 0.35825202 -0.45192292 -0.5537236
1389 1.0071642 0.33514646 0.5903333 -0.4070928 0.80484444 1.5691389 -0.1602902 -0.27890712 0.7437451 0.6256156 -0.42275774 -0.35142884 0.12635574 -0.5730736 0.46529835 -0.15629931 -1.1221321 -0.31981024 0.92597646 0.34540787 0.5393162 -0.7119047 -0.45350653 -0.16825657 -0.06552817 -0.45428437 -0.1113559 0.006467334 -0.16263776 -0.47035214 -0.1669406 -0.6978765 0.5585147 -0.7914439 0.35885468 0.037453048 -0.2592638 0.25964946 -1.0667388 0.38237846
45 1.2885933 0.8697677 -0.057272177 -0.46526843 -0.32451493 0.77946365 -0.7770984 0.2688658 0.02575068 0.27149087 -0.08230884 0.48963684 -0.611625 0.9953125 -0.27471352 -0.2670661 -1.2185506 -0.6449932 -0.33178827 -0.01900811 -0.27694482 1.0310602 0.11143502 0.9316762 -0.494346 0.07587279 0.8625294 0.14376497 0.14857405 0.04223345 0.39385745 -1.0836551 0.7089238 -0.6002306 -0.6156884 0.9794659 1.1166034 0.57624704 -0.65283144 0.010540578
515 0.5486884 0.978249 0.5338394 -0.89078575 0.7376139 0.5795146 0.16162863 0.14688234 0.33919802 0.5803315 -0.8167614 0.5109707 -1.9555062 -0.8346072 -0.055315062 0.3410173 0.47965625 0.49012232 -0.15291643 -0.65109414 0.33666927 -0.22424251 -0.5117554 0.4324136 0.056258544 -0.44770193 -0.024513075 0.8511884 -0.78884065 0.20275004 -0.42851743 -0.81513774 -0.13012393 -0.5338639 -0.16218609 -0.021024255 0.8293735 -0.18387425 -1.4685313 0.5067403
1008 -0.8162012 1.1724588 0.62773806 0.22230542 -0.22928362 -0.05716137 0.016267981 -0.3841799 0.54804856 0.39332706 0.603958 0.101452 -0.92982024 -0.5616552 0.73840344 -0.22601978 -0.8698378 -0.76280165 0.1957208 -0.7381841 -0.027144808 -0.19890809 -0.14818281 -0.14950615 -0.3971639 -1.0912473 -0.19467337 0.4385252 -0.49344677 1.4653612 0.83209574 0.009235757 0.6897648 -0.46929848 0.71877754 0.7590644 0.5086104 0.30123982 -1.3077242 -0.34377214
2105 -0.51137894 1.00099 0.43388438 0.14756428 -0.43996418 -0.23145351 0.07298182 -0.01926572 0.93999636 0.2915037 0.6992097 0.33892548 -1.506799 -0.18408272 0.6365239 0.10362661 -0.9952163 -0.94233483 0.09601536 -0.41618037 -0.037248403 -0.4027859 0.121219225 -0.04048384 -0.1473533 -0.8798871 0.077843815 0.25537124 -0.10451165 1.1667182 0.35375807 0.43717316 0.55708766 -0.8765802 0.63416666 0.7388275 1.2576342 0.24490923 -1.7727188 -0.1912528
3230 0.5441743 0.6040588 0.9107743 -0.2630922 1.2159517 0.026573403 -0.76906246 -0.13088138 -0.32739455 -0.7622936 0.26407117 -0.18673539 -0.36439425 -0.37184867 0.80354595 0.8794787 -1.0046725 0.21897365 -0.48932073 -1.220065 0.42950943 -0.260978 0.5645978 -0.051915113 0.8233709 -0.24710485 0.5482338 0.7601431 -0.46249002 0.5600871 1.3138977 -0.61409825 -0.02311146 -1.1805469 0.33937627 0.019438814 0.47165114 0.35859418 -0.2575122 -0.45035034
48 0.10624416 0.77636313 0.2976144 -1.3643619 0.79016566 0.75300074 -0.98973936 -1.092809 -0.7243334 0.21179643 -0.6644496 0.45271298 -1.2266246 -0.04022491 -0.62876093 -0.6771854 -0.9860887 -0.10635639 0.9063788 0.08939426 -0.79558206 -0.4916581 -0.33665717 1.0089431 0.4258795 -0.8866063 0.05479612 0.7657448 0.3292838 1.0024127 0.28969947 0.16632098 -0.48578975 -0.28497487 -0.22741559 0.1774908 0.16265705 -0.35701692 -0.6415414 -0.23695527
733 1.4701781 0.83358735 0.1440429 -0.35832065 1.3239638 0.69470096 -0.02907823 -0.18819466 0.58883727 -0.288581 0.12675652 -0.19792107 0.7027114 0.32488844 -0.18527275 0.70510525 -1.4966794 -0.887628 0.34171116 -0.055486236 -0.06636223 0.22626582 -0.05418777 0.043851674 -0.73404 -0.24021223 0.731338 -0.3238909 0.06820043 0.20782906 -0.046675354 -0.43192473 0.0077448864 -0.27407268 0.097703904 -0.07898773 0.24164832 -0.045169603 -1.126215 0.30376816
1249 0.28401026 -0.4009796 -0.4586494 -0.044260744 1.2045804 0.5979278 -0.48803905 0.0016875208 -0.3344593 0.25813174 -1.03429 0.07778999 0.10441946 0.11517018 0.7054103 -0.0026945618 -0.7299975 -0.061511647 0.2878319 -1.6117691 -0.21742049 0.1294046 0.39603436 1.4365009 0.22316389 -0.43645677 0.12536773 0.35558954 -0.62654334 0.15094462 1.3755271 -0.8371644 -0.25776184 -1.1669316 0.23754238 0.10000515 0.72466207 0.646465 0.014893077 0.02469117
3183 -0.85080993 0.7848257 0.27403355 -0.16144864 0.59747404 -0.2444658 0.1570026 -0.42143753 0.6752867 0.02450727 0.9708347 0.6848597 -1.1196444 0.3367732 0.588201 -0.17623791 -1.1137819 -1.4560158 0.49294293 0.09155699 0.32360837 -0.40696132 -0.04397651 -0.38331512 -0.0465125 -0.25781518 0.31866065 0.2812763 0.45054835 0.8365986 0.71443176 0.18218099 0.7570452 -0.79886305 0.25583676 0.84861326 0.6408567 0.061247557 -1.2918805 -0.2063407
4298 -0.18218249 1.5642319 0.49250218 -0.2903917 0.6261657 -0.019571831 -2.3518825 0.62345785 0.112187885 -0.12083305 0.30041802 0.13842216 -0.19402757 0.23000485 -0.037713025 -0.72075063 -0.7905653 -0.9392713 0.2532928 -0.22453335 -0.16033065 0.007844033 -0.3058415 -0.343493 0.3256142 -0.81371295 0.3409096 0.4331047 -0.5814585 -0.11300693 0.44381952 -0.88994557 -0.056175835 -1.3230602 -0.16935688 0.47672644 -0.17526188 0.015481138 -0.29875964 0.41470677
428 1.3574309 1.1530458 -0.31264472 -0.13663895 1.4755794 0.41595206 -0.45219 -0.48627496 0.5472373 0.11032532 -0.25027016 -0.014958052 0.7354248 0.38275954 -0.24493799 0.5214387 -1.505763 -0.7568411 0.46290293 -0.020045359 0.14416818 0.09235468 0.13275988 0.20119403 -0.6855791 0.21788804 1.0464516 0.06730293 -0.16539289 -0.03367921 0.30954167 -0.61977 0.42332846 0.02259703 -0.045389265 0.3945425 0.68444157 -0.22389081 -1.0055498 0.76519144
3364 1.3331952 1.2617254 1.0504148 -0.81534916 -0.0108924825 0.7577714 0.28146365 0.0865079 -0.16423719 1.0571643 -0.38036865 0.22254752 -0.6252538 -0.29065874 0.34460476 0.08550088 0.09794787 -0.11580888 1.0439266 -1.3826009 0.8047337 0.5977424 0.3742334 -0.09294589 -0.73600066 -0.58509564 0.19070628 -0.06497617 0.35138255 0.63044405 0.26510176 -0.75891554 -0.5604498 -0.23477331 -0.53819776 -0.28895167 0.044567715 0.41363358 -0.8002114 -0.10220701
1718 1.0498624 0.92748964 -0.4485055 -0.4733999 0.8335552 -0.07452081 -0.32481155 -0.09049801 0.54170513 0.4691006 0.4920774 0.83620894 0.13777815 -0.48539716 -0.59352744 -0.30875126 -1.6570911 -0.35345232 -0.36325988 -0.5386394 -0.6251353 -0.18216181 -0.47861817 0.20118262 -0.42208186 -0.6488295 1.4934794 0.75811714 0.12506016 -0.44860557 -0.21473227 -0.42054248 -0.4487536 0.1536635 0.61278534 1.0416731 -0.1916919 -0.11224546 -0.7962984 0.25270367
2665 0.5763481 0.5817373 -0.10960848 -0.9543129 -0.5587616 0.5570031 -0.4167167 0.17269899 -0.08346733 0.73268497 -0.27710125 0.7108047 -0.2868834 0.7540468 -0.027789047 0.04172393 -0.9627025 -1.453674 -0.19358207 -0.23657641 -0.031602494 1.2399228 0.39043164 0.7126423 -0.5385667 -0.028527873 0.28166577 1.4765273 0.83729124 0.71015924 0.7200919 -1.0745769 0.6658068 -0.4704643 -0.12317915 0.21770018 1.3991073 0.32692853 -0.422083 0.41901007
2192 -0.021750983 0.05183857 -0.34251958 -0.28495586 1.1620315 0.80808604 -0.63898504 0.05677345 -0.020939788 0.01269867 -1.4574673 -0.26281345 -0.07710018 0.38027313 0.6521852 0.28222483 -0.57242674 -0.0569628 0.059351236 -1.4882829 -0.07783264 -0.045837294 0.17672426 0.93150234 0.23369655 -0.5486559 0.522677 0.7569103 -0.50414497 -0.25638062 1.4161217 -1.0954678 0.18058828 -1.3591601 -0.48080856 -0.40895605 0.7416235 0.45813558 -0.15560995 -0.5819825
3759 0.2517348 0.7042807 0.1896729 -0.04858324 1.1896381 0.88648105 -0.74663705 0.15445064 -0.051060896 -0.6246099 -0.58636546 0.12775397 0.16458023 0.09131954 0.21404229 -0.6333402 -1.2831843 0.14173654 0.64219415 -0.64983165 -0.59490514 0.12834567 -0.61486745 1.4027056 0.8019167 -0.71520483 -0.46360895 0.5497404 0.024178594 -0.042876314 1.0668324 -0.06729414 -0.41933823 -0.86167645 0.17359589 0.6602684 0.13755997 0.49151665 -0.364546 -0.4084067
234 0.4870322 0.67386234 0.63188714 -1.1064553 0.61329323 0.66733974 -0.6259212 -1.3108199 -0.88151526 0.19010872 -0.50801265 0.93951046 -0.16796216 -0.27015546 -0.17280923 -0.7046933 -0.50225943 -0.6788031 0.5140681 0.1199704 -0.3322726 0.070245035 0.0751292 -0.1438628 0.5548876 -0.53160876 0.56616086 1.6610754 -0.2927106 0.3047733 -0.58453405 0.4608154 -0.60310996 -0.69051576 0.14477336 0.33838066 0.873844 0.2257297 -1.2485529 -0.99476975
1513 0.41703454 0.5964193 0.5301848 -0.9455547 1.1249815 0.8931092 -0.672728 -0.9251524 -0.71315825 0.5256718 -0.19075514 0.70456123 -1.172766 0.25121337 -0.3840663 -0.97933364 -0.64892954 -0.40738723 1.1642506 -0.13263395 -0.109779745 -0.16233131 -0.372139 1.1054373 0.7197874 -0.521941 0.44233674 0.9019806 -0.059130225 1.0816938 -0.39563462 0.41901943 -0.083785556 -0.032137316 -0.16406828 0.22196014 0.62934816 0.43451542 -0.3655323 -0.9685217
360 1.4012325 0.24900995 0.15695438 -0.6109943 1.2549154 -0.1044824 -0.8042651 0.10186458 0.65328103 0.0312877 -0.12017333 0.49570686 -0.032131586 -0.22935401 -0.7780894 0.04854345 -1.7672478 -0.34131455 -0.19232446 -0.14154175 0.04118784 0.28405663 -0.12714945 -1.1162338 -0.45123792 -0.28094065 0.8711334 -0.107594274 -0.36555296 -0.093082346 0.43644857 -1.0843025 -0.33031124 0.3448306 0.058773287 0.60582113 0.87073517 0.13257119 -0.12704712 0.14412571
1787 -0.5611235 1.414872 -0.10332404 -0.34384918 -0.24884327 0.24764487 0.09770659 -0.07898335 -0.06499868 0.31598178 0.96729 0.5182595 -0.8928193 -0.4079343 0.95397055 0.048975855 -0.80654895 -0.49828446 0.60884583 -0.58686423 0.522894 0.2450644 -0.73663133 -0.37333575 0.051009372 -0.1522868 0.38571775 0.3136495 0.6826915 0.59619683 1.2476106 0.30926806 0.4470289 -0.8801787 -0.323883 1.6332642 0.8125748 0.10632648 -1.1005765 -0.16773988
2930 0.19083554 0.09596247 0.2878252 0.49143115 1.1431662 0.76421285 -0.96554774 -0.07796159 0.24306475 1.1616068 0.43476123 0.64632106 -1.0142181 -0.6021736 0.8305991 -0.052233286 -0.38994983 -0.8903184 0.9114442 -1.1957662 -0.7159893 -0.13366288 0.17984587 0.20560022 -0.64603144 0.10015339 0.27442196 0.5602342 -0.45538747 1.2379669 0.12191953 0.528188 0.14342202 0.12203591 -0.24463217 0.8118186 0.46516097 -0.45317793 -0.72169906 0.27650085
1759 -0.12078048 0.7173265 0.5566354 -0.2669237 0.4055795 0.23311847 0.4871971 -0.6213323 0.492775 0.74623317 -0.40611973 0.72135895 -0.19641158 -0.575947 0.81205153 -0.68215454 -0.7820634 -0.49941114 1.3730702 0.114318565 1.1153926 -0.7412644 0.48035467 0.16451247 0.31710315 -0.7663513 0.50604576 -0.1433411 0.0067770453 -0.15732603 -0.6127235 -1.1911494 0.0587377 -0.76460034 1.0666527 0.5710538 0.49624047 0.38803515 -0.35911506 0.3134482
1722 0.94831294 1.0382205 1.1428492 -1.0261877 1.1000522 0.54721665 -0.16813904 0.020389643 0.74188304 0.8049805 -0.53047943 0.51226443 -2.0639603 -0.87788737 0.24783312 0.2602189 0.5739477 0.3300731 0.28324324 -0.92556185 0.18220095 -0.03591365 -0.40665743 0.0115794595 -0.4596979 -0.5132361 -0.1625282 0.09880647 -0.78277475 0.29338914 -0.36665446 -0.68383497 -0.27921233 -0.6945192 -0.22744031 -0.2152864 0.38785762 -0.080225274 -1.0181164 -0.1798911
1280 0.8945613 0.4708472 -0.11628911 -0.6573182 0.35476646 1.624729 -0.40895364 -0.3238019 0.43028155 0.60236233 -0.1497832 0.006210904 0.052454557 -0.6739971 0.66262 -0.19378811 -1.1810616 0.03321542 0.79010224 0.57425636 0.54730034 -0.91943103 -0.43906412 0.052750874 -0.2199711 -0.661895 -0.11741389 0.17622308 -0.3199748 -0.40300274 -0.15913694 -0.73464066 0.40791622 -0.41276038 0.09966934 -0.16060294 -0.60587376 0.4413049 -1.4019309 0.3633722
2078 0.44730166 0.35715035 0.5000216 -0.9785148 1.233171 0.65945834 -0.82595444 -0.748158 -0.750191 0.4542055 -0.58372104 0.53320825 -1.1911442 0.0035467467 -0.90256613 -0.85815984 -0.68498474 -0.6049763 0.9319769 0.0076186378 -0.07345558 0.065064274 -0.548023 1.1527504 1.0376654 -0.6205673 0.6464516 0.76005626 0.2878284 0.9189139 0.14980474 0.31087682 -0.7890073 -0.19233824 -0.09047893 0.40303925 0.693124 0.06567558 -0.6945098 -0.5348844
964 0.5354951 0.18805692 0.1331225 0.11889644 0.86742526 0.47379285 -1.2081637 -0.1918058 0.182915 1.2177699 0.6339048 0.56040704 -1.2312306 -0.80971384 0.9421016 0.0363364 -0.4009551 -1.2495632 1.1950622 -1.0921965 -0.025981473 -0.3417924 -0.040248673 -0.081949905 -0.6334699 0.10615872 0.20017278 0.237693 -0.5574299 1.0097492 0.8927609 0.43890393 0.37152544 0.045772046 -0.7976289 0.78329146 0.2702575 -0.6374914 -0.502505 0.16516805
857 0.74420935 1.2759032 1.1619995 -0.58421946 0.17980371 0.57117414 0.16099279 0.1580553 -0.3227296 1.1719542 -0.8084179 0.33634582 -0.76662856 0.08099743 0.45919192 0.020134255 -0.14803013 -0.43549332 0.8403118 -1.3361164 0.66336 0.67790896 0.55586576 -0.09819874 -0.43334708 -0.910001 0.49330446 -0.715683 -0.24327174 0.54986763 -0.3436528 -0.65845084 -0.4297134 -0.30684802 -0.5430646 -0.35693297 0.23766741 0.1217416 -0.9343579 -0.07793002
4633 0.9495916 1.0792496 0.96022594 -0.8807857 -0.5680316 0.35672283 0.08757779 0.2336539 0.05648289 0.61581016 -1.1525755 -0.3185263 -0.26305738 0.5058577 0.9923218 -0.052472703 -1.1247431 -0.28353897 0.7122134 -0.5238854 1.1951318 -0.13867132 0.4394395 -0.047266334 0.16067109 0.24554043 -0.1382337 0.5301051 -0.26474306 -0.12462949 0.6349138 -0.37596256 -0.15148039 -0.7771658 0.07974059 -0.059934385 0.23906715 -0.908969 -1.223733 -0.5050714
2269 0.96865207 1.116062 -0.1322047 -0.6610889 0.04177713 0.0022498958 -1.0685817 0.026772305 -0.11453094 1.5130557 0.2729151 0.65997213 -1.2262666 1.3350656 -0.6927328 0.6727356 -0.79879487 -0.3297096 0.30213222 -0.56805205 -0.5376486 0.7057029 0.37290245 -0.23966761 0.6101797 0.15565643 -0.127804 0.6335339 0.04639667 0.110094525 -0.19700329 -1.0674069 0.5967972 -0.6812874 -0.012577031 0.86233026 0.43569702 -0.22040154 -0.22993954 -0.43088016
4551 1.0672498 0.7681014 0.5974455 -0.36055654 0.07529637 1.4998163 0.25045952 0.33302578 0.21647511 0.57404643 -1.5684121 -0.083612144 -0.55583394 -0.19348824 0.8611456 -0.4553602 -0.6127723 -0.40082183 0.40432388 -0.082794845 1.2620586 -0.48364368 0.5837498 -0.16739373 0.41840896 -0.5679542 0.1666824 0.1187418 -0.47366962 0.19898708 -0.5725394 -0.23529595 -0.5279702 -1.0059621 -0.31820774 0.21644604 0.54530054 -0.29163378 -1.1025821 -0.20612244
4841 0.6614363 0.045086626 0.38428733 -0.26625118 0.01669103 0.48838013 -0.50621283 -0.41657296 0.47581333 1.64314 0.26801947 1.010883 -0.06626621 0.8296346 -1.1685613 0.046062265 -1.1108485 -0.0036873913 0.48908347 -0.36892727 -0.6504784 0.484407 0.40411806 -0.5407446 -0.23818548 -0.31126365 -0.2728683 0.07964548 0.11327305 0.29353857 1.118601 -0.7847746 -0.010477867 -0.34334424 0.81295 0.9110541 0.99999297 0.19575319 -0.36944 -0.37296286
2397 -0.14133331 1.0175197 0.3726065 -0.90828764 0.7681593 1.0431261 -0.7797158 -1.2308573 -0.59438175 0.8302857 -0.037985608 0.62184703 -0.52800035 -0.13691822 -0.87044203 -0.6984311 -0.9306587 -0.38797313 1.089453 0.02744117 0.007242286 -0.4792155 -0.40471256 0.56921613 0.39092025 -0.8758411 0.32951635 1.1185325 -0.3425748 1.1629038 -0.778268 0.08427123 0.025880074 -0.47109577 -0.38009784 0.40641314 -0.0741023 0.21480544 -0.21142247 -0.9380128
