5000 60
2455 0.030422803 0.08657918 0.60787284 0.2762291 0.17325409 -0.21164322 0.8898883 -0.4974386 -0.45129222 -0.084236376 0.46271324 0.027910829 1.3725263 -0.21066141 -0.9835161 -0.81862164 0.0515722 -0.08969647 -0.22853047 0.5188009 0.27260906 0.5015954 0.42479628 0.116640575 0.45962277 -0.31758714 -0.73607904 0.4421653 -0.13035567 0.22980592 0.16737467 -0.52002627 0.3518813 0.1603498 0.7464718 0.24989077 -0.3006668 -1.1768243 0.056060307 -0.25931457 0.30774802 0.07411119 -0.36462098 -0.07325857 0.24405204 -0.2773059 -0.5188766 0.84531164 0.16051947 1.2313596 -0.0632437 0.5491228 0.3326835 0.09952753 -0.3003209 1.1241217 0.276318 -0.3898498 0.0074332864 0.016645046
1822 -0.39653352 0.50099623 -0.27709347 -0.45170325 -0.58781713 0.25662792 -0.3804373 0.34090462 0.22117665 -0.41100597 0.40715203 -0.68952733 -0.23194666 -0.24781914 0.04792592 -0.40316787 -0.6018587 -0.2511005 -0.17961735 -0.26027945 -1.3525058 -0.3391163 0.3191176 0.90942854 0.6075016 -0.24530855 -0.1324141 -0.412726 -0.10609534 0.08961323 0.30177742 -0.94694793 -0.5432275 -0.2755657 0.9040262 -0.59421337 -0.013343005 -0.6873768 -0.9944286 -0.14115213 -0.092127584 0.64016694 -0.7661484 0.26072425 0.23363888 -0.21159954 -0.38313478 0.43717572 -0.44821015 0.27293804 -0.07446172 0.21084961 -0.10238473 0.4435493 0.1695359 1.1230675 -0.088864334 -0.79237866 -0.09221182 -0.8314358
2074 -0.19356999 -0.15592042 0.30182987 0.14337578 -0.33070704 -0.6490733 -0.7481342 0.2220627 0.089299925 0.7080565 -0.5599528 0.80544734 0.14054489 -0.44793445 0.44316223 -0.388045 1.0806766 -0.33286688 -0.34860468 0.40377018 -0.30976006 -0.03287698 0.31476158 0.37251902 0.40950334 -0.28889894 -0.8386837 0.375913 -0.010945546 0.07690208 0.47389695 -0.67573136 0.053996097 -0.55639166 0.7619583 0.17953713 0.6850441 -0.72800523 0.018879507 0.8406717 -0.6682111 -0.32973528 -0.56997263 0.56572235 -0.1582029 -0.5346727 -0.6872475 -0.2262334 0.4001601 1.041739 0.36755985 0.015108326 0.4798997 0.39163503 0.5382192 1.0023805 0.1420578 -0.45900616 -0.19112094 -0.07674731
1305 -0.21230498 0.33376834 0.31815514 -0.17484353 0.14503352 0.40373605 0.57523286 -0.030438952 -0.28573364 -0.24732585 0.27160886 0.3931771 0.4294628 -0.95155025 -0.35705683 -0.07419207 0.372985 0.33504027 -0.19249243 0.14478883 -0.46661434 -0.3687468 0.36278695 -0.7178351 0.11482694 -0.3673648 -0.54196876 0.3575457 -1.219699 0.21235506 0.5203056 0.0060711424 0.6205809 -0.39676103 1.2068803 -0.33711088 0.12376915 -1.6437051 -0.7501603 0.34237388 0.20573395 0.3658135 -0.68808764 -0.4714666 -0.283601 -0.039638363 -0.088987246 -0.48593423 -0.008594114 0.36583844 0.5926075 0.3877292 -0.49631688 0.31329992 -0.3548181 0.26377138 -0.26336974 0.17593138 -0.034967314 -0.49920374
113 -0.47099832 -0.037473686 -0.25433072 0.1672659 -0.06398695 0.6081371 0.22947325 0.39746502 -0.3547291 0.10261192 0.122867584 0.40499192 -0.07456355 -0.29869923 -0.27250594 -0.006860615 -0.8018939 0.1845091 -1.3028191 0.25488004 0.06292443 -0.38113838 0.045192257 0.24660678 0.080878764 -0.2698682 -0.5416337 0.036315773 -0.24241012 -0.5091739 0.254692 0.014659617 -0.1716727 0.2682871 0.1669741 -0.075406775 0.13514583 -0.9159438 0.031510103 0.040386356 -0.192414 -0.26627508 -0.5679904 -0.007993763 -0.33837685 -0.454682 0.0810079 -0.24279907 0.16617323 0.31886932 0.7700661 -0.22109328 0.46100903 0.10798166 1.2349678 1.9494684 0.5313618 -0.31496748 -0.5928115 0.34456217
3357 -1.0350711 0.38615304 -0.47231627 -0.67633885 0.31699106 -0.53807676 0.18950935 0.21289293 0.6277528 0.36068818 -0.37151203 0.4112302 0.06268042 -0.33091503 -0.02896811 -0.31067306 0.4509856 -0.7428161 -1.008804 0.45851576 -0.43717393 0.26560187 0.27291253 0.5065349 -0.16988367 0.4370034 -0.9958193 0.2832663 -0.9678283 -0.86848885 0.39682332 0.043804858 -0.3104877 0.6630349 0.98947364 -0.28939268 -0.30690587 -0.50927705 -0.24499685 0.056398377 0.51433617 0.46263215 0.012829962 0.07756857 -0.63986284 -0.57453024 -0.6265797 0.06000053 -0.60017323 0.7188542 -0.32750705 0.2911653 -0.4845675 0.079689324 -0.14730209 0.39764658 1.0463177 -0.060299687 0.8521368 0.5568139
926 -0.21685211 0.75761306 1.2242355 -0.062650815 -0.5119245 -0.04078566 0.37032187 1.1256847 0.30846995 -0.25264838 0.5137566 0.74722064 -0.4321762 -0.05007854 0.13103293 -0.2776459 -0.14435455 -0.37661204 -0.9480059 -0.13867298 -0.34932268 0.16390389 0.46234837 0.539985 0.37395296 0.42914224 -0.50203687 0.267175 -0.45473456 -0.22586241 0.62513006 -0.17261326 -0.023368498 -0.66233784 0.6412629 -0.7650547 -0.026094794 -0.9896441 -0.65892494 -0.37376103 -0.3709105 0.49302378 -0.6324269 0.17860384 0.17726068 0.12440336 -0.12396442 0.89370406 -0.05627054 0.5825681 -0.57406706 0.5045371 -0.42832178 0.32272866 0.03751942 1.0539442 -0.24014041 0.013380225 -0.29320377 -0.88607615
4229 0.14223973 -0.73082244 0.9013511 -1.0820631 -0.22604747 0.04819237 -0.1034132 0.8152744 0.6014904 -0.24160248 -0.93390006 0.27640128 0.5626829 -1.0242364 0.0776562 0.0308229 -0.2454715 -0.018063826 -0.11841202 0.11629175 -0.7122193 -0.26116934 0.99702585 -0.093588516 0.076433375 -0.7242628 -0.8186235 0.41490552 -0.33633196 -0.3749077 -0.39521796 0.37271914 0.49379566 -0.12860055 0.8863337 0.017810198 0.1431158 -1.2221037 -0.41060877 -0.9125237 0.76892704 -0.1422134 0.09131044 0.24758916 -0.49286196 -0.58436066 -0.026501723 0.13233127 0.4827702 0.19805567 0.088531286 0.48281014 -0.36256316 0.076667376 -0.1697931 1.3600394 -0.10577765 0.18438372 0.024263134 -0.43769655
3866 -0.0884073 0.33876544 0.46395668 -0.22109413 -0.3687694 0.107247755 0.18709952 -0.075966544 0.017059319 0.058072448 0.483983 0.80585617 0.08740061 -0.35535386 -0.06622157 -0.31415823 -0.6210765 -0.15722723 -0.88429296 0.74334437 -0.7810893 -0.16321611 -0.19516052 -0.26898003 -0.35115495 -0.3517289 0.101925865 -0.33621666 0.12750801 -0.56144863 0.004522727 -0.8284807 -0.8672688 0.5055719 0.21222849 -0.57193714 -0.08480426 -1.3730447 -0.122680895 0.4270802 -0.16175364 0.009925513 0.110221274 0.4398252 -0.35300106 -0.61068183 0.4724805 -0.04989723 0.14946823 0.44488615 0.25385267 0.027996771 0.51479053 -0.22009274 0.50118774 1.5207819 0.9077497 -0.56145906 -0.37095514 0.7955028
3926 -0.26590568 -0.047113743 -0.79449403 -0.4448688 -0.3983874 -0.21404248 0.67917025 0.32868207 0.23886725 1.1917003 0.3778762 0.36607945 -0.43795684 -0.33472773 -0.082895085 -0.32713738 -0.6137124 -0.59846616 -0.5504627 0.80262256 -0.11206494 0.07811697 0.67921597 -0.114492126 0.4718785 -0.76159066 -0.4636742 -0.13592035 -0.6228882 -0.5099611 -0.23352118 -0.26434124 -0.5485342 0.6418982 -0.06361743 -0.1589848 0.091124624 -1.0188577 -0.058127105 0.6101633 0.79861045 0.047408883 -0.56248015 0.46395046 0.16941072 -0.17046191 0.27491376 -0.1205909 0.1671723 0.66649497 0.82509387 0.7815196 -0.2612349 -0.093318045 0.44725147 0.4743667 -0.13022847 -0.5242851 0.18509558 -0.114347525
1624 0.29091698 1.1201569 0.6415213 0.04191319 -0.477857 0.12371642 0.6177661 1.4458718 0.022005463 0.18758261 0.6502398 0.3550662 -0.4233147 0.051652193 0.3584645 -0.42593625 -0.114245884 -0.584733 -0.28955775 -0.2898378 -0.5900498 -0.007407722 0.35859376 0.84534854 -0.024582177 0.28913248 -0.6670098 -0.038646873 -0.110223845 -0.50220007 0.74319565 -0.16535598 0.12456794 -0.41204107 0.3947369 -0.29491737 0.42629707 -1.2119627 -0.8352791 -0.46558252 -0.23827435 0.31379485 -0.45075655 0.15097201 0.04702204 0.2642134 -0.36810878 0.8489326 0.03471171 0.65702677 -0.7524683 0.15097131 -0.46241054 0.0011536193 0.12981531 1.0421958 0.2357429 -0.47300094 0.120317616 -0.89320976
1879 0.1495444 0.4355675 0.27394652 -0.016734341 -0.1971243 0.17199938 0.5217189 0.40772727 0.02717658 0.052599702 0.09617618 0.5079628 0.058257714 -0.22362766 -0.14087473 -0.6782801 -0.37316227 -0.43078545 -0.89486897 0.6192678 -0.34586477 -0.08573427 -0.534304 -0.18004741 0.097135186 -0.9904057 -0.14645827 -0.038607333 0.40234232 -0.7378677 0.10427624 -0.60385823 -0.7642329 -0.0062781144 -0.07433408 -0.5094577 0.35097522 -1.3987814 0.048793547 0.16088964 0.13755274 -0.23153113 0.085252315 0.3812475 -0.37595728 -0.9972988 0.21483402 -0.13639641 0.056514487 0.28346914 -0.3362911 -0.12598225 0.6102788 -0.17796895 0.46707016 1.2758197 0.86732554 -0.6685185 -0.37467942 0.09374741
3388 -0.43858257 -0.06005566 0.81743884 0.34280568 -0.11314927 0.31880918 0.7790794 -0.39500713 -0.6325676 -0.1666499 -0.492307 0.44460025 1.3964595 -0.88637614 -1.03043 -0.7595862 0.21552356 -0.48399955 0.09097622 0.8216061 -0.101642795 -0.25908995 0.40218666 -0.02294877 -0.1515968 -0.40217388 -0.2643836 0.22786468 -0.028303199 0.23690838 -0.39557484 -0.37633592 0.17409885 -0.4784356 0.66644055 0.39744037 -0.67407703 -1.233562 -0.18384467 0.20235436 0.5175683 0.6112507 -0.2680225 -0.01241726 -0.040661 -0.17310856 -0.7295776 0.95720214 -0.07828534 0.9363783 -0.032004815 0.78060836 0.6560324 0.15982577 -0.14851479 0.8232632 0.6382601 -0.39871085 0.12596092 -0.34824082
1676 0.3299548 -0.3964674 -0.17304833 -1.031539 0.16669269 -0.0057462286 0.32336447 1.075996 0.44050285 -0.22158003 -0.6695369 0.507431 0.90425086 -0.050570033 0.10263241 -0.75638807 -0.7395643 0.15528509 -0.49724656 -0.33270514 -1.0133984 0.03846902 0.64907336 0.43910447 -0.2810839 -0.6750072 -0.9241001 0.13703375 -0.89677805 -0.15100925 0.29744887 -0.0733527 -0.0071225264 0.41341776 0.89793384 0.3775074 -0.31407723 -0.8898773 -0.49479985 -0.7824543 0.40021065 -0.36399204 0.51089936 -0.0055136923 -0.07025487 -0.2384742 0.112238124 0.059697453 0.078247644 0.2804331 0.18959697 0.45660225 0.3739602 0.6763507 -0.0011666737 1.312397 -0.43815666 -0.12679842 0.46106774 -0.46171665
3692 0.35418835 -0.27018026 0.06424742 -0.897235 0.24518341 -0.16099258 0.1900559 1.1493198 0.52882695 -0.21258065 -0.28786278 0.5049487 0.9814184 -0.37276694 0.3360729 -1.0051868 -0.36445862 0.12259078 -0.26428318 -0.26676193 -0.87803984 -0.062821254 0.5247889 0.51150906 -0.50644284 -0.73524123 -0.43976903 0.3589554 -0.98752666 -0.14658232 0.020967195 -0.0024132717 -0.15688036 0.3597371 0.3345261 0.38177666 -0.38414264 -0.7721112 -0.7648697 -0.55295354 0.055353835 -0.48508495 -0.016340513 0.3771353 -0.07181349 -0.1016342 0.402607 -0.019786663 0.14381617 0.617954 0.10603919 0.49229974 0.16138823 0.5239668 0.23356064 1.9351848 0.093538046 0.21798049 0.4186666 -0.49356192
1044 -0.1401342 0.04464625 0.14717661 -0.011021033 -0.12321327 -0.23989922 -0.45586246 0.15120545 0.28477213 0.4409426 -0.41735306 0.93525976 -0.019272126 -0.5883574 0.2401708 0.011459225 1.2193646 -0.24889295 -0.44050792 0.14899853 -0.45047787 0.02817037 0.43066913 0.11081653 0.53328645 -0.22536017 -0.726961 0.20639913 -0.065550506 -0.03898695 0.26843247 -0.8381866 0.1608534 -0.415401 1.1653589 0.14748393 0.6139805 -0.7844478 0.047382813 1.1005476 -0.51075536 -0.38078338 -0.52991855 0.48921895 -0.018828394 -0.56690776 -0.6569436 -0.39945933 0.24741769 0.8220063 0.40240636 0.13547769 0.41253334 0.35211197 0.6059547 0.66489697 0.3295431 -0.6153936 -0.34463698 0.09764023
3360 -0.1004159 0.5018503 -0.7985168 -0.1941708 -0.58832526 -0.8793905 0.70358324 -0.40700212 -0.076254226 -0.2001865 -0.2553915 0.43835434 0.14478064 -0.30960134 -0.055994976 -0.26709142 0.16811088 -0.46958306 -0.3780033 -0.3703739 -0.8801866 -0.7802441 0.11243369 -0.34139875 0.36427626 -0.014702838 -1.2467239 -0.23190388 -0.053360056 -0.7505336 0.34995753 0.36657757 0.54518366 0.4359809 0.31516415 -0.55034524 -0.25091395 -0.28413874 -0.39017135 -0.8204927 0.64530164 0.043987967 -0.14270487 0.41593912 -0.7863687 -0.7673052 -0.7176113 0.044455063 -0.5537919 0.6871443 0.3592675 -0.05040893 -0.20118043 0.24287826 0.19261962 0.56231785 0.991632 -0.03190456 0.7420312 0.31172013
532 -0.26366282 0.5171432 0.3099938 -0.54723984 -0.34366783 0.35777268 0.6297244 -0.19626257 -0.11920202 0.7358407 -0.30218405 0.13244748 0.6681216 -0.4537218 0.33917233 0.13446693 -0.40529945 0.35913733 -0.2904895 0.08578976 0.037726693 -0.46542963 -0.075612344 -0.41111326 -0.14956756 0.25578037 -0.4549466 -0.005432093 -0.97528934 -0.5091172 0.48497504 -1.2189865 0.34623954 -0.04206311 1.2079167 -0.6071505 0.59510475 -1.4363883 -0.616 0.008924471 0.26034078 0.37838158 0.02436009 -0.03654418 -0.3524135 -0.03433712 -0.44107065 -0.59389895 0.07929649 0.564787 0.755226 0.6037474 -0.40921772 0.5880645 0.043762844 0.4444324 -0.30037633 0.56941867 -0.12128759 -0.2381488
1749 -0.42936125 0.46370864 0.21396358 0.20109934 -0.58996415 0.63082117 -0.8246374 0.56449056 0.16708879 -0.22308506 0.0006514395 -0.38995537 -0.10037426 0.17038043 -0.8039099 -0.061490756 0.36577 -0.2497802 -0.19963644 0.24984284 -0.6694943 0.068003155 0.3165873 0.76997924 0.6037715 -0.06612217 -0.9337886 -0.4746866 0.009621784 -0.29892927 0.24395204 -0.7441058 -0.39918667 0.060709756 0.59307003 -0.28518552 -0.02095531 -0.63509953 -0.5285065 -0.15920293 0.37890634 0.58195186 -0.62974334 -0.04848441 -0.6364658 -0.18887012 0.3758813 1.2197809 -0.55129755 0.7154989 -0.41183817 -0.28463584 0.022647621 0.18700221 0.60158587 1.2055151 -0.33559528 -0.6816084 0.4538788 -0.7336478
1904 0.24254535 -0.52167916 0.09294636 -1.1474565 -0.15296625 -0.43838528 0.1016725 0.88744843 0.5843083 -0.076896556 -0.6479887 0.38373554 1.1185256 -0.7453615 -0.014093525 -0.30462086 -0.35796452 -0.26692232 0.09126535 -0.15911901 -0.45091036 -0.31749234 1.0077044 0.052481808 -0.44149557 -0.6511384 -0.4661776 0.6009515 -0.55200595 -0.49731642 -0.030288374 0.46744707 -0.17957288 0.87735564 0.7696379 0.24227554 -0.21188618 -0.4297662 -0.52903706 -0.34957337 0.29683113 -0.038365766 -0.42709336 -0.09938365 -0.23577589 -0.9768163 0.07302517 -0.05751607 -0.09346389 0.39847234 0.21654353 -0.08296624 0.41362312 0.36635554 0.35307956 1.7061661 -0.26777515 0.15868998 0.35609737 -0.9698352
215 -0.11362577 0.24230742 0.2969304 -0.3596319 -0.10655784 0.48304927 -0.4876881 0.23079804 0.32331532 -0.52021724 0.24531841 -0.47800407 -0.20008446 -0.23394884 -0.18724908 -0.3240329 -0.33618218 -0.5594188 -0.15742461 -0.39535677 -1.3639524 -0.4983707 0.07963484 1.018332 0.5674524 0.0234705 -0.31471914 -0.34273055 -0.17405874 0.011952748 0.5130574 -0.8496871 -0.8057346 -0.20907603 0.9015598 -0.6901618 0.070751235 -1.0000021 -0.7914176 -0.049025133 0.47652638 1.1660753 -0.56741434 0.08509457 -0.05632321 -0.07851317 -0.38688892 0.42016062 -0.51136076 0.2797345 -0.30325913 -0.2802608 -0.20069173 0.370812 0.28788614 1.3257118 -0.25862494 -0.60851437 0.007974934 -0.57159746
1192 -0.13897529 0.10442251 -0.01454332 -0.14563322 0.009168546 0.12997259 0.6494163 0.6460034 -0.3076496 0.33864263 -0.050121795 0.55454624 -0.15081294 -0.41555956 -0.17059025 -0.5706535 -0.122979864 -0.40629724 -1.1734285 0.75258285 -0.33559492 -0.112806566 -0.15809105 -0.045568563 0.3124463 -0.8674049 -0.16086093 0.10317832 0.18655768 -0.49132738 -0.013387697 -0.8528857 -0.3447304 -0.077612035 -0.29453424 -0.27925032 0.6863219 -1.312335 -0.26439467 0.58317846 0.06095749 -0.45006257 -0.42767626 0.13242432 -0.3659953 -0.378438 -0.47957245 -0.4722008 0.20764047 -0.010349761 -0.18107255 0.322218 0.53218 -0.06851907 0.78124446 1.2670648 0.8481782 -0.33779302 -0.35718268 0.3414516
2550 0.3117686 0.16690254 -0.094005756 0.046567015 -0.0972415 0.37142292 0.38445944 0.6564851 0.046794828 0.47250825 0.19812323 0.7159077 0.11820306 -0.63910675 -0.36183593 -0.18325844 -0.78882366 0.3945136 -0.7473978 0.56016046 -0.1682675 -0.2366588 -0.56391746 0.4005111 -0.031541944 -0.9371546 -0.14194757 0.26827103 0.6729818 -0.9726828 0.20053245 -0.20988193 -0.15314557 0.1390474 0.33884406 -1.1493486 0.375044 -0.7324046 0.62474185 0.015486319 0.2121415 0.68857217 -0.14643307 0.3766555 -0.061760828 -0.9859855 0.3212077 0.60310817 -0.49416345 0.76313454 0.65841043 0.38459632 0.21674825 -0.37107918 0.58626026 1.2068967 -0.28669575 -0.3939785 -0.22432777 -0.04398814
3754 0.06400533 0.06182677 0.14733331 -0.06273871 -0.3585067 1.0544456 0.5570708 0.2560795 0.097204454 0.44869718 -0.020596856 0.9564143 0.027342819 -0.3571638 -0.14696884 -0.74558574 -0.2534049 -0.18421224 -1.0121771 0.28965983 -0.16786587 0.015531445 -0.34732124 -0.17918663 0.18035714 -0.5806506 -0.007358037 0.24966067 0.8048304 -0.92224413 0.40133062 -0.4442531 -0.9980534 0.12787141 0.19880737 -0.45982602 0.44963184 -0.90454775 0.15771519 -0.3269056 0.20602119 0.15763147 -0.050045453 0.3664095 -0.4186047 -0.88679516 0.33894923 0.0922799 -0.3376769 0.1893474 -0.1778399 0.21374187 0.35786855 -0.3741145 0.2612324 1.0184748 0.7567548 -0.4582428 0.31200233 0.28327906
2613 -0.4252232 0.011096048 -0.02796487 -0.18779892 -0.82712007 0.13130406 0.8240205 -0.46202302 -0.3340425 0.33950225 0.20660308 0.79362273 1.0024598 -0.425086 0.034950107 -0.040024724 -1.0246663 -0.5434443 -0.41587552 0.39867696 -0.528616 -0.62406176 0.90286684 0.85328454 0.30725893 -0.30222604 -1.2259923 -0.39196354 -0.8147391 -0.41451323 0.069835156 -1.1527747 0.4179409 0.104699865 1.487099 -0.46900398 0.3523585 -0.68172324 0.023715526 -0.38015726 -0.033837534 -0.25291783 0.3078373 0.5928358 -0.2567568 -0.17027825 -0.10784746 -0.09540875 0.37056577 0.7029733 -0.32352805 0.23164476 -0.061307717 0.041959167 0.2332944 0.27943254 -0.5595096 0.37248483 0.065267816 -0.1450857
990 -0.5940127 -0.056777284 -0.08777576 -0.617843 -0.26271954 -0.7506357 0.40441105 0.2654954 0.67279625 0.043859117 0.23269035 0.30775183 0.04957469 -0.7288384 -0.33788806 0.24770641 0.19205667 -0.41169608 -0.7204443 -0.122857 -0.3887892 0.5058198 0.2514998 0.3685607 -0.022922784 -0.10610314 -0.5340395 -0.14566512 -0.70145017 -1.4028574 0.54518735 -0.38415194 0.59919953 0.4709372 1.0515568 -0.043447617 0.07056715 -0.58384347 -0.49274713 0.2337119 0.71577233 0.09494727 -0.23923202 -0.13358852 -0.08325995 -0.44909534 -0.51209307 0.2508445 -0.81508464 0.63207954 -0.0110732755 0.4927299 -0.10720764 0.17799756 -0.2697348 0.4818003 1.5060041 0.28720742 0.43060806 0.035114937
568 0.47033578 -0.37545556 0.48922715 -1.0015525 0.46404943 -0.03798602 0.072805524 0.60428816 0.33823448 0.23066875 -0.8447016 -0.03078827 0.97715753 -0.52554435 -0.066883996 -0.2857774 -0.4691319 0.35306096 0.10301941 -0.68955743 -0.9405554 -0.4380939 0.9381121 0.1693898 -0.38208237 -0.39530107 -0.583721 0.32513237 -1.0149024 -0.3324288 -0.29208887 -0.24340136 -0.1448211 0.6495006 0.43036613 0.20948046 0.57421064 -0.7888173 -0.6176721 0.051800147 0.2504982 0.023190733 -0.29500017 -0.3712185 -0.14914207 -0.6247401 -0.098605536 0.06669649 0.20685606 0.60369956 0.18970947 0.1548664 -0.09389802 0.66346616 -0.10660734 1.4645449 -0.012987771 -0.19761729 0.048053633 -1.0392716
1601 -0.55274826 0.5054342 0.5481566 0.6319201 0.007170266 0.7474356 -0.39194533 0.2189496 0.42302883 0.55693316 -0.31337002 0.99972963 0.29726312 -0.18101212 0.12880716 0.21060193 0.24921186 0.18878296 -0.59514445 -0.5823099 0.03719738 -0.60936046 0.12023576 0.4194267 0.88586324 -0.111871 -1.2200688 0.020236917 0.10845258 -0.14217652 0.30323356 -0.050330833 -0.45636752 -0.4479062 0.668347 0.008464585 -0.065154225 -0.36813182 -0.11295499 0.8415973 0.28809157 -0.23115322 -0.560126 0.5003776 -0.08985401 -1.199284 -0.16463041 -0.34915063 0.86686414 0.51339304 0.20619039 0.722967 -0.29858372 0.30672908 0.62388074 1.0305868 0.5475751 0.0025607704 0.3004705 -0.18568256
765 -0.41761193 0.05312939 0.076975524 -0.41420043 -0.74983734 0.38157147 0.37753108 -0.43590128 -0.36825103 0.09661988 0.088670164 0.7986603 0.9784856 -0.47187322 0.2512881 -0.043572046 -0.7917581 -0.5564031 -0.43642285 -0.0028768345 -0.35614768 -0.9408374 0.7379225 0.9246482 0.21493717 -0.09051413 -1.1465378 -0.12545677 -1.0510062 -0.5712027 0.023865657 -1.2464356 0.6203359 0.005307805 1.2902876 -0.739613 0.017245477 -0.99525887 -0.14382248 -0.4830599 -0.067199126 -0.1643907 0.20475686 0.7135399 -0.30866256 -0.15554108 -0.017073615 -0.1846192 0.56307864 0.8561361 -0.1095107 0.34901258 -0.32740152 -0.026110763 0.1494132 0.25113732 -0.5536071 0.43364388 0.007830192 -0.10449192
1398 0.28136575 0.41588855 -0.09940428 0.019654648 -0.2653948 0.37595007 0.28798357 0.3711085 0.019636052 0.7389339 0.11163135 0.955112 0.33384553 -0.5193497 -0.030306855 0.03659351 -0.6170166 -0.6400585 -0.644638 0.59328026 -0.9053378 -0.10795853 -0.8288737 -0.076504886 -0.07714879 -0.8980937 0.2147165 0.007348749 0.44553006 -1.0847131 0.28181553 -0.48495424 -0.9102077 0.20565274 0.28960732 -0.72479504 0.31006402 -1.0804517 0.53229535 0.33273828 0.1904025 0.01816761 -0.15872376 0.51049066 -0.13712533 -0.7595477 0.4488608 0.58638585 -0.29184723 0.51090187 0.23358193 0.43643972 0.691189 0.17551124 0.10948183 0.67668664 0.30255297 -0.46916252 0.095856145 -0.3728244
1665 0.12469879 0.11433855 -0.44916302 -0.5968744 0.46698397 -0.277046 0.45516533 -0.1603786 0.20658565 -0.10484724 -0.17202188 0.6334467 0.9520582 0.5323916 0.12526886 0.014470284 0.7179207 -0.04545398 -0.5068028 0.117822245 -0.38609543 -0.6396038 -0.20613123 -0.52016646 0.26581088 -0.19801635 -0.9591057 -0.3804967 0.3545075 -0.23589122 0.38645253 -0.33413514 -0.049336758 0.12718114 0.094370596 -0.94349027 -0.23969284 -0.3825093 -0.62099296 -0.72231483 0.12820446 0.073375486 -0.49120754 0.9411249 -0.46588686 -0.43977335 -0.762487 0.66947114 -0.8541437 1.5131601 0.28105152 -0.06262161 -0.04734789 0.18354574 -0.12205407 0.7612655 0.7074639 0.18881224 0.89350414 -0.26611617
4433 0.11941556 0.3717246 0.8194106 0.17274027 -0.266791 0.03653443 0.5723225 -0.07661889 -0.20439233 0.23581636 0.37650803 0.42664525 1.2260898 -0.471528 -0.18172127 -0.56664395 0.4609549 0.3784529 -0.46782306 0.4502702 -0.9443657 0.17537045 -0.013749159 0.37310854 -0.27250764 -0.6479027 -0.71954954 -0.049788155 -0.22634628 1.1100818 0.9254694 -0.1992058 0.21685536 -0.10353202 1.3403953 0.03787606 0.5993457 -1.4443822 0.054515194 0.5539572 0.31762433 0.25525403 -0.38004705 0.20765531 0.33557332 -0.74411833 0.25973523 0.24935393 -0.32229826 0.5569344 0.043705583 0.22412784 0.14856417 0.41221818 -0.39038876 0.19935769 -0.18129893 0.2662982 -0.56991315 -0.080804616
4109 0.064670615 0.68277466 0.05467088 -0.49754265 -0.4934757 0.2393063 0.39292833 0.23584194 -0.024480194 0.7417227 0.2900499 0.7943663 0.2503917 -0.25474858 0.12369549 -0.04680346 -0.82888705 -0.766817 -0.5421537 0.564181 -0.6470142 0.014002112 -0.26599473 -0.1425453 -0.42359456 -0.5631166 -0.15649804 -0.34130797 0.4486928 -0.6640013 -0.16263232 -1.0806328 -1.205735 0.49158657 0.21338603 -0.3133273 0.28341746 -1.161462 0.14557613 0.23128058 0.13708904 0.08311896 0.23374048 0.34135795 -0.6069511 -0.49736148 0.04620616 0.5696265 0.30841446 0.6583938 0.16694199 0.14772967 0.6941186 0.06522753 0.23169166 0.853883 0.34431878 -0.53517044 -0.4603335 0.013524518
2059 -0.21793532 -0.33996883 -0.38425902 -0.2504207 -0.019891344 -0.19679955 0.26907972 -0.1263579 0.2611253 -0.10371611 -0.45883647 0.52947474 0.15160796 -0.34840804 0.2752466 -0.33527315 0.07729293 -0.512549 -0.79834634 0.30494618 -0.43954724 -0.20879076 0.71973914 0.023302484 0.13651979 0.33920616 -0.8666567 -0.10708372 -0.5829399 -0.6687891 0.81728315 0.14568426 0.3011858 0.67712533 0.67729235 -0.33979186 -0.23246478 -0.92554736 -0.9433305 0.045017947 0.9837018 0.63549334 -0.40336397 -0.047644082 -0.0017617578 -1.2003917 -0.14556393 -0.07273647 -0.6485721 0.4058779 0.14116311 -0.09456786 0.04087531 -0.14549325 0.21240304 -0.08232058 1.0546507 0.3301452 1.0567211 -0.093862936
2983 -0.35275006 0.7135565 0.16465046 -0.045674432 -0.97268474 0.75537103 -0.66713387 0.18858309 0.20260839 0.22157992 -0.009691645 -0.1470853 -0.26152673 0.032800753 -0.7047478 -0.40390116 0.77632743 0.009703036 -0.16484413 -0.10107281 -0.55685335 0.39560798 0.368995 1.021493 0.7157593 0.118402705 -0.41371408 -0.032135647 -0.24580266 -0.30209205 0.24407697 -0.6275717 -0.5412097 -0.14945307 0.8663376 -0.35389328 0.2502927 -0.4089172 -1.392762 -0.3225789 0.22090861 0.6719161 -0.49505952 -0.18635745 -0.5885351 -0.3659136 0.0062975087 0.60580415 -0.52580285 0.973667 -0.37019137 0.04593068 0.056202497 0.07348483 0.33183438 0.97724146 -0.57725453 -0.59311193 0.12159362 -0.5149318
4763 0.08548044 -0.12102119 0.47759017 -0.015800769 -0.7582694 -0.07133208 -0.6683941 0.5322274 0.16534343 -0.44059673 0.4745216 0.033405174 0.24656954 -0.12006342 -0.14110227 -0.43083325 -0.380785 -0.5731045 -0.53290397 -0.31944254 -0.73708993 -0.71742713 0.40503842 0.60741043 0.7343972 0.23482056 -0.5868795 0.13770539 0.2253036 -0.33382335 1.0130308 -0.65969837 -0.44379714 -0.5566307 0.71838033 -0.8144762 -0.56127834 -1.0203304 -0.7122216 -0.19392589 0.24242249 -0.1533597 -0.7711568 0.35780245 0.09739326 -0.12214221 -0.13809682 0.39736018 -0.9507965 0.03238572 0.03281972 0.0849885 -0.78438896 0.31096745 -0.12627858 1.2032828 -0.14158663 -0.4666335 -0.4286513 -0.82887876
1310 -0.1529894 0.8807155 0.016275223 0.07656499 -0.7551902 0.6220459 -0.94978917 0.56246394 0.28462932 0.019877482 0.029679237 -0.4369924 -0.15319669 0.06377369 -0.672247 -0.058379482 0.41509455 -0.21114613 0.26647103 0.022261139 -0.68858826 0.07959993 0.39737466 0.6499594 0.32843828 0.34018108 -0.57963693 -0.16636486 -0.3178113 -0.112272665 0.08879477 -0.68681836 -0.74644494 -0.022392552 1.1410215 -0.31424025 -0.17108175 -0.7139529 -0.8298833 0.13467968 0.47330844 0.8057544 -0.5242296 0.135405 -0.4526033 -0.2172593 0.12766226 0.7681828 -0.5600224 0.44811052 -0.4261275 -0.26501322 0.08811021 0.32374495 0.59447694 1.2262943 -0.14989889 -0.64569944 0.25064543 -0.7361964
2178 -0.3835554 0.09626344 0.44875833 -0.018697893 0.009409053 -0.13135457 -0.8354699 0.19432418 0.11284995 0.6837816 -0.6578753 0.412552 -0.10362911 -0.62907606 0.31727532 -0.019546222 0.7516469 -0.19296761 -0.32152566 0.07722332 -0.6113755 0.16679825 0.5053656 0.38174483 0.51098204 -0.41461894 -0.6669896 0.28777188 -0.017569356 -0.036161974 0.51116854 -0.24317263 -0.3538525 -0.78589094 1.1858405 0.049517434 0.51857734 -0.6261925 0.1008429 1.1303694 -0.2317528 -0.22574551 -0.30373734 0.54831463 0.047224134 -0.8813974 -1.0183536 -0.21680667 0.17469504 1.088746 0.83241105 -0.13549344 0.0880261 0.032475833 0.19514333 0.70758694 0.12700853 -0.668583 -0.050284464 -0.08783175
1407 -0.11733187 0.47598198 0.59878504 0.009119345 0.33959028 0.6207051 -0.6118289 0.16744009 0.8568245 0.62018126 -0.7194331 1.0555544 -0.147499 -0.263191 -0.1417171 -0.11489159 -0.021436375 -0.40951997 -0.69232255 -0.006320334 0.2740241 -0.4439399 0.29088235 0.060225047 0.96173406 -0.5583504 -0.55296063 0.2522593 -0.12734601 0.10640185 0.20906931 -0.33235082 -0.14937048 -0.6112814 0.5191343 0.1777201 0.37763727 -0.7952653 0.062369253 0.79782796 0.32595354 -0.38851532 -0.282997 0.41940346 -0.28441507 -0.87800044 -0.15092374 -0.41550437 0.0033279823 0.67449546 0.21127366 0.2219096 -0.08537468 -0.3327095 0.90872234 0.8163347 1.1038417 -0.15608026 -0.2259287 -0.17593196
3892 -0.22350793 0.066514194 0.85204893 0.19834392 -0.43176892 -0.08503261 -0.17535008 0.2500669 0.3663656 0.9808458 -0.5270939 0.3373863 0.18736123 0.28219542 -0.1978522 0.36010015 0.09514147 -0.108874075 0.18924634 -0.1345278 0.18693253 -0.8740629 0.736668 0.4774208 0.7317869 -0.24671482 -0.7430714 -0.29872555 0.4954398 0.3858447 0.46545997 -0.13501067 0.0637249 -0.44755337 0.88694125 -0.14212757 0.35446626 -0.32014406 -0.27741495 0.5861872 -0.6907211 -0.1473609 -0.15212929 0.60560876 -0.24621613 -0.9276086 -0.05218972 -0.30105925 0.11367717 0.963554 -0.07202389 0.43441507 0.095436774 0.04255795 0.90526193 1.3823591 0.42658317 -0.23515671 -0.14655195 0.1314307
1366 -0.14349584 0.018023483 0.28295028 0.13890973 -0.43034598 0.6563193 0.60718656 0.11165541 0.21387362 0.2527294 -0.116428435 0.2257317 0.046394598 -0.40868294 -0.0039404505 0.4911972 -0.57825327 0.32995328 -0.9332859 0.44776085 -0.5054155 0.048280254 -0.13297333 0.048400316 0.16340622 -0.50355214 -0.8231788 -0.44109192 0.05296549 -0.5378797 -0.25168264 -0.37297705 -0.85788006 -0.14419614 0.031367477 -0.25432166 0.39616415 -0.76111495 -0.07970106 0.18090107 -0.54218936 -0.069350295 -0.47015432 0.2647685 0.033537865 -1.0460933 0.21577327 -0.33893177 0.14683247 0.47105715 0.44054464 0.14894384 0.39415246 -0.49247113 0.97767645 1.9040791 0.54073435 -0.3787198 -0.032537617 0.6765578
3487 -0.3919936 0.4468697 0.20718272 -0.40501884 0.60186404 -0.48737875 0.5180701 0.13664016 0.24741663 0.28739837 -0.033486217 0.33205268 0.8464555 0.18423246 0.3656041 0.05987564 0.043504413 0.10104649 -0.14721176 -0.1858308 -0.6646057 -0.0693507 -0.18156625 -0.031910036 0.40288895 -0.44434136 -1.7377636 0.055266965 0.36597988 -0.039589167 0.12849791 -0.49093235 -0.21243428 0.1051384 0.413584 -0.47645876 0.22051768 -0.38082644 -0.34699497 -0.9424207 0.20467758 0.98389506 -0.8128452 0.45836878 -1.1484077 -0.3100016 -0.08185425 0.23665321 -0.30532798 1.5682216 0.42247954 0.254085 -0.0139041 0.32700196 -0.26218542 0.31414595 1.100659 0.47728753 0.40827057 -0.85558283
925 0.16114353 0.10431123 0.4449997 0.57385415 -0.44953766 0.85726476 0.3771842 0.5651604 -0.6163426 -0.33363292 0.34998003 0.8714028 0.44945183 -0.3129276 -1.2420107 -0.546648 0.02665034 -0.19851835 0.4719356 1.2232646 -0.35261476 -0.05085953 0.57431644 0.37581778 -0.321649 -0.53392476 -0.13526636 0.10671639 -0.9451208 -0.00298439 0.02000526 0.35206637 -0.17367664 0.40670404 0.6290681 -0.6170704 -0.3362347 -1.021978 -0.9061584 -0.2184273 -0.6182716 -0.51994634 -0.1671102 0.51877475 -0.77811176 -0.5402403 -0.5523284 0.24787608 -0.17742462 0.88504857 0.094495945 0.25545168 0.07815409 0.15113847 -0.09466169 0.21548748 0.32038957 -0.67646444 0.41614068 -0.70883113
2291 -0.26833987 0.47086394 -0.5572196 -0.71614546 -0.42310858 -0.02790288 0.34799486 -0.06749326 0.27791157 -0.02252253 0.14605376 0.059799302 0.62693304 -0.015663685 0.278296 -0.5007727 0.7235837 0.6201721 -0.4795264 -0.78880227 -0.4009445 -0.21853253 -0.04342542 -0.15230998 -0.44205317 -0.034824293 -1.310477 -0.16520314 -0.40844727 -0.005018103 0.25104478 0.2630249 -0.16226253 -0.36027882 0.56546825 -0.56388336 -0.044289317 -0.3700628 -0.6974462 -0.26556632 0.4226338 0.51846987 -0.43386135 0.91655564 -1.0979553 -0.68676615 -0.39332402 0.8711354 -0.33728355 1.0097421 0.5035557 -0.15238684 0.59414667 0.31716493 -0.016607843 0.5362467 0.6632127 0.086367086 0.666413 -0.06530599
494 -0.38266754 0.6301443 -0.6236408 -0.8148016 -0.17947333 -0.13150293 0.2977056 -0.34035838 0.41648847 -0.04878252 0.20257999 0.22214544 0.6945614 -0.17701612 0.12049087 -0.2485747 0.62226474 0.21470006 -0.5982451 -0.63489085 -0.3351602 -0.25871485 -0.038984474 -0.32122648 -0.60686105 0.06887452 -1.2389007 -0.04555936 -0.2626679 -0.47130454 0.41862464 -0.009749969 -0.05753948 -0.18026786 0.71184635 -0.6696386 0.30404502 -0.2288962 -0.87036526 0.056939725 0.21301569 0.1302351 -0.22371696 0.94564205 -0.77482516 -0.6125176 -0.3899718 0.87997186 -0.70540434 0.89202327 0.24359788 -0.24093145 0.3095716 0.026132919 -0.34029424 0.65447706 0.9555416 0.13472402 0.59401935 -0.12505049
1198 -0.26559865 -0.8740855 -0.2430267 -0.091029346 -0.8210487 -0.5663473 0.16524455 0.15769356 0.81680703 0.35089895 0.295553 0.05705955 0.10893858 0.02087688 -0.3514752 -0.3859165 0.32419667 -0.35555726 -0.80630606 -0.20141467 -0.5492675 -0.07808058 0.20068033 0.39152995 -0.21326907 -0.41579065 -0.6000243 -1.0499272 -1.0926642 -1.0844879 0.091539346 -0.075401895 0.06699662 0.6640156 1.2544266 -0.25371504 0.22308908 -0.9747195 -0.4368277 0.11044503 0.580234 0.21517971 -0.25418824 -0.33521912 0.27220002 -0.5855708 -0.23973651 0.14008868 -0.667934 1.0511098 0.01373668 0.05288429 0.2649305 -0.21844853 -0.26353002 0.37323502 1.2946612 -0.0013172387 0.11099591 0.16084352
4277 0.15779096 -0.5556579 0.2761905 -1.1651882 0.32322487 0.052963506 0.11739253 1.4029233 0.5779503 -0.21798304 -0.41199085 0.4796427 0.6686433 -0.31730297 0.27479824 -1.2344232 -0.48816478 0.35499924 -0.19110033 0.18552783 -1.187674 0.09183968 0.8363669 0.30458057 -0.22222194 -0.6530513 -0.725826 0.10483548 -0.8471009 -0.09538257 0.23317698 -0.04982839 -0.04232435 0.2292727 0.48525554 0.2450635 0.058473453 -1.0852029 -1.0270427 -0.7713561 0.298398 -0.34543443 0.15970564 0.16879587 -0.13541408 0.2793801 0.31691846 -0.058838956 0.23853381 0.43093896 0.103469506 0.12626334 0.35418776 0.34747785 -0.076809786 1.7705296 0.36431503 0.51581144 0.3160514 -0.5622203
1682 0.7076302 0.10815088 -0.78649235 0.43783647 -0.21223505 0.17195325 0.2565014 0.9396862 0.37057123 0.46982536 -0.21615717 0.89037836 0.86008775 -0.18793963 -0.35889536 0.1129571 0.18836321 -0.32958156 -0.8878448 -0.013614564 0.13978936 -0.705611 0.035547305 0.4597053 -0.33651778 -0.7782401 -0.06683733 -0.5155906 0.058730442 -0.22625571 -0.08548548 -0.29970223 -0.50886273 -0.15380746 1.2116208 -0.6224946 -0.23348004 -0.09941437 -0.039507706 0.079814486 0.9526778 0.5525447 -0.26929837 0.10445284 -0.45233613 -0.3346291 -0.13931932 0.19145934 -0.4869758 -0.02107355 0.65558106 1.1511347 0.03941476 0.05519447 0.14927195 1.2180107 0.13775988 0.20008746 -0.5216373 -0.7973542
4612 -0.048508894 0.18257335 -0.8520364 -0.32626364 -0.6144465 -0.53651 0.38501737 0.18497518 0.77560467 0.6043215 0.28261518 0.24892807 -0.21967544 -0.59405124 0.4639355 -0.012369001 -0.09942158 -0.9335035 -0.5208984 0.9900146 -0.2339868 -0.0968545 0.08690395 -0.3449561 0.22340602 -0.36877105 -0.45076752 -0.54832333 -1.3558136 -0.4568295 -0.15574744 -0.29626533 -0.067837596 0.3514276 0.3886423 -0.28832182 -0.29254508 -0.8028386 -0.50727606 0.060835093 1.1269778 0.19082719 -0.20153624 0.12753682 0.28424424 -0.33004442 -0.46880728 0.23552005 -0.20383078 0.6770497 0.36873898 0.48845538 -0.06315595 0.10782279 0.10224536 0.16819677 0.5203795 0.19433354 0.6233373 0.3251014
2643 -0.38734147 0.098543875 0.76106554 0.09124088 -0.27873462 -0.3043059 -0.5861818 0.3988885 0.31878385 0.4611156 -0.19942838 0.26848662 0.06478462 -0.08937833 0.19633046 -0.61994207 1.1833639 0.05918066 0.01420551 -0.27967653 -0.042948265 -0.9634198 0.78494424 0.58701134 0.54692394 -0.66245264 -0.65723944 -0.22326015 -0.02896105 -0.23007193 0.38319343 -0.46400008 0.3454838 -0.45217702 0.47207072 0.13541433 0.14437176 -0.8209522 0.050158028 0.5002166 0.025799273 -0.7248803 -0.52124006 0.4667936 -0.47289103 -0.13585015 -0.28963915 0.004723664 -0.2667738 0.82713425 0.420292 0.4968519 0.18029927 0.97137403 1.0062573 0.7603944 -0.10252602 -0.71855813 -0.4511264 -0.4333983
1977 -0.021667758 0.7878214 1.0094308 -0.0035517395 -0.352439 0.29853684 0.639026 1.149944 0.28055707 -0.2761054 0.6364595 0.64803034 -0.27933937 -0.10738737 0.114380285 -0.20688963 -0.19183129 -0.58889955 -0.9225227 -0.28207812 -0.35515007 0.21227619 0.40501666 0.9146582 0.19215296 0.36112297 -0.32509908 0.14681347 -0.47472712 -0.45936188 0.52720994 -0.25055754 0.06434254 -0.6054101 0.6043221 -0.6436537 0.07820843 -1.0702429 -0.740056 -0.48171055 -0.30840054 0.62170964 -0.38616148 0.21226181 0.07140857 0.21750444 -0.27192333 1.0739193 -0.21751693 0.64252746 -0.7523846 0.39699018 -0.49804774 0.33553502 0.0023085142 1.2987753 -0.103174105 0.024732906 -0.3922873 -0.78727823
3878 0.2689729 -0.09427139 0.3274518 -0.74381053 0.12648578 -0.2643203 0.13029961 1.1871259 0.56267655 -0.2363268 -0.39043185 0.4358478 0.93492085 -0.34210145 0.23775786 -1.0813806 -0.39458218 0.11593168 -0.21473326 -0.554176 -1.0620414 0.22980328 0.2376051 0.4886527 -0.32471216 -0.6387451 -0.7056007 0.52747285 -0.880546 -0.15139978 0.20036264 0.07857561 -0.20115177 0.12087747 0.6643117 0.23788217 -0.64757115 -0.9047084 -0.31176788 -0.57374156 0.17470676 -0.65809274 0.17260884 0.11070874 -0.2153089 -0.4120907 -0.04491537 -0.052778106 -0.033325683 0.11658452 0.18619682 0.5314913 0.57029706 0.5720181 0.57148445 1.7717705 -0.17168684 0.14614835 0.92058635 -0.27387995
2848 -0.42769647 0.4263989 0.6643002 0.28215423 -0.26121652 0.43807042 -0.1250479 0.17508762 0.57747394 0.6896409 -0.35698137 0.77063084 0.2786356 0.13667092 -0.13953581 0.5459627 -0.0035707133 0.012352092 -0.32563603 -0.14011568 -0.11908896 -0.66617024 0.4199857 0.33715352 0.99126416 -0.15664236 -0.9246077 -0.24417023 0.11996221 0.15284307 0.2937773 0.035639893 -0.17883152 -0.56706935 0.5693115 0.12892404 0.12865157 -0.31982735 -0.18590379 0.5938232 -0.21858604 -0.3558737 -0.31632555 0.583043 -0.2140375 -1.0233045 -0.15746932 -0.34405926 0.92149794 1.1165292 0.12831387 0.96579725 -0.44312203 0.50143206 0.9352491 0.98716176 0.4666302 -0.14932117 0.15082343 -0.06678245
2706 -0.11969881 0.21003811 0.52800965 -0.29848665 -0.70029837 0.23287918 -0.11119876 0.47643533 -0.10314873 0.20519513 -0.086361825 -0.28018987 -0.27967918 -0.72897893 -0.1278758 -0.12130673 0.6842158 -0.50256616 -0.7518803 -0.53732073 -0.49598113 -0.6960434 0.19099708 0.8001398 0.64232194 0.12679377 -0.42641813 0.13890676 0.7663919 -0.64195466 1.190542 -0.3128729 0.18481675 -0.6333223 0.8208442 0.011555886 0.10711852 -0.931809 -0.6418153 -0.014990219 0.2478766 0.2807583 0.056778908 0.0013167517 -0.19148116 -0.020750279 -0.2440071 0.75990856 -0.40764672 0.58401006 0.027504222 0.23166914 -0.2762709 -0.44773346 0.06539806 0.9500126 -0.54373723 -0.9551372 -0.094464496 -1.2270422
1611 0.40105754 0.8713888 0.7251403 0.14654732 -0.5445284 -0.011912073 0.6439758 1.2724571 0.1732992 0.28035897 0.69306403 0.57147765 -0.39362952 0.09349114 0.40206316 -0.5035212 -0.07966983 -0.5652441 -0.41176978 -0.2324955 -0.57273895 0.06673651 0.6061655 0.8620533 0.08229417 0.30463874 -0.66016173 0.10008013 -0.13046911 -0.64426506 0.7748833 -0.012831726 -0.011939192 -0.3617063 0.23578896 -0.41525698 0.37097657 -1.1519227 -0.82440066 -0.46310008 -0.30292884 0.39303285 -0.54443467 0.05130717 0.051857922 0.27381495 -0.44541517 0.86782634 0.07669432 0.7532841 -0.7547375 0.2721281 -0.38333952 0.11738743 -0.039294392 1.1369265 0.1686471 -0.2727666 -0.049517855 -0.74606705
883 -0.64633846 0.3832488 0.54820615 -0.5017123 -0.7952426 0.113998495 -0.6213872 0.7883036 0.048958346 -0.17667688 -0.43993416 -0.72082794 0.15088446 0.17932561 0.12877353 -0.25966057 0.60197604 -0.29547256 0.008680121 0.020131903 -0.29361975 -0.5719398 0.7280309 0.47521463 0.92728037 -0.61103606 -0.6984508 -0.49072558 0.16023976 0.036977746 0.72496337 -0.49212262 0.5008178 -0.22946084 0.9298047 -0.14973839 -0.41974184 -0.21824546 -0.541292 -0.2507263 0.22371982 -0.23749344 -0.4828138 0.66468596 -0.4823765 -0.24984343 -0.023067746 0.4342239 -0.70591456 0.8165623 0.46472278 0.41018498 0.12992531 0.30757508 0.46585283 0.78687555 -0.35995203 -1.0482094 -0.05238081 -0.88307697
1420 -0.6557025 0.43084574 0.35668102 0.005254377 -0.58440995 0.030480808 -0.34531865 0.02080294 0.13956988 0.60746735 -0.26158902 0.46361884 0.25065568 -0.42888823 0.2927173 -0.14168252 0.8221922 -0.4486562 0.5155212 -0.028814273 0.21049312 -1.1361779 1.2185705 0.33723503 0.35959435 -0.58393615 -0.9250023 0.24320987 0.03476296 0.035063535 -0.08171975 -0.36444333 0.1709147 0.15530619 0.85868037 0.24026886 0.43699667 -0.86471695 0.12050527 0.14820623 -0.36469102 -0.48671117 -0.36563814 0.80195284 -0.6035451 -0.07741895 -0.1269428 -0.08682825 -0.32948628 0.35801807 0.50103027 0.20883606 0.36978143 0.69269866 1.1556039 0.7671227 0.3040775 -0.7377609 -0.31591702 -0.42007622
1458 -0.066609606 0.17675452 -0.017448315 -0.32767174 -0.3577368 -0.05939896 -0.7414831 0.04225942 0.23179029 0.5433145 -0.6982432 0.562286 0.5228239 -0.08842272 0.12553225 -0.1685659 0.91119826 -0.024642136 0.034681704 -0.4249712 -0.30542338 0.1887403 0.39136767 0.18290737 0.52798575 0.4712242 -0.5016638 0.2534825 -0.28344017 -0.1621981 0.04584763 -0.06851796 0.25943705 -0.21162571 1.1744676 -0.09912572 0.56238973 -0.9330567 0.2977847 0.63826525 -0.040161226 -0.22981066 -0.8491399 -0.06456379 -0.807481 -0.6786431 0.28287148 -0.44609857 0.08265416 0.35624084 0.46748653 0.35803065 0.24003801 0.77777475 0.86615396 0.9114083 -0.1296101 -0.5376183 -0.5481011 -0.52880037
3507 0.81880075 0.18005057 -0.7533387 0.31147978 -0.24544735 0.21553026 0.191406 1.1508976 0.18114638 0.32260677 -0.3857846 0.9328492 0.9307349 -0.20576082 -0.32836834 0.22873518 0.10215433 -0.3141254 -0.7458584 0.22848177 0.10808724 -0.5990282 0.2133987 0.53147256 -0.16528022 -0.7461766 -0.088555515 -0.48159158 -0.01716171 -0.22799586 -0.2867432 -0.15767738 -0.24136227 -0.13117786 1.048237 -0.71868634 -0.314685 -0.16371213 -0.19155267 -0.025304675 0.93072337 0.45344025 -0.33642477 0.081245795 -0.40250516 -0.4233085 -0.24550001 0.32086042 -0.55948293 -0.21293469 0.64924365 1.2215253 0.1614359 0.14498983 0.3222618 1.0695305 0.14905457 0.27031708 -0.52340555 -0.8210411
828 -0.5347924 0.6623068 0.60758144 0.5093465 0.17559184 0.51208043 -0.33671698 0.23399946 0.39176485 0.42884874 -0.27411222 0.9953548 0.2783031 -0.020492043 -0.14785776 0.47982794 0.104938 0.22073188 -0.8120965 -0.3039504 -0.36583087 -0.28122705 0.18800132 0.46637455 0.93665457 0.047546968 -0.7350368 0.16166231 0.14971077 0.120246276 -0.12922372 -0.21541221 -0.21992539 -0.8420754 0.70161945 0.18209566 -0.010917956 -0.54565597 -0.20262237 0.8495051 -0.05253392 -0.12519033 -0.4509024 0.514463 -0.18142113 -0.9154854 -0.47943908 -0.40210068 0.75096256 1.0884618 0.11723867 0.9388779 -0.58460826 0.047102515 0.73894954 1.0390694 0.64516956 -0.0015642091 -0.091363534 -0.10107236
2297 -0.6553454 0.051393382 -0.52162075 0.012439181 0.13546878 -0.54396176 0.3658369 -0.14589211 0.27266964 0.1913047 0.23409587 0.11989097 -0.07156625 -0.38332015 0.08487962 -0.08870884 0.13133037 -0.08674872 -0.8032152 -0.23715053 -0.188971 -0.24184832 0.46304083 0.7483467 -0.08126496 -0.117354065 -0.4550464 -0.46022502 -0.4233185 -1.3665226 0.5807224 -0.6125116 0.35749292 0.38634273 1.1370199 -0.0707971 0.14298941 -0.673856 -0.6401124 0.72806716 0.49353817 0.27934194 0.18019356 -0.08981462 -0.103727475 -0.63019514 0.038727555 0.42319027 -0.759726 1.0237738 -0.26600754 0.54326016 0.106581904 0.1394654 0.07331035 0.40818685 1.7685487 0.45831335 0.6144627 -0.2705369
3379 -0.3351938 0.5014399 -0.90710783 -0.93438363 0.18597423 0.101188056 0.08698443 -0.4738249 0.42986843 -0.064086735 0.056690607 0.1097701 0.7186172 0.08480373 0.14879921 -0.3216087 0.20408216 0.04849865 -0.42882398 -0.28910533 -0.33355123 -0.47400022 0.20893532 -0.3829316 -0.65481645 -0.06559451 -1.0897352 0.029886298 -0.064300194 -0.53353024 0.5418656 -0.29215544 0.26639932 -0.08302702 0.43088666 -0.8073475 0.112171166 -0.48645303 -0.9622531 0.08485099 0.02894977 0.14989488 -0.27745754 1.0031996 -0.46257952 -0.5640101 -0.17727266 1.0474285 -0.9482876 1.3182197 0.057081096 -0.16670984 0.06511007 0.012430581 -0.17199191 0.53501767 0.91890365 -0.05931912 0.893781 -0.14862686
4023 -0.17695728 0.050479427 0.76782167 0.06695607 -0.16150033 0.14912398 0.4490939 0.5827055 -0.13700369 0.8004853 0.21434058 0.9006232 0.17678429 -0.23279275 -0.12974279 -0.07562236 -1.3381319 -0.17843969 -0.5507678 0.17661479 -0.7357554 -0.1875577 -0.11095567 0.38806078 0.06989883 -0.76368386 0.24082635 -0.09285681 0.12590119 -0.89252114 -0.14173216 -0.98043644 -0.3328153 0.72593176 0.20926546 -0.5607738 0.16049498 -0.92156965 -0.06582634 0.7607293 -0.1931025 -0.19265826 -0.37769404 0.52220964 -0.61812574 -0.43794096 0.20972043 0.09819678 -0.5091247 0.57080346 0.5336371 0.077136226 0.16089702 -0.24692017 0.92830664 1.2128913 0.26355425 -0.20142032 -0.054176427 0.4012003
3643 0.5858722 -0.020996805 0.35210118 0.729986 0.30099738 -0.022137184 0.9145189 -0.34203067 -0.6101349 -0.58602506 0.27153525 0.16917492 0.7954943 -0.600439 -0.19101097 -0.54626286 -0.26127598 -0.5213 0.02740047 0.7237157 -0.3866824 0.2994276 0.6191887 0.3006094 -0.1441689 0.051501177 -0.3631676 0.5165102 -0.85439146 0.0831647 -0.28935587 0.24166901 -0.5559939 -0.13790087 0.9032109 -0.24309215 -0.87079716 -0.89876753 -0.27366897 0.20870197 -0.42741996 0.24168402 -0.36800328 -0.07453058 -0.2236505 -0.025729476 -0.2636279 0.603514 -0.13160443 1.4477427 0.41049284 0.56160736 0.15395048 0.42837664 -0.2817834 1.0945626 0.49948797 -0.26210308 -0.19357659 -0.22106913
13 -0.23137689 1.3035396 -0.19270094 0.25583476 -0.02134516 0.3555359 0.381373 0.09700902 -0.07222454 -0.00031848878 -0.09036082 0.19583516 0.48440394 -1.0457886 -0.16932485 -0.39995068 -0.09931041 -0.009198973 0.52192897 1.0823711 0.4869465 -0.026490921 0.32808506 -0.18344522 -0.091050915 -0.6698682 -0.7745721 -0.04688061 -1.3795592 -0.5787749 0.9694471 -0.005247479 -0.15793948 -0.45799783 0.51637 -0.5041745 0.47053897 -0.91685593 -0.54405296 -0.51014465 0.6480908 0.0082239825 0.012716057 0.0006342649 -0.41546753 -0.00962764 -1.1881466 -0.37770057 0.08054438 0.39119184 0.22825734 0.65439886 -0.009946388 0.503313 -0.067081615 0.6419783 0.013659952 0.018951667 -0.107846305 -0.66692495
538 -0.42079353 0.6481702 -0.4718832 -0.06569911 -0.41705534 0.38506186 0.18120378 0.5006048 -0.36408177 0.6568777 -0.16715632 0.43305042 -0.49156192 -0.43267936 -0.27844453 -0.24664226 -0.51524603 -0.34957707 -0.14250728 0.107195966 0.27938694 0.040834893 0.57058775 -0.44282493 0.554998 -0.20122437 -1.2298112 0.10952007 0.36563453 -0.16719338 0.11480354 0.395951 -0.7869171 0.40397453 1.074525 0.015932873 0.075042345 -0.77793175 0.40535343 0.29208386 0.28376135 0.040115245 -0.2830471 0.6457072 0.13943996 0.3009753 0.13218908 -0.6973262 -0.29126513 0.30717084 0.664882 0.30259004 0.24226588 0.25473952 1.1332784 1.2416055 0.53393245 -0.34629613 -0.03162709 -0.6039882
1539 -0.42965353 -0.25635684 0.2181176 -0.32223216 -0.8206647 0.14070901 0.8052386 -0.21739468 -0.27838445 0.7937227 0.1507341 1.0637965 0.5488623 -0.4167142 -0.027711786 0.026001846 -1.0276166 -0.52203065 -0.56841177 0.21504751 -0.6854538 -0.31328303 0.9808802 0.74575484 0.14916314 -0.45867467 -1.5518074 -0.33296072 -0.8576278 -0.3912815 -0.12762742 -1.0147679 0.24623042 -0.14499402 1.4836295 -0.18682861 0.29801244 -0.7666595 0.089143276 -0.45678216 -0.08290419 -0.36670563 0.3013685 0.5683969 -0.22952856 -0.05941111 -0.18244979 0.037800826 0.5064169 0.87766343 -0.32366705 0.31236836 0.004177915 -0.25046322 0.41272295 0.31930286 -0.720221 0.07488654 -0.12456333 -0.09807908
52 0.1329528 0.11254946 0.7864713 0.08718901 -0.00014543268 0.24725807 0.19082616 0.33953407 -1.4536039 -0.56288415 -0.015926886 0.74670213 0.53192484 -0.63138723 -0.51566154 0.016522989 0.0053238957 -0.116932124 -0.52753717 0.376027 -0.09792613 -0.21905074 0.47882637 0.08473179 -0.3968424 -0.44177595 -0.3216733 -0.4751162 -0.56380683 -0.17495756 -0.19048367 0.9966944 -0.5289626 -0.16466615 1.1461737 -0.17495798 -0.084169015 -0.78203094 -0.46876988 -0.16583379 -0.82715094 0.026005877 -0.49290574 0.33384046 -0.7935499 -0.4532951 -0.5810313 0.594001 -0.41610402 0.93172246 0.110955015 0.99711466 0.084261775 0.012775231 -0.060901266 0.6427422 0.09571168 -1.0696454 0.58525604 0.26197612
4257 -0.9243062 0.23575029 0.20209084 0.2462696 -0.055997692 0.46965143 -0.43965945 1.0049181 -0.29677114 -0.18308182 0.068845116 -0.47199425 -0.03397275 0.06961315 -0.87440157 -0.19985336 0.27922907 -0.4752615 -0.4422266 -0.12676351 -0.590527 -0.17330623 -0.18708678 0.64602655 0.54420877 0.07182111 -0.8958161 -0.74708736 0.11529047 0.0028824569 0.38032338 -0.7430487 -0.053837586 -0.07507202 0.49581644 -0.23023672 0.30680248 -0.9710744 -0.52869374 -0.23783997 0.58579594 0.4058683 -0.6394345 0.35855085 -0.5611146 -0.42408264 0.37145528 0.91724706 -0.4929221 0.636157 -0.70315623 -0.11362933 0.10796274 0.02776872 0.35128108 1.2123652 -0.47559267 -0.5638621 0.72847986 -0.691003
1011 -1.1779871 0.50277066 0.52126193 -0.4264555 -0.6328816 0.18589087 -0.25643373 0.62982917 0.1902019 0.04268337 -0.39457947 -0.14604916 0.08505098 0.29871923 -0.38777238 -0.42312545 0.2314421 0.09826522 0.6938554 0.29157847 0.25678584 -0.8352608 0.5981354 0.5421905 0.8049481 -0.062037427 -1.1326523 -0.62631947 -0.056844685 0.20443472 0.75978494 -0.7489577 0.2716582 0.45087472 1.2923365 -0.7437383 0.19293563 -0.34833148 -0.61573243 0.2394749 0.17380992 0.32674316 0.056438513 0.2707546 -0.13718164 -0.31229356 0.27929348 -0.24581164 -0.5942264 0.48728463 0.047974907 0.27462456 0.36559057 0.36263052 0.539739 0.89827174 -0.6830178 -0.17463644 0.30614722 -0.517418
709 0.03792741 0.38623518 0.0064532254 -0.43391743 0.0018641765 -0.07651539 0.13393089 0.61635697 -0.20701495 0.50854915 0.22077447 0.9832868 0.30127922 -0.25920835 -0.03347484 -0.16601746 -0.7033395 -0.60371244 -0.82096106 0.8232403 -0.328007 -0.001541127 -0.4815063 0.23177679 -0.15286079 -0.72616583 0.5929089 0.15861957 0.28785878 -0.8450266 0.11735509 -0.74826276 -0.041524064 -0.026340824 0.23832136 -0.68583465 0.45832658 -1.352432 0.3779048 0.13294114 0.36011487 0.28644007 0.25518042 0.6354532 -0.25977525 -0.9829142 0.38605413 0.47135064 -0.03304675 0.74985373 0.30523118 0.43434134 0.843629 0.08465965 0.34770417 0.81604654 0.4360479 -0.54002404 -0.37474015 -0.06954077
2302 -0.4333229 0.47991186 0.29067934 -0.81397194 -0.44568732 0.02170128 -0.31397113 0.6093367 0.34472197 0.02953294 -0.22362493 -0.303099 -0.06595043 0.10576322 0.13834055 -0.46869424 -0.2040482 -0.10862103 0.119955234 0.12550248 -0.4404216 -0.4618202 0.5407606 1.1575639 0.4144823 0.12842096 0.31243524 -0.8185233 0.28380498 -0.081936136 0.534643 -0.1436748 -0.09682408 -0.27702036 0.9637017 -0.77135104 -0.05905927 -0.94052005 -0.9953712 -0.39024973 0.08045222 0.27969515 -0.6115747 0.2931753 0.6141447 -0.16095166 -0.0412719 1.3141341 -0.36939457 0.79001516 0.019538978 0.49789673 -0.12669037 0.7428896 0.46022382 1.2380457 -0.020099455 -0.6119188 -0.35958758 -0.3556989
2501 0.14190337 0.1318972 0.5519501 0.19926506 0.024728836 -0.57512915 0.6648127 -0.4186942 -0.24627846 -0.20387235 0.109265074 0.32572943 1.4892865 -0.33482754 -0.6050277 -0.7013055 -0.20359993 0.015381157 -0.20934425 0.46723047 0.19883193 0.0771049 0.49022743 -0.20501615 0.80251384 -0.45216727 -0.558789 0.40553024 -0.38787177 0.14372708 0.04334843 0.16745673 0.16181372 0.100978024 0.89329803 0.0727154 -0.39352253 -1.0866591 -0.16871989 -0.303865 0.01567146 -0.11891649 -0.41041553 -0.27084872 0.0053054504 0.12463007 -0.72028095 1.3608438 0.035521545 1.2747052 0.3155282 0.5647273 0.6100025 -0.30987713 -0.45249626 0.9453343 0.4373435 -0.33123288 -0.30496904 -0.42140797
4031 0.089068376 0.7768715 0.6892895 0.15767196 -0.41200063 0.3913289 0.5122844 1.087358 0.33966947 -0.18152933 0.7855279 0.4725574 -0.17898041 -0.041815903 0.24876507 -0.19967212 0.075915195 -0.7770532 -0.5783468 -0.40453804 -0.43375495 0.30884826 0.66579896 1.0138705 0.3386929 -0.014103724 -0.33194062 -0.11715004 -0.17935498 -0.68467766 0.6746888 -0.20900674 0.004076397 -0.585605 0.52611506 -0.45991632 0.28797653 -1.0611905 -0.65513223 -0.4566616 -0.4140629 0.5424465 -0.3872622 0.1273596 0.18323225 0.24653305 -0.43471113 0.87781775 -0.15229598 0.5591901 -0.6540705 0.25333846 -0.46733072 0.37710732 -0.0651641 1.3186576 0.088591866 -0.27928978 -0.36050436 -1.0195595
967 -0.6851086 0.72534037 -0.3221549 0.43277147 -0.41485515 -0.07784423 0.38512254 0.38530743 0.09019823 0.72493815 -0.37544104 0.24931121 -0.09973105 -0.31864086 -0.020267852 -0.07707454 -0.39283285 -0.635745 -0.024097444 0.3363192 0.13069099 0.23095734 0.78679955 -0.6003066 0.40853432 -0.16520754 -1.0429928 0.10710175 0.007952523 -0.2234866 0.024755653 0.2621019 -0.467532 0.56391853 1.0483636 0.17357324 0.05141214 -0.9886321 0.007377053 0.29095837 0.085106246 -0.17337641 -0.3865495 0.9015073 0.20307642 0.06523614 0.2255339 -0.766612 -0.25598207 -0.069932126 0.11229927 0.06969783 -0.09240738 -0.021080581 1.3544792 1.244542 0.35537946 -0.57481396 -0.09826305 -0.6203241
4007 0.30995893 -0.26908097 -0.04018188 -1.0906485 0.5152284 -0.16754459 0.11936983 1.4031518 0.29941738 0.07321803 -0.5086643 0.59746957 1.0166792 -0.24366802 0.25175703 -1.2325234 -0.52257144 0.32992074 -0.19608004 0.03330495 -0.6123103 -0.068549536 0.6885686 0.42553425 -0.5167236 -0.6553921 -0.38145593 0.08682225 -0.7311397 -0.25516 0.1184721 -0.066777125 -0.097348645 0.41945174 0.50458384 0.2181874 -0.001313976 -0.75656295 -1.1636969 -0.71475476 0.36510244 -0.20911792 0.051609594 0.37703758 -0.23628455 0.29951322 0.3901144 0.1211108 0.2481009 0.66677773 -0.012586641 0.4218615 0.16238476 0.4872172 0.06598776 1.8585657 0.22882305 0.46266198 0.1357406 -0.6289599
1610 0.2994905 -0.0075127045 -0.09607166 -0.13119815 -0.7772564 -0.24307981 0.26464963 0.13308473 0.48567304 0.88119006 -0.03242814 0.70696586 -0.19141199 -0.773528 0.36131153 -0.24696413 0.1938662 -0.5987844 -0.73769516 0.21110104 -1.1042023 -0.2625468 -0.42362416 -0.58567864 0.62200695 -0.31411734 -0.30751014 -0.33741397 -0.055455897 0.13645753 -0.64382434 0.12645636 -0.40739977 0.5879152 0.23107776 -0.95133364 0.2591821 -0.7291642 -0.4086039 0.11031862 0.7431838 0.49199408 -0.011072568 0.41957045 -0.04934789 0.036384 -0.697329 0.06578712 -0.12983444 0.16722833 0.3580008 0.07413811 0.15571544 -0.028382055 0.65832 0.68834007 1.3086718 0.04757437 0.39061046 0.16042951
4663 -0.09518752 0.49283373 -0.17312163 -0.17477897 -0.8634768 0.14745317 -0.476949 0.5532721 0.25910625 -0.19247651 0.3087118 -0.8541181 0.13004185 -0.39899915 0.11728783 -0.36254716 -0.36791977 -0.53280544 -0.3627345 -0.22688116 -0.96404094 -0.5033243 0.6772364 0.75374025 0.59865004 0.28723693 -0.28846458 -0.3894946 -0.06461673 0.08703563 0.489934 -0.60939586 -0.3246324 -0.1535009 0.6860518 -0.657768 0.09907225 -1.1018399 -1.0617573 -0.5798041 -0.023832753 0.5033248 -1.0023538 0.51449 0.41726804 -0.17449848 -0.024601413 0.35976896 -0.26253 0.1287536 0.044004265 -0.1323154 0.109699905 0.74318093 0.162073 1.2049444 -0.3339534 -0.5934015 -0.28131402 -0.5825471
4849 0.38167596 -0.1893875 0.5159321 -0.9734714 0.055744495 -0.23281372 -0.13838613 0.86384326 0.60622793 -0.0029203377 -0.5905996 -0.08789453 0.82171434 -0.90562695 -0.4751037 -0.25127378 -0.09742626 0.24924998 0.08566384 -0.29211468 -0.6456631 -0.3810017 0.85725266 -0.16774666 -0.46881616 -0.84140724 -0.7800195 0.42160046 -0.6197793 0.014907941 -0.38032225 0.116021246 0.17131045 0.6385574 0.6817797 0.19537634 0.17973185 -0.7120508 -0.5732135 0.10311722 0.60909504 -0.3739278 -0.8022003 0.014844204 -0.24065192 -1.300043 -0.05292517 -0.06467728 0.2934276 0.39326283 0.005808655 -0.015530075 -0.14425863 0.46438643 -0.12992324 1.5330161 0.027465373 -0.23276278 0.12949266 -1.106661
3125 0.52902955 -0.0031293768 0.36646673 1.0278336 0.24287345 0.4386127 0.17549378 0.06286499 -0.66652554 -0.42469043 -0.059553992 0.5644201 0.52044415 -0.9556504 -0.41902804 -0.23877983 0.42079347 0.062363062 -0.45553407 1.0275611 -0.37998793 -0.38338235 0.18048836 -0.06784121 -0.18482475 -0.018721696 -0.60920215 -0.71568656 -0.76335365 -0.5370898 -0.17217237 0.57534707 -0.39707014 0.1503295 1.0702044 -0.31343555 0.65304136 -0.88043433 -0.1882575 -0.46030504 -0.0253202 -0.42274243 0.19664064 0.2476465 -0.90623367 0.032955647 -0.26917487 0.57424986 -0.19122157 0.961837 -0.14683655 1.1728566 -0.2007002 0.11501192 0.07726221 0.3102475 0.21051557 -0.92983115 0.680989 -0.0290563
3211 -0.03423737 0.6151355 0.35925195 -0.6065165 -0.16952804 0.22936623 0.63502884 -0.17700636 -0.33962336 0.792755 -0.053252354 0.1261841 0.8136383 -0.58072686 0.33763266 0.52773064 -0.18625069 0.4228178 -0.22041917 -0.00039031505 0.25631264 -0.9700773 -0.21245606 -0.08577293 -0.34653538 0.18677144 -0.11882564 0.22965755 -0.93903863 -0.45338717 0.41190726 -0.711731 0.6330096 0.30392092 1.382729 -0.20140092 0.43252996 -1.6274017 -0.850653 0.014510068 0.52957916 0.3225142 -0.37302458 0.03452437 -0.55174834 -0.22019392 -0.08455625 -0.42574075 -0.03711249 0.81803364 0.7661968 0.36112455 -0.6333672 0.54838824 -0.08492008 0.6919794 0.15290166 0.3906931 -0.34279007 -0.44090033
2031 0.07896235 0.56191015 0.090894856 -0.59488606 -0.161353 -0.40483344 0.2649945 0.2870597 0.03454929 1.0132233 0.37754858 0.8012286 0.16505927 -0.4549674 -0.196434 -0.33412108 -0.9862994 -0.46998134 -0.5999961 0.43541023 -0.9179203 0.5224156 -0.09923529 -0.5018951 -0.25028065 -0.34400937 -0.09925864 -0.17957526 0.24823086 -0.3190548 -0.23934221 -0.7514876 -0.5933933 0.7234446 0.1161484 -0.7766494 -0.20812808 -1.2004486 0.00039601343 0.07390509 0.21745913 0.32445848 0.21730687 0.229965 -0.79104185 -0.3590738 0.46278286 0.47536 0.38784462 0.7700383 0.36052766 0.67522174 0.50264496 -0.03154943 0.6390776 0.77674717 0.12775248 -0.34273538 -0.18300904 0.28716433
1365 -0.21863458 0.32847515 0.29108426 -0.023544967 0.3066149 0.65667963 -0.44718033 0.23940389 0.4281275 0.55129653 -0.6736716 0.72877264 -0.11511659 -0.3783886 -0.038192235 0.12333465 0.43329453 -0.39048225 -0.105317004 -0.043511797 0.47594976 -0.3596664 0.41500473 0.009546194 0.91258156 -0.30839914 -0.9806247 0.1516289 -0.38370293 0.02692351 0.3260214 -0.20630316 -0.15861611 -0.48977223 0.4006179 0.34986752 0.9316881 -1.1991123 0.11761712 0.74956286 -0.061610915 -0.44545242 -0.16091412 0.450194 -0.098804936 -0.6307296 -0.45628992 0.12109754 -0.37371203 0.71432596 0.45853838 -0.22164978 0.478651 0.065255105 0.7424324 1.0123806 0.5009603 -0.17417346 -0.39827177 0.225139
2554 0.13619189 0.5610816 0.4359142 -0.5369899 -0.17251119 0.099945985 0.88712734 -0.2235818 -0.3573187 0.6742931 0.0842136 0.17641464 0.9737686 -0.4968975 0.056368254 0.4659072 -0.114110455 0.35628742 -0.09491022 -0.15894714 0.07155895 -0.7982255 -0.1464549 0.115412936 -0.3034847 0.16102675 -0.24830277 0.14880654 -1.0673275 -0.3783667 0.3891596 -1.003818 0.64720505 0.23140527 1.6332281 -0.2912041 0.3542126 -1.608215 -0.75001955 0.100847945 0.2555165 0.21366611 -0.21276096 -0.118993655 -0.3975079 -0.23664922 -0.04558262 -0.37214735 -0.058636438 0.45818475 0.7555619 0.35918486 -0.43421042 0.40964484 -0.011022756 0.7227051 0.1860761 0.49348602 -0.23126553 -0.48844692
4143 -0.009839807 -0.078865744 -0.12467247 -0.3062805 -0.63121504 1.3593384 0.9432329 -0.22135459 -0.22715189 0.24785402 -0.27136722 0.23061368 0.6099554 -0.13336056 0.9435369 -0.4512842 -0.8198188 -0.53935075 -0.8655336 0.37073615 -0.6974209 -0.4384422 0.8225271 1.0786986 -0.10369301 -0.3466478 -1.8230536 -0.26649618 -0.42901495 -0.14789858 -0.21151376 -1.0929309 0.085134275 -0.07285527 1.3932568 0.011762596 -0.21644871 -0.71119696 -0.4057333 -0.24274452 -0.36259702 0.46234712 0.09882524 0.84385794 -0.5159426 -0.32835302 0.0065990807 -0.27051306 0.46744332 1.3450409 -0.36671644 0.35526526 0.5650496 0.0040806793 0.19788021 0.37002578 -0.5738606 -0.18831341 -0.012324113 -0.38520262
2334 -0.64498615 0.23218961 0.5508648 -0.11259718 -0.735958 0.16591913 -0.6013824 0.5064139 -0.10367989 -0.2718183 -0.2026945 -0.4623473 0.105088 -0.029327074 0.042560518 -0.3195568 0.34982187 -0.29281655 -0.3109594 0.08840001 -0.3882006 -0.9214971 0.8233575 0.63026774 0.94609684 -0.4106744 -0.65668267 -0.11675281 0.06302701 -0.28139538 0.6251587 -0.9498453 0.21892937 -0.5273541 0.57871705 -0.07446779 -0.43822247 -0.53995764 -0.3974663 -0.13726135 0.38002998 -0.22631109 -0.28008842 0.651616 -0.4221937 -0.15707392 -0.10333662 0.510332 -0.9098589 0.52353317 0.51526725 0.19835822 -0.1985507 0.30050886 0.12309946 0.85420424 -0.2084925 -1.0496883 -0.15575276 -1.1838819
2557 -0.32831502 -0.30346042 -0.13307588 -0.49205142 -0.5755901 0.6661458 1.1938645 -0.1022119 0.03435884 0.4005285 -0.38808197 0.29220578 0.38814738 -0.112991065 0.38549513 -0.3932157 -1.02986 -0.647382 -0.6359027 0.2664679 -0.9359877 -0.31109178 0.7739092 0.60786384 -0.14589815 -0.46517846 -1.5850941 -0.2515023 -0.46701163 -0.3879127 -0.30391082 -0.8000217 -0.015062524 -0.09630519 1.2905775 -0.059993744 -0.13039838 -0.6752916 -0.1752436 -0.35703972 -0.20108014 -0.10709236 0.17006397 0.75230706 -0.54409385 -0.19216934 0.0597691 -0.046234142 0.44111425 0.79647964 -0.1306148 0.6957796 0.003545686 0.004907523 0.15720844 0.19110996 -0.9771798 -0.017857164 0.003138957 -0.26986033
4079 -0.34577945 0.8519632 -0.5984811 -0.7317124 -0.2999174 -0.22673592 0.56504494 -0.0062808204 0.54337317 0.2721058 0.047824737 0.06152149 0.9528845 -0.07825092 -0.007348389 -0.2077232 0.4366778 0.16573635 -0.38608792 -0.94887036 -0.20669478 -0.27651155 0.017075973 -0.008441053 -0.6238465 0.08995649 -1.4846215 -0.009481562 -0.03682002 -0.21775033 0.2263674 0.13018937 -0.36211342 -0.40303615 0.71265 -0.46967787 0.23963648 -0.35268024 -0.7986968 -0.24532248 0.11014401 0.22160168 -0.6295227 1.0128361 -0.96166754 -0.56713504 -0.68162817 0.766469 -0.31742105 0.91123885 0.15698822 -0.35383388 0.37174144 0.12358392 -0.18650347 0.59073186 0.9091634 0.31869832 0.6322079 0.03382229
4762 -0.26440227 0.7746939 0.19191992 0.5367898 -0.03417143 -0.24911848 -0.4230323 0.050584707 -0.25386822 0.6196688 -0.58064926 0.7075869 0.21110421 -0.09939006 0.09169986 0.088174514 0.73350304 -0.15659098 -0.5264286 -0.68577856 -0.42208397 -0.8182199 0.29394016 0.8395234 1.3902968 -0.27964014 -0.111806355 0.008843858 -0.11238789 0.093769066 0.12791127 -0.2699875 -0.038135536 -0.4878895 0.5666472 -0.012091977 0.16264117 -0.39896438 -0.048050154 0.5058018 0.23613626 -0.2795179 -0.51039255 0.36382088 -0.000546361 -1.2255903 -0.64650697 -0.27054068 -0.15796594 0.98319656 0.21312588 0.8144741 -0.034730967 0.28960422 0.64502 1.1083118 -0.06824927 -0.3214124 0.22157943 -0.14668304
557 -0.09739566 1.1068901 -0.15690492 -0.15143174 -0.04312219 0.10557103 0.6477577 0.29715595 0.054203156 -0.14039439 0.49458852 0.3461622 0.30403683 -0.9538654 -0.61801416 -0.36577502 0.03977958 0.1277217 0.91531706 1.1646234 0.08579347 0.026145482 0.3995663 -0.25586352 -0.30990547 -0.5576992 -0.9307051 -0.3890768 -1.1901265 -0.7156045 0.87740844 0.11246291 0.03641577 -0.12140522 0.929183 -0.6775866 0.3332269 -0.8524559 -0.7392977 -0.22157323 0.34659877 -0.23341851 -0.14336829 -0.10722402 -0.12347941 -0.09588247 -1.2005173 -0.30102506 0.037625756 0.018424625 0.29206493 0.771126 0.24903508 0.60786724 0.050664607 0.6132155 0.0667539 -0.012528352 0.19304574 -0.6809161
2076 -0.5357946 0.17993632 -0.19215406 0.2400772 -0.8741214 -0.7849355 0.6008705 0.036770366 0.7353997 0.28392333 0.06735389 0.24121009 0.47464794 -0.85826826 0.07715378 -0.30155912 -0.04560304 -0.59191257 -0.35416454 -0.31364137 -0.87135744 -0.3543703 -0.0024122123 0.47792235 0.5884211 0.22225496 -0.55835325 -0.5159837 -0.6378346 -0.86697966 0.27284876 0.2930787 0.50420827 0.82443386 0.6890058 -0.42502496 -0.59204423 -0.5353856 -0.07781261 -0.26260886 0.56317216 -0.037405558 -0.5569502 0.20162697 -0.2512336 -0.40117687 -0.4693556 -0.02289963 -0.72608584 0.8848909 0.44553643 -0.09762958 -0.73319715 -0.5501583 -0.11809316 0.74404687 1.092112 0.1646629 0.95540625 0.12652403
871 -0.4924194 0.37230557 -0.69898444 -0.33108443 0.36493087 -0.21384224 0.39893082 0.07416438 0.39887485 0.0910632 -0.3168365 0.4907136 0.11259668 -0.5547706 0.06947612 -0.41780496 0.14147049 -0.6271329 -1.144318 0.70918787 -0.43679065 0.13931489 0.52515686 0.48701638 -0.08877185 0.4138074 -0.99611294 -0.07126592 -0.75293034 -0.7097441 0.79524404 -0.10688798 -0.062286027 0.5441809 0.72340393 -0.1507252 -0.4588891 -0.8144898 -0.76800954 0.27249902 0.66521806 0.59823596 -0.15220341 0.02568342 -0.18394792 -0.7273487 -0.30884683 0.36341712 -0.66160125 0.504111 -0.48896512 -0.035217535 -0.15602474 0.07125184 0.114898354 -0.08899053 1.2035687 0.050365258 0.95020664 0.36771825
1028 -0.45333523 -0.2867693 -0.23698334 -0.65370876 0.14202556 -0.53860015 0.22839978 0.042490784 0.24060778 0.1083843 0.005177639 0.550066 0.045234814 -0.21987185 -0.02281908 -0.6582184 0.015421639 0.15993153 -1.1290661 0.023966258 -0.6962449 0.15905118 0.4061149 0.14765458 -0.10822805 0.14462112 -0.83120406 -0.3632484 -0.28093195 -0.5668442 1.0833533 0.10875623 0.7546834 0.6039886 0.84576154 -0.34636894 -0.23223849 -0.5201934 -0.91709256 0.3101077 0.42426875 0.56191015 -0.04722125 0.79194057 -0.08323708 -0.75916237 -0.1423325 0.26425382 -0.78037065 0.75692964 -0.10097939 -0.10967816 0.136933 -0.10279486 0.35552502 0.20997186 1.1846573 -0.08226562 1.2808641 0.13916661
4890 -0.027080582 -0.10320094 -0.07201283 -0.4171512 -0.60106504 -0.15618642 0.48151612 0.296303 0.10801575 0.7411203 0.064857066 0.9358833 0.3313215 -0.23236255 -0.022486325 0.20077021 -1.1420174 -0.42504066 -0.80852634 0.9670247 -0.5402319 0.21095252 0.2570723 0.27380812 -0.33813173 -1.2560898 0.14164041 0.053796753 0.14209948 -0.6983356 -0.08097188 -0.73304915 -0.12750475 -0.100081325 0.35091785 -0.35324845 0.54073745 -0.74638015 0.1892727 0.28467813 0.74580425 0.4611556 -0.12840536 0.0640417 -0.36423483 -0.12634024 0.18024328 0.6683429 -0.06396422 0.6407566 0.7338007 0.4537189 0.6089171 0.033871707 0.48112324 0.9281013 -0.74612594 -0.49107948 -0.10816655 0.16397043
338 0.06931791 0.014892864 0.93732005 0.41038936 0.31858915 0.26325363 0.34101102 -0.13517465 -1.2851526 -0.44127485 0.186908 0.9076211 0.55776215 -0.71259475 -0.30119318 0.23508216 0.29546323 -0.5272118 -0.2604538 0.5713808 0.08015274 -0.37336785 0.31525123 0.027483389 -0.22391738 -0.37762478 -0.24992634 -0.69048744 -0.6750795 -0.44377244 -0.24889576 0.70091426 -0.17880037 -0.30622086 1.2436882 0.10421014 0.24275237 -1.2377639 -0.487602 0.2227052 -0.50466937 0.63356245 -0.20116512 0.38664836 -0.64141625 -0.29116458 -0.64369917 0.8787237 -0.5428414 0.8211287 0.03068954 0.63805974 0.088138856 0.044888932 0.11131819 0.46737552 0.32264847 -1.1639134 0.51485634 0.18026829
4505 -0.11177122 0.13583066 0.39465433 -0.039309867 -0.07087332 0.01775553 0.4847202 0.112423435 0.037029963 0.022241281 0.1008396 0.5975456 -0.025904346 -0.13937905 -0.06379644 -0.6268843 -0.61273396 -0.4307581 -1.0588309 0.83943844 -0.5531673 -0.46897563 -0.11799113 -0.36298823 -0.08511742 -0.9340198 -0.048438624 -0.3440558 0.37883666 -0.8259184 0.14364414 -0.9005472 -0.80065787 0.3283742 0.035713844 -0.42144063 0.11480714 -1.4559726 0.0137329325 0.4833006 -0.036397956 -0.6952365 -0.10285303 0.13192362 -0.43989983 -0.48301437 -0.008514993 -0.16447078 0.14099433 0.3574386 -0.16550715 -0.3007646 0.45335117 -0.002004302 0.60616636 1.2334129 0.5750569 -0.4973094 -0.44439662 0.27314645
2341 -0.15781896 0.58357257 0.81741285 -0.07003975 -0.05162573 -0.01613621 0.44162032 0.14226173 0.23389742 0.56124586 -0.40921193 0.40356532 0.81548846 -0.5305912 -0.18081388 -0.16703922 0.5224195 0.5153928 -0.16932923 0.37665743 -0.8653255 -0.23977199 0.10896323 0.3327098 -0.347409 -0.70076346 -1.0517613 -0.10839039 0.19397065 1.1020377 0.8739664 -0.02273528 0.13095726 -0.1630567 0.9838549 0.13377514 0.5471518 -1.3140326 -0.3502314 0.31990153 -0.005867796 -0.00800616 -0.24376045 0.3864839 0.08010756 -1.0082928 0.17051739 0.33438447 -0.0075202296 0.52836835 -0.1948583 0.28074107 -0.26071846 0.30626878 -0.44312865 -0.014489331 0.27065462 0.23516086 -0.5624225 0.21786016
2375 -0.46167275 -0.05806093 0.60256046 0.53055763 0.13134484 0.4291754 0.40041873 -0.22994271 -0.4250125 -0.032198567 -0.6476014 0.6016893 1.2913247 -1.2172526 -1.239654 -0.5281727 0.0050075096 -0.106575325 -0.05106383 1.1789128 -0.037601527 0.21747288 0.1886228 -0.17340714 0.09944157 -0.1621436 -0.49494332 -0.050781053 0.11173212 0.297388 -0.21823697 -0.74624336 -0.049316775 -0.7223056 0.6741874 0.15948793 -0.45669758 -0.9506856 -0.35792798 0.06692774 0.39375824 -0.04492177 -0.3369617 -0.11264796 -0.020469666 -0.29965246 -0.8178405 0.50109404 -0.21533127 1.021484 -0.27211088 0.55561364 0.90786946 0.24197076 -0.40277505 0.93676233 0.3013479 0.08090303 0.18263078 -0.09814392
2093 -0.52787524 0.57128835 0.47688794 0.20966786 -0.25105083 0.515873 -0.51632017 0.057469815 0.32835567 0.3843785 -0.28672755 1.1150712 0.2781592 -0.120931156 -0.14776899 0.57675344 0.30100778 0.06850697 -0.70099765 -0.60027236 0.013621387 -0.5935807 0.20900978 0.5610383 0.8904739 -0.3026875 -1.0233319 -0.03979584 0.030633913 0.043519493 -0.069606066 -0.36713558 -0.40534073 -0.3395825 0.77509135 -0.2008832 0.013835833 -0.38603732 -0.17752872 0.6868876 0.13007797 -0.27294317 -0.38949046 0.44691414 -0.041633718 -0.8000164 -0.14783508 -0.5158081 0.90497375 0.89808154 0.30831465 0.7093271 -0.49305272 0.61168396 0.8844332 0.8654829 0.5192653 -0.22134824 0.09848899 -0.15218024
4554 -0.22990625 0.21894875 0.5953185 0.30581135 -0.33065295 0.05128899 -0.8522542 0.18665473 0.09960545 0.42225876 -0.31070974 0.5860931 0.20897825 -0.91904885 0.63028705 -0.6268404 0.8092133 -0.14247175 -0.2061516 0.42836928 -0.37815303 0.37666625 0.5996505 0.21052548 0.6830025 -0.036420707 -0.4994757 -0.00034009 0.19648549 0.39083627 0.507179 -0.45222947 -0.042263694 -0.67661536 1.1562322 -0.107578255 0.6261314 -0.79450434 0.12651512 1.0208689 -0.0954296 0.08168743 -0.70567346 0.31230992 0.033872273 -0.43654352 -0.47933334 -0.22643334 0.24780126 0.5597957 -0.090658806 0.19907005 0.350389 0.644374 0.51179504 0.7885815 0.10993378 -0.52834916 -0.10091659 -0.6080308
3295 -0.10531925 0.4782957 -0.48354346 -0.08720243 0.5307781 -0.1568507 0.11877729 0.122025035 0.4434774 0.42127618 0.25567988 0.43270817 0.5889896 0.823326 0.34559208 -0.027399426 -0.27925956 0.03764941 0.0348036 0.10455996 -0.573124 -0.3208939 0.4169506 0.032483514 -0.2632898 -0.47720075 -0.93867564 0.35807684 0.08119642 -0.3402864 0.33337507 -0.07672096 0.022604022 -0.58215135 0.3668597 -0.06470846 0.20093042 -0.9838778 -0.5035085 -0.6942654 -0.06928081 0.841298 -0.47656694 1.1750963 -0.79453385 -0.61465 -0.63540626 0.6124301 -0.76377046 1.4476811 0.7222887 -0.42947748 0.2686825 0.75751686 -0.05884489 0.44350916 0.6355686 0.16230199 0.694362 -0.30156237
3227 -0.15475965 0.25138167 0.4956022 0.29647383 -0.30261493 0.016047413 -0.34949166 0.21375644 0.029481534 0.6127514 -0.4626956 0.097264715 0.095549405 0.3537612 0.17601182 -0.078614116 0.8557799 -0.3338957 -0.14712079 0.048240934 -0.41985482 -0.9162804 1.0557702 0.8576446 0.86851686 -0.44379374 -0.9506877 -0.3122401 0.41568714 0.76459396 0.5077323 -0.07553026 -0.063627385 0.15610172 0.62743026 -0.09501437 0.49685574 -0.8190964 -0.2219269 0.48882332 -0.6080436 -0.36635572 -0.27295765 0.40695295 -0.30795118 -1.1532991 0.39984745 0.31493482 -0.0447778 0.8882958 -0.2341683 0.31720117 0.16597533 0.12501913 0.69300675 0.8846852 -0.089121796 -0.078999706 -0.5187504 -0.25027773
4520 -0.08539747 0.20191003 -0.7919832 -1.2503018 0.13226506 0.02048356 0.006380525 -0.71010834 0.3183873 -0.12093789 -0.025937846 0.21338964 0.42910996 0.2120776 0.21071136 -0.3251435 0.3912833 0.40591052 -0.5164545 -0.30734602 -0.3452332 -0.57777965 0.048412252 -0.53681344 -0.58578354 -0.1476195 -0.90735835 -0.6760491 -0.15160234 -0.30814177 0.3789221 -0.5107168 -0.0030326622 0.17901278 0.43030557 -0.4890001 0.010505678 -0.63825804 -1.0447903 0.19512713 0.1693342 0.16476306 -0.46535355 0.8159604 -0.47490823 -0.3322607 -0.17046386 0.97985214 -0.9788221 1.3160702 0.21685666 0.32051185 0.39057583 0.28568658 -0.110131145 0.68370235 0.9367934 0.052521564 0.85708696 -0.20919397
3687 -0.5281688 -0.61897045 -0.14304419 0.13363147 -0.7052921 -0.46795994 0.4359862 -0.034372713 0.98425835 0.658148 0.3276168 0.060594693 0.325423 -0.26199582 -0.43392983 -0.40396404 0.6826895 -0.04258496 -0.45101312 -0.5059232 -0.49840826 0.021551743 0.06536634 0.5212725 -0.34135467 -0.06564947 -0.6779665 -0.7307325 -0.7375271 -1.222894 0.18697222 0.15010858 0.2523304 0.30806533 1.3243256 -0.035624895 0.13907106 -0.7892086 -0.2638745 0.24885081 0.63972914 0.13372318 -0.43904418 -0.045213718 -0.16631779 -0.3206256 0.057441976 0.48640648 -0.5504896 1.0371553 0.13274848 0.038303144 0.23925097 -0.09394097 -0.021303197 0.36735645 1.348012 0.27527258 0.33434412 0.047636397
3374 0.11215216 0.14979103 0.5015574 -0.052510478 -0.12642862 -0.0063730697 -0.27876315 0.19967951 0.08234481 0.7271954 -0.27212816 0.6223824 0.14794096 -0.45174533 -0.14327435 -0.31995454 0.8591772 -0.23903993 -0.17986925 -0.61968577 0.027143857 -0.31057265 0.6984854 0.3388727 0.73087835 -0.32808065 -0.3883575 -0.09334424 0.491933 0.18843022 0.0254467 -0.7698523 0.18975341 -0.17853677 0.9288803 0.3286097 0.36469394 -0.6964099 0.010667575 0.45985287 -0.31682435 -0.6893577 -0.6511466 0.6384374 0.17911072 -0.8129496 -0.69106174 -0.5474751 0.015061397 0.8458309 0.085693374 0.54762 0.10428371 0.98069996 0.9597757 0.86888605 0.6438488 -0.54102194 -0.13910146 -0.22939038
545 -0.34812093 0.16601926 0.27224493 0.44916835 0.22307755 0.48789603 0.40130115 0.40760234 -0.66778964 -0.39868605 0.62147754 0.7412338 0.6712333 -0.9665494 -1.1769999 -0.42893517 0.29813814 -0.32669127 0.72412455 0.5672698 -0.39447266 -0.33322182 0.6475912 -0.1292411 -0.51007986 -0.059220012 -0.37390164 0.11980114 -0.57941437 -0.11848121 0.11300118 0.35138425 -0.12887134 0.33954298 0.9334039 -0.5697628 -0.091410406 -0.6166016 -0.69803756 0.7024664 -0.49803716 -0.1657873 -0.15159489 0.2033154 -0.6622884 0.094422184 -0.56423205 -0.11289354 0.19845667 0.9531129 0.16349156 0.6460014 -0.19193503 0.74176306 -0.4151615 0.84087425 0.39779678 -0.68717825 0.47237706 -0.5994505
2618 -0.9871216 -0.06473446 0.33518803 0.09238266 0.11356192 0.26744112 -0.13062167 0.9774469 -0.2513262 -0.36243367 0.03511636 -0.27255717 -0.09580402 -0.01937057 -0.734147 -0.23799187 -0.09678581 -0.686895 -0.1762958 -0.38139668 -0.72620124 -0.41608655 -0.3422218 0.638484 0.295165 0.3318723 -0.54645044 -0.42417893 -0.032195926 -0.015408326 0.46755353 -0.6528846 -0.08265018 -0.30943143 0.7487153 -0.37264252 -0.02566613 -1.3392876 -0.5950724 -0.11290956 0.4701445 0.57236874 -0.66032183 0.20452692 -0.19045131 -0.20158435 0.017797638 1.047269 -0.5353018 0.47345996 -0.6158228 -0.26897603 0.16931821 -0.10860473 0.37266794 1.0508956 -0.58843803 -0.644883 0.41309524 -0.81720984
3795 -0.21902518 -0.41843382 -0.15798187 -0.15466969 -0.40632957 -0.10118848 0.11965786 0.13733013 0.44509047 -0.016218068 -0.27208257 0.49103713 0.082744546 -0.5277908 0.6504764 0.06609259 0.0075104795 -0.66936886 -0.59060323 0.114639215 -0.54695153 -0.4714929 0.8244837 0.48887238 0.27289486 0.10633092 -0.6615637 -0.2604949 -0.909306 -0.7210816 0.6178685 -0.20754547 0.40311167 0.6456597 0.8702413 -0.24078827 -0.12447137 -0.67771757 -0.5999862 0.23131102 0.96032953 0.2657693 -0.792579 -0.4196229 0.2395137 -0.962559 -0.058013212 -0.006319477 -0.73409075 0.7444981 0.20143029 0.25109994 -0.14563017 -0.67690754 0.11073345 0.22742578 1.2462155 0.4461182 0.9976065 -0.030193424
4091 -0.8159181 -0.024061712 -0.09466192 -0.6308007 -0.007827842 -0.92904395 0.42467263 -0.030296523 0.7145737 0.13783956 0.12431305 0.38265634 -0.017313415 -0.8811029 -0.031675566 0.013375519 0.29971468 -0.27224046 -0.9884075 -0.23507294 -0.5802184 0.19587643 0.55822784 0.31985605 0.007043071 0.038571537 -0.32005244 0.17732082 -0.6194039 -1.1501874 0.7636535 -0.33154073 0.40989178 0.46728078 0.68918705 -0.14856826 -0.22415762 -0.5752085 -0.5944401 0.17118584 0.4159514 0.10138566 0.072946645 0.54958284 -0.21895024 -0.40651852 -0.6662615 0.3326382 -0.9336101 0.7935561 -0.39831883 0.21093081 0.057461273 0.19249041 -0.11372143 0.5464917 1.4712312 0.23904726 0.7198751 0.23278478
1033 -0.29185626 0.17159179 0.7843331 0.29411322 -0.04230885 0.07642936 0.9313834 -0.2893639 -0.05893524 0.00465671 0.06286459 0.26962993 1.0524957 -0.3466896 -0.8181292 -0.4919877 -0.19507731 -0.11750133 -0.6247905 0.16298698 -0.31802303 -0.07762436 0.4614226 0.14697541 -0.17020088 -0.23905657 0.16368753 0.05290857 -0.29768822 0.95792186 0.5304087 0.3226517 -0.040906757 -0.47540778 1.3128232 -0.26598495 -0.78511024 -1.3605851 0.13381675 0.41788107 0.02649663 1.0894613 -0.46489578 -0.09248435 0.22740817 -0.63264877 -0.050066844 0.589265 -0.15078323 0.976168 -0.4788032 0.37198022 -0.0066609457 0.6963616 -0.2645679 0.397719 0.2790493 -0.16782175 -0.36958984 0.1070196
4646 0.17445295 -0.031729132 0.7195733 -0.78603685 0.47983414 -0.0054794303 0.055164885 1.0731547 0.50007164 -0.11534474 -0.87316006 -0.033101097 0.98309076 -0.78302324 0.21532236 -0.70264125 -0.31642494 0.3191264 0.28227827 -0.80099416 -1.1351662 -0.1131508 0.38194445 -0.08823398 -0.42666084 -0.10900973 -0.7855326 0.5885126 -0.8065762 -0.46030822 -0.4111507 0.18249318 -0.16761918 0.3473155 0.55437833 0.24189301 0.10097457 -1.116944 -0.41497016 -0.0765266 0.3783454 -0.16537635 -0.63332623 -0.21188661 -0.06476647 -0.8177796 -0.37506118 0.24636075 -0.1786703 0.16092621 0.10081693 0.4795915 0.00058292446 0.42517707 0.47575712 1.5282701 -0.2933537 0.16980352 0.023518376 -0.20107071
3632 0.22469094 -0.53861904 0.6401293 -0.97215855 -0.2305251 -0.010953441 0.20793913 0.49853095 0.68775535 -0.33696863 -1.1065437 0.17473604 0.5885897 -0.96633583 -0.024727674 -0.2199061 -0.23282011 -0.018884832 0.15560019 -0.060475253 -1.1271867 -0.058328286 0.45274293 0.12612522 -0.36937612 -0.7553656 -0.40424734 0.6354801 -0.24641803 -0.6756872 -0.23398797 0.35222545 0.69693965 0.52938086 0.66846746 -0.18311405 0.35047445 -1.0480514 -0.10416859 -0.75699466 0.30790898 0.3838056 -0.22037546 0.4574529 -0.2029371 -0.61015487 0.11718134 0.09658228 0.24783836 0.72028524 0.29369703 0.1456321 -0.5224257 0.2895444 0.18477905 1.235175 -0.0834679 0.107263125 -0.2512875 -0.58396095
1389 -0.24910536 0.87189186 -0.69075924 -0.020500565 -0.012711116 0.57816684 0.28427306 0.20901032 -0.20842642 0.68251735 -0.41348642 0.67210126 0.03689875 -0.7453667 -0.19774759 0.24114186 0.15216179 -0.011000318 -0.63916665 0.31661448 0.20464297 0.0027854678 0.27684125 -0.4475585 0.41912058 -0.14791662 -0.38441887 -0.11553807 0.36181402 -0.5257196 -0.19413832 0.064094245 -0.3859859 0.16948833 0.43069598 -0.10297036 0.4051927 -1.4330344 0.22319326 0.2872184 0.6014067 0.300199 -0.16634512 0.29370373 0.1094416 0.26899523 -0.4519714 -0.6088474 -0.12100299 0.3506723 0.28426448 0.1813484 0.09087448 -0.26013598 0.8884499 1.371919 0.19444963 0.24492775 -0.8480925 0.007304885
1799 0.11501498 0.0913335 0.17863616 -0.18577734 0.1866441 0.6438523 0.14677452 0.13165641 -0.58263785 0.52756697 0.04939197 0.6157145 -0.19997533 -0.24198782 0.033654723 -0.20499136 -0.82836515 0.042393513 -1.0892588 0.45269367 0.21528734 0.3652949 0.27086616 0.019842355 0.14102465 -0.6401382 -0.46605223 0.423827 0.24594918 -0.38267866 1.0489796 -0.64696777 -0.8087869 0.18723135 0.59154946 -0.8710038 0.23690416 -1.0510509 0.024313841 -0.43950894 0.18099129 -0.08128285 -0.6776435 0.24899802 -0.72024304 -0.55834806 0.5099422 0.20455809 0.14707801 -0.16805856 0.5091322 -0.27701247 0.47076854 -0.20569181 -0.054770753 1.6407018 1.0382389 -0.41341332 0.00599542 -0.040933765
2325 -0.52469784 0.6267614 -0.87488186 0.041628182 -0.25661004 0.6707189 0.5068351 0.5005605 0.0174312 0.76074076 0.039475333 0.17528293 0.29494545 -0.5151945 -0.19599722 0.09491857 0.06280255 -0.1538964 -0.70347506 0.118900195 0.48741052 0.13050829 0.6026224 -0.23747365 0.21169461 -0.25356928 -0.75837904 -0.017317263 0.4804482 -0.5431675 -0.19526823 0.26521707 -0.51607746 0.7083912 0.57424086 0.21021342 0.23220779 -0.9728232 -0.15563501 0.37037486 0.36805406 0.12686872 -0.4697153 0.52754974 0.47747704 0.0712078 0.30831525 -0.76408374 -0.043336112 0.65199775 0.8361209 0.47696513 0.46449074 -0.05544858 0.74445444 1.577468 -0.0055273026 -0.52155924 -0.19809973 -0.17293704
3787 -0.18586455 0.73462015 -0.06708305 -0.6684771 -0.29050794 -0.0016195832 0.59680337 0.4226959 0.539526 -0.1680554 0.18385574 0.41647682 0.7869778 0.12975675 0.55702245 -0.0714462 0.2089452 -0.7623349 -0.5863276 -0.5023375 -0.71336156 -0.88070476 0.15626982 -0.15438232 -0.5606785 -0.20682664 -0.9988587 0.063330755 0.30406117 0.00020474255 0.48436654 0.41755465 -0.02256864 -0.42121804 0.529308 -0.22757082 0.42580763 -0.03518182 -0.81720865 0.14583386 -0.10560947 0.5873475 -0.53961015 0.8500057 -0.8726571 -0.40845948 -0.178519 0.16620606 -0.8533333 1.292492 0.64988005 -0.33051354 0.3612641 0.2900798 -0.18982583 0.67520154 0.80679905 0.27783546 0.67819357 0.21015243
1082 -0.5742896 0.3005901 -0.7438228 -0.27189997 -0.63137156 0.5294135 0.24504037 0.42972946 -0.22290279 0.82734495 0.29282346 0.48763508 -0.2778385 -0.36034277 -0.21766259 -0.52624154 -0.42098972 -0.12067752 -0.29166213 0.08961577 0.12883131 -0.2185693 0.35491547 0.116850756 0.101458065 -0.37093222 -0.99446243 0.18883549 0.22281605 -0.12444701 0.13939314 0.18528312 -1.2988257 0.9945799 0.714717 0.1575465 0.3599237 -1.1142807 0.6052487 0.003212924 0.61505485 0.30448538 -0.3708211 0.53321826 0.04002076 0.42075592 0.08226672 -0.24570076 0.022297783 0.52668047 0.7457643 0.66684437 -0.49501872 0.17525606 0.3195108 1.0357146 0.65411586 -0.5524193 0.18781357 -0.5916708
3699 -0.13820939 1.0125824 -0.26601732 0.058412373 -0.10538883 0.09885052 0.5017894 0.06909832 0.059046738 0.068420455 0.1334181 0.33004642 0.46901208 -1.2523191 -0.38772783 -0.41884306 -0.24272959 0.19254795 0.5496854 1.0942429 0.006365243 0.021433968 0.33579418 0.08550439 -0.36466137 -0.5447294 -1.0980446 -0.07953438 -1.2975236 -0.7749245 1.1601528 -0.27207112 -0.05343106 -0.5325766 0.8488184 -0.8079845 0.41334224 -0.73361796 -0.55862504 -0.337235 0.4338503 -0.048425335 -0.25815073 -0.32824725 -0.2836457 0.10448214 -0.96270645 -0.68741375 0.05471815 0.39077485 0.018243168 0.5640362 0.25317752 0.47396007 -0.12939338 0.3988049 0.36242956 0.014405847 0.32275632 -0.88743293
749 -0.43387538 0.5163776 0.12889838 -0.44413516 0.4440504 -0.39347365 0.62882406 0.4223991 0.6506329 0.109198935 0.29152378 0.12704252 0.6525106 -0.46568403 0.14326091 0.34495562 -0.20341359 -0.3834358 0.22234148 -0.08162018 -0.9423787 -0.44515917 -0.17998561 0.31452188 0.09575236 -0.3533429 -1.5098871 0.011610161 0.2899784 0.31459704 0.27060834 -0.12764522 -0.46144354 0.009711528 0.5254108 -0.1321381 0.8773829 -0.7467072 -0.4749267 -0.74696445 0.103556104 1.2145445 -0.4249954 0.52127576 -0.9324425 -0.40342766 0.023185257 0.048403315 -0.11519006 1.5310812 0.5804086 0.056211572 0.5342229 0.6438787 -0.41435292 -0.081382334 1.106233 -0.034537345 0.52870643 -0.38351178
2999 0.24027124 0.1688466 0.6179024 0.8450469 0.2504764 0.2680762 1.2237623 -0.3211445 -0.36865318 -0.4312652 0.2756613 0.48176405 0.7037561 -0.75401753 -0.41650143 -0.7140299 0.1506127 -0.38112098 0.10436684 0.8115656 -0.16445681 0.12022786 0.40236732 0.18779728 -0.16351388 -0.6800164 -0.121755555 0.537141 -0.9199215 0.42528006 -0.29549766 0.14685519 -0.24756347 -0.029570907 1.0426 0.33192626 -0.5756859 -1.2123442 -0.16715465 0.16096886 -0.34585968 0.4481098 -0.48007876 0.1357138 0.21412778 -0.10776225 -0.1571563 0.6030766 -0.05536788 1.4178299 0.2525552 0.32297134 0.21603435 0.2012227 0.020532953 0.92114556 0.6148721 -0.41194585 -0.34206644 -0.2753697
1641 -0.056027874 1.0429158 -0.16075693 0.35050038 -0.10398711 0.35109487 0.6731988 0.17700633 -0.15737467 -0.11414639 0.23280957 0.17179929 0.24031661 -0.79111886 -0.5322554 -0.45346767 0.072148986 0.00029340043 0.46636575 1.2724524 0.35619858 -0.06669579 0.40507302 -0.087985076 -0.029632838 -0.49070418 -0.85788184 -0.23308846 -1.4734837 -0.52188385 0.69021034 0.053921252 -0.41861853 -0.08724089 0.98561835 -0.39970088 0.2427515 -0.96635914 -0.4761661 -0.46018383 0.4923826 -0.56912416 -0.12390743 0.19142129 -0.016826283 0.0014647042 -1.0087297 -0.43192208 0.3082046 0.3136955 -0.032163262 0.759354 0.3023581 0.32427198 -0.09545193 0.6055595 -0.1589115 -0.066211335 0.15549743 -0.72355574
4490 0.48456466 0.4024896 -0.23471206 0.008672152 0.16110887 0.17753303 0.008612081 0.74552447 0.11552689 0.12314504 0.45869678 0.9890011 0.3073197 -0.38821688 0.03444237 0.15983288 -0.7824162 -0.273053 -0.7683245 0.6438421 0.15379557 -0.02258023 -0.4429884 0.22806264 -0.20892888 -0.7185995 0.11628132 -0.025069881 0.6691319 -0.92173076 0.30971995 -0.44251966 -0.08563292 0.28103292 0.4065374 -1.1578659 0.27073717 -1.1690606 0.48702723 0.27925184 0.73839766 0.5074087 -0.2715448 0.3595066 -0.38697714 -0.6607172 0.24127863 0.463725 -0.2644945 0.8445823 0.694365 0.31337434 0.63087094 -0.24668935 0.21183923 0.91899186 -0.031827196 -0.31700704 -0.26507345 -0.17057468
1975 0.3690476 0.17457755 0.5227937 0.70028204 -0.019469425 -0.5078568 0.74937826 -0.24595954 -0.2527391 -0.047188967 0.2934039 0.024591759 1.3090755 -0.30024347 -1.1553776 -0.62503964 0.10070597 -0.13092807 -0.030424405 0.69544464 -0.0042350525 0.8909044 0.28216344 0.2142997 -0.049256742 -0.44307762 -0.79688174 0.48281392 -0.1986378 0.09494254 0.22001557 -0.5899526 0.0420787 -0.07918456 1.0351993 0.01620406 -0.24485892 -1.1159866 0.51057947 -0.49246746 0.43597344 0.078268506 -0.39667368 -0.02865231 0.2824769 -0.391457 -0.668277 0.47067723 -0.21610746 0.7479468 -0.26194108 0.77081156 0.5554933 0.096906014 -0.44994226 0.93590784 0.23814934 0.00038625352 0.08112651 -0.4135721
3089 0.15550037 0.13328382 0.5278177 0.027926266 -0.7083027 0.19068521 -0.25551307 0.4355894 0.14624706 -0.34101316 1.0381193 -0.084829465 0.40084147 -0.26997355 0.08230487 -0.6206288 -0.1302704 -0.5154234 -0.5766496 -0.6204445 -0.45249408 -0.43095893 0.686547 0.87442183 0.56891304 0.11468106 -0.4847537 0.12901133 0.20498997 -0.51769114 0.89257926 -0.32373956 -0.4436585 -0.696399 0.65109104 -0.7897856 -0.31570375 -1.3547972 -0.8641996 -0.30133525 -0.12017945 0.06382652 -0.55341595 0.41982275 0.13990179 0.22623663 -0.10711265 0.7712714 -0.56362426 0.12517507 0.2555896 0.03926899 -0.63163525 0.29757023 -0.16820781 1.1775943 -0.011409675 -0.47059348 -0.59765136 -0.8264694
3872 -0.6034008 0.64286196 -0.057388518 0.14994618 0.39124566 -0.4256682 0.35903352 0.25239983 0.6428992 0.29802966 -0.11149404 0.26231655 0.65983784 0.24414277 0.41936263 -0.33170226 0.030663876 0.04562996 0.38698915 -0.24969885 -0.8194568 -0.3211921 -0.2232163 0.20551923 0.021178966 -0.67521966 -1.1339042 0.33766064 0.37601367 -0.31827608 0.15543501 -0.05062856 -0.2823273 0.26043767 0.6007829 0.11994749 0.77897936 -0.95370275 -0.21254206 -0.77851343 0.36898792 1.2144625 -0.87973255 0.88325644 -0.67937607 -0.39708737 -0.75563216 0.2693557 -0.295956 1.4423436 0.3406044 -0.14173427 0.36721689 0.73817015 -0.366266 0.44256446 0.6289624 0.12880526 0.12936842 -0.07015782
914 -0.18037796 0.022479085 -0.4371 0.019161908 -0.4971475 -0.29955944 0.50629765 0.18648592 0.63629055 0.17481059 0.08859883 0.111492105 0.024647593 -0.74457324 0.20484073 -0.053532865 0.023854967 -0.14215623 -0.27123317 -0.3188713 -0.5219137 -0.22732797 0.25127697 0.6500337 0.13256796 -0.11562776 -0.5608033 -0.4738543 -0.9883099 -1.2097056 0.28623632 -0.3620579 0.2314241 0.6245433 0.9130502 -0.23260625 -0.3858916 -0.84287876 -0.42703024 0.32702196 0.8767808 0.1954385 -0.71210015 -0.37433007 0.29770014 -0.5432947 -0.04003287 0.28199872 -0.64304507 0.88636476 0.27032894 0.40153754 -0.24722947 -0.388991 -0.067275584 0.36401498 1.5592836 0.74388087 0.59643865 0.07482601
409 0.086889565 0.36613187 0.99108255 0.05274982 0.043237515 0.20919399 0.8709412 0.17569232 0.1703258 0.352688 -0.43080255 0.41255435 1.0560367 -0.5141887 -0.18819371 -0.019612756 -0.11594113 -0.0968216 0.32173622 0.4996795 -0.8094279 -0.05255919 0.2643938 0.06914703 -0.42635983 -0.6508569 -0.41689378 -0.13180517 0.137291 0.37509978 0.64735425 0.22418518 0.31600162 -0.44721475 1.1356531 -0.6515198 0.37403098 -1.8678952 -0.3590067 0.3487984 0.0159619 0.83653104 -0.57134247 0.36391696 -0.27113312 -1.0103813 0.3398823 0.0256733 -0.22558483 0.91772854 0.029028436 -0.0064305686 -0.699845 0.52358174 -0.5770404 -0.24200356 0.08065529 0.15636124 -0.678997 0.36808652
4057 -0.9834724 -0.10786423 -0.36587274 -0.23776515 -0.3490266 -0.41375363 0.46023533 0.090517275 0.62646544 0.025435576 0.16313998 0.078163035 -0.28345594 -0.46377018 -0.11268076 -0.022818038 -0.0024740994 -0.14881498 -0.69565976 -0.20250684 -0.28945926 0.20885658 0.2120475 0.5640964 -0.12630178 -0.20346129 -0.7513807 -0.117316425 -0.683906 -1.3632134 0.41465658 -0.5442559 0.18843137 0.574525 1.1896459 -0.08410221 0.23669998 -1.0329703 -0.5963682 0.2675954 0.33595464 0.1538449 -0.24444202 -0.44094515 -0.0031395287 -0.6511283 -0.05473679 0.32621732 -0.70076615 1.0122178 -0.23540565 0.4291944 0.023478298 -0.01615069 -0.01971753 0.34063315 1.5604879 0.6592297 0.67439294 0.02298022
2766 0.50547814 0.13839175 0.7736403 -0.3941169 -0.09193535 0.09340202 -0.18871368 0.64535785 0.97966623 -0.37306726 -0.97554225 -0.03324573 0.4310644 -0.931131 -0.34176603 0.40536144 -0.32046524 0.18872851 0.28206736 0.25529322 -0.7251089 -0.04989806 0.70263183 0.030329354 -0.24050492 -0.91649926 -0.44841045 0.8458148 -0.21572867 -0.7062169 0.16384403 0.3611688 0.535789 0.42209285 0.8678717 0.036331933 0.26851517 -0.98727936 -0.63358635 -0.45376375 0.5887987 0.21874681 -0.63036317 0.4781738 -0.38990793 -0.7310368 0.43238947 -0.03819932 0.43538594 0.6844866 0.29018876 0.28705543 -0.69359976 0.29104438 -0.13513872 1.1426054 0.36867824 -0.10374344 0.0576827 -0.48575863
751 -0.2582668 0.12118164 0.50555354 -0.111142665 -0.24252962 0.14450532 0.33741274 -0.24358805 0.17312679 0.2703288 0.3872527 0.7537744 0.041935768 -0.38235027 -0.11067098 0.013378755 -1.1182255 -0.15915242 -0.869671 0.63238513 -0.5186281 0.049376234 0.16229162 0.28767642 -0.5665202 -0.8150953 -0.10442849 -0.16381177 0.5935927 -0.73532575 0.09051058 -0.8972902 -0.53340286 0.6444563 0.2351032 -0.77230465 0.1072338 -1.4240502 -0.1531297 0.8022684 -0.02708011 -0.109738655 -0.25168547 0.17919797 -0.6820314 -0.29373652 0.19267814 0.032265984 -0.14793232 0.45605224 -0.10054852 -0.18742254 0.28811842 -0.013453809 0.41952235 1.4776582 0.40036133 -0.24659026 -0.3600193 0.68437505
4753 -0.0023538088 0.34823167 -0.27996594 -0.6697783 0.52430004 -0.54681706 0.11131123 -0.10463668 0.20469096 0.23353963 -0.039386418 0.6636169 0.60117316 0.51088476 0.3435251 -0.032097835 0.03526587 0.32319528 0.03428132 -0.31845105 -0.9963065 -0.7537601 -0.40447208 -0.08646482 -0.40289518 -0.2711261 -1.4489431 -0.33148444 -0.27014908 -0.19944921 0.6430002 0.0013658678 -0.1393225 -0.10873645 0.34593856 -0.42872673 0.1579062 -0.49598604 -0.3525168 -0.6328462 -0.07921657 0.7406152 -0.8067585 1.0519598 -0.9105775 -0.23674196 -0.42572618 0.47915682 -0.26629454 1.0673763 0.80161965 -0.32275337 -0.10037852 0.9075042 0.0039418438 0.7716669 1.1328431 -0.35678124 0.52996176 -0.2114103
2050 -0.048932895 0.036480274 0.671949 0.39474756 0.09156585 0.08618759 0.500353 -0.13230197 -0.53637624 0.40047777 -0.50957036 -0.063313134 1.2837383 -0.369067 -0.71288663 -0.07908551 -0.4973831 -0.9459845 -0.36225826 0.32038563 0.5440613 -0.25728056 -0.12384889 -0.24998094 -0.1496572 -0.0953834 -0.43863502 0.06928849 -0.6934449 0.5213023 -0.17332079 0.15824923 -0.104450144 -0.29522476 1.411683 -0.26215205 -0.86683816 -0.92439866 -0.56543094 -0.0838859 -0.3444161 -0.1009048 -0.40636793 0.37246498 0.06413481 0.2632571 -0.7238995 0.74555004 -0.23811844 1.3509908 -0.4232332 0.5082538 0.7356079 -0.07277702 -0.22279893 0.83445925 0.66594875 -0.4802397 0.10295714 -0.16635096
2273 0.08314584 1.0001564 -0.31116512 -0.10912274 0.12018724 0.20691802 0.5665786 0.39193466 -0.2121792 0.49545982 0.24865782 0.2781119 0.2306811 -0.71535563 -0.30869466 -0.0038513085 -0.21539283 0.26297614 0.1049403 0.8874344 0.26394144 -0.28210393 -0.06753684 -0.5158165 0.06545919 -0.13134524 -0.7832196 0.0076292115 -1.328715 -0.38448432 0.61270666 -0.509477 -0.29367092 -0.26470476 0.788727 -0.5847473 0.23203468 -1.3642049 -0.9682253 -0.39323547 0.58260345 0.093071215 -0.35847852 -0.4454097 0.21070582 0.25349388 -0.48047695 -0.5514169 0.059481077 0.46454325 0.9648114 1.0728616 0.11650544 0.23061866 -0.16657172 0.4390031 -0.28674516 -0.045622844 0.23364398 -0.7088789
4165 0.29454616 0.5055342 0.34519136 -0.00087166164 -0.5515552 0.15764898 0.5921416 0.35712934 0.28745416 0.46418014 0.27582407 0.51536953 0.34023267 -0.43387276 -0.1246126 -0.15895176 -0.56954527 -0.41640565 -0.7711186 0.546089 -1.0451852 0.22053836 -0.6681813 -0.20150836 0.082864165 -0.3679873 -0.3276398 -0.3650376 0.020786505 -0.47027338 -0.25479904 -0.9528459 -1.0612965 0.619805 -0.107847564 -0.21323524 0.22372827 -0.97837484 -0.37717986 -0.002528129 -0.19335045 0.13814072 0.39045346 0.34200275 -0.41389865 -0.64880794 0.10141556 0.004771672 0.4846698 0.5826271 0.027805235 0.04226699 0.6964974 0.017765585 0.82494694 1.2804441 0.587963 -0.54219997 -0.13571565 0.31048366
4405 -0.13936096 0.1938269 -0.18237622 -0.07401868 -0.40226537 0.26009706 0.28415984 0.5600726 -0.29678702 0.36525086 0.15167329 0.72196966 -0.083181605 -0.5683113 0.17841397 -0.263304 -0.8473141 -0.17683266 -0.5995528 0.6178473 0.02131862 -0.42976433 -0.1371645 -0.42683122 -0.36896703 -0.8962295 -0.52497804 -0.18206052 0.638763 -0.7556163 -0.07930211 -0.35311887 -0.6723596 0.35502663 0.24840058 -0.43197665 -0.04354511 -1.275469 0.82593954 0.2726454 0.62909234 0.009985336 -0.54041946 -0.12466689 -0.024169555 -0.37278998 0.34544384 0.2759214 -0.13507356 0.42013445 0.82237494 -0.2139925 0.20546466 0.010259656 0.88700897 1.1790807 0.44003916 -0.97480214 -0.61563694 -0.33662674
2242 -0.83687437 0.28252128 -0.09253208 -0.3048974 0.11382696 0.32318464 0.7503419 0.6639373 0.42847854 0.8615263 -0.2134955 0.551063 -0.23275054 -0.018069955 -0.49307653 -0.43410945 -0.4458602 -0.1782054 0.18984959 0.6209899 0.09757618 -0.7210568 0.19631945 0.28797874 0.58208483 -0.51629543 -1.4800588 -0.26097292 -0.07779379 0.044908885 -0.6733519 -0.479101 -0.5481929 0.29751176 1.3018044 -0.3815116 0.09823485 -0.09994577 0.2876981 0.14825168 -0.07927432 -0.53036624 -0.3714598 0.46854338 0.3291655 0.05352199 0.48945263 -0.3265883 -0.2529991 0.6081894 0.43756545 0.7481405 -0.43576398 -0.07250637 0.6739151 0.96351695 -0.06314163 -0.16620103 -0.045269854 -0.6634318
2164 -0.474214 -0.37964556 0.37634313 -0.67430353 -0.42066002 0.2843019 0.49247003 0.07483129 0.2575454 0.319641 -0.40099183 0.52356535 0.479007 -0.9452888 -0.18626262 -0.0033607022 -0.9161088 0.03278735 -0.27808717 0.20705067 -0.9558733 -0.12823175 1.2326317 0.25403762 0.23082274 -0.49439132 -1.5008496 -0.20918016 -0.74472183 -0.37596297 -0.13873427 -0.5178676 0.45614263 0.09067263 1.1054713 -0.38608328 0.49010247 -0.90667313 -0.08578156 -0.8168247 0.262722 -0.67480516 0.37740654 0.19739422 -0.012078297 -0.14994495 -0.11882997 0.0938141 0.35435998 0.6679931 -0.2720758 0.5199747 -0.19587027 -0.08437961 0.18518028 0.3845142 -0.93231887 0.068774074 -0.096127994 -2.1642587e-05
2671 0.337248 0.026958937 0.42288226 -0.67626274 0.24831633 -0.06267329 -0.29104128 0.8807268 0.5538648 -0.02748167 -1.0440665 -0.09900503 0.7488058 -0.84580505 0.055808347 -0.45937127 0.027105484 0.2467588 0.33092022 -0.663299 -0.95300484 0.075660184 0.34954476 -0.05213233 -0.31550792 -0.28054193 -0.7156323 0.7232787 -0.8137822 -0.40104613 -0.14656828 0.12302933 0.22755466 0.641533 0.7733742 0.14653318 0.3403688 -0.94001734 -0.23374555 0.031008583 0.37604704 -0.2354922 -0.86727166 0.12659255 -0.21475679 -0.9630948 0.019777633 -0.037296098 0.34497398 0.38949022 0.104531445 0.27298802 -0.15927535 0.6778784 0.4719089 1.2500873 -0.08673593 -0.11285705 -0.018838733 -0.6640387
1225 0.10373146 0.011250876 0.69680583 -0.05061476 -0.19765723 0.2801293 0.39552844 0.19989416 -0.029577248 0.19577266 0.2845154 0.78332555 -0.039269537 -0.14077866 -0.35310152 -0.30268684 -1.04741 -0.3597542 -0.678816 0.61913204 -0.7728679 0.026070923 0.25616142 -0.14759192 0.057366386 -0.4862039 0.057555858 -0.05565778 0.35587376 -0.4901356 0.13589184 -0.7851255 -0.73128045 1.0981821 0.22279339 -0.5981823 0.26086524 -1.2919854 0.024236059 0.7850192 0.008195741 -0.12324772 -0.41834015 0.15913679 -0.54175586 -0.25654504 0.196164 -0.26608387 0.01431 0.18298702 0.048549674 -0.11428689 0.23550765 -0.15920629 0.8103502 1.5706522 0.7405391 -0.079747304 0.038004063 0.14392412
133 -0.5646132 0.2022607 -0.025737137 0.20107321 0.0601214 0.20989811 -0.004485674 -0.20549856 0.075049296 0.64526063 0.17193021 0.70202005 0.075547464 -0.3010726 -0.04828239 0.074849516 -0.8072694 0.49612466 -1.560183 0.40128013 -0.10128989 0.3653168 0.8425221 0.17656866 -0.01741982 -0.5683817 -0.68115574 0.2000167 0.34922054 -0.20996448 0.49383995 -0.55193514 -0.3346434 0.17327774 0.44310194 -0.63144666 -0.13208212 -1.2350802 -0.22492631 -0.25017247 -0.17317759 -0.35659203 -0.7039434 0.08658357 -0.47541198 -0.07947414 0.58577883 -0.04050071 -0.3531543 0.19849537 0.60521215 -0.35318625 0.08542549 -0.40817267 0.7408054 1.7164859 0.59224015 -0.3621235 -0.40142944 0.5712
1709 -0.14378965 0.1883255 0.49767387 0.016877051 -0.209755 -0.31002092 -0.42610738 0.40631992 0.13417417 1.056113 -1.0563885 0.26954377 0.19589159 -0.2764401 0.21692649 -0.50641024 0.8714325 -0.028909896 -0.112998515 0.0876605 -0.5180432 -0.010795206 0.44514546 0.31372035 0.57352954 -0.4178941 -0.42439803 0.04476029 -0.22948998 0.32163107 0.7611528 -0.0613409 -0.035534564 -1.013979 1.2442805 0.17460103 0.57302815 -0.81551576 0.34130275 0.55198973 -0.47560272 -0.112222075 0.04876113 0.32243967 -0.1916158 -0.82964796 -0.7056191 -0.02059243 0.105475485 0.9862632 0.54556865 -0.21386898 -0.14490005 0.21332139 0.30074078 0.74242806 -0.22641577 -0.5363674 -0.16922182 -0.0020717904
2592 -0.15416084 0.47838932 0.8656519 -0.014812787 -0.9331489 -0.0008727799 -0.47218826 0.23993269 0.06413293 -0.22021748 -0.39322037 -0.01775405 -0.15868294 -0.5332719 0.28900242 -0.119707376 0.102974966 -0.384521 -0.13662113 -0.21158913 -0.67409253 -0.5739678 0.5997345 0.6199722 1.0980326 0.13756143 -0.52092457 0.074202396 0.17528963 -0.16913052 0.73524785 -0.80022335 -0.081746824 -0.56950665 0.90222925 -0.47135684 -0.271011 -0.78134537 -0.080850415 0.20604503 0.9517812 -0.20502399 -0.3334146 0.5241848 -0.12752342 0.08791308 -0.45637965 0.36234686 -1.1430445 0.25309393 0.052679304 -0.11485106 -0.712574 0.40152642 0.34569612 1.0083834 -0.28146145 -0.79683065 -0.4160438 -0.88102156
2744 -0.42134935 0.8339664 -0.940066 0.2689597 -0.49610782 0.37434757 0.5770314 0.37621793 0.13929534 1.0558052 0.08598039 0.10547085 0.39226303 -0.5417836 -0.14023834 -0.151312 -0.057833314 -0.11993353 -0.17127368 0.15703909 0.17184144 0.21765193 0.5940523 -0.07671784 -0.047004696 -0.12139614 -0.6659099 0.13695036 -0.09620831 0.13488802 -0.32019964 0.43307254 -0.5711417 0.8608213 0.7283788 0.40842584 0.09731428 -1.3894875 -0.121408455 0.23779273 0.3542453 -0.25171787 -0.24992292 0.86291 0.034811486 0.08097216 0.31071907 -0.7038155 -0.16597196 0.3548249 0.30996367 0.22125582 0.13225472 -0.24507982 0.69431233 1.3629737 0.10448029 -0.32571822 -0.29782546 -0.3336894
29 -0.18576856 0.48247245 -0.23287144 -0.2845116 0.52270687 -0.22603133 0.3854615 0.22197525 0.32536924 0.17520294 0.11029945 0.45347 0.7264731 0.6972023 0.57361203 -0.08498153 -0.11286167 -0.01896792 0.308514 -0.1803481 -1.055972 -0.40140837 0.07039559 0.029364169 -0.36573112 -0.6942755 -1.0760604 0.08509727 0.083124824 -0.07938103 0.37582916 0.059037656 0.016422728 -0.16546252 0.38145992 -0.0034941093 0.38790467 -0.88878393 -0.41489983 -0.6770038 -0.19646958 1.0225744 -0.7643137 0.93860495 -0.95701164 -0.59213173 -0.36145565 0.27869892 -0.62854904 1.4982692 0.59579676 -0.17763796 0.09361446 0.86890584 -0.02814842 0.48422915 0.68385994 -0.043260854 0.55750024 0.016700588
3134 -0.67749596 -0.2068943 0.78345114 -0.45509246 0.25018075 0.35032526 -0.2567302 0.6679476 0.12584746 -0.62032 -0.29069737 -0.05919872 -0.26213455 -0.2538958 -0.27723482 -0.088241 0.13966505 -0.6112612 -0.24253409 -0.046127085 -0.7636703 -0.15646188 -0.30090368 0.7813043 0.7165173 0.45276845 -0.7021416 -0.587504 -0.2275877 -0.113126166 0.54277015 -0.6357088 -0.10460916 -0.19049074 0.75308734 -0.78723466 -0.55155194 -0.7497808 -0.6202682 -0.48229092 0.115666226 0.4011327 -0.42590806 0.33021078 -0.014641122 -0.034190845 -0.06061079 0.70933044 -0.8074871 0.7916243 -0.33751792 -0.048441052 0.042211007 0.36884212 1.0281649 0.9127066 -0.6859445 -0.99565506 -0.21651503 -0.29430452
4617 -0.27981552 0.3413361 0.4230884 -0.103934646 -0.18663017 -0.032087926 -0.7562907 -0.16110103 0.2029567 0.3821809 -0.7904526 0.7700672 -0.22094731 0.2905762 0.39541045 -0.22458793 0.9491599 -0.011373532 -0.45250744 0.23449217 -0.08950255 -0.6587556 1.136589 0.872895 0.94453615 -0.18623246 -1.0258496 0.46676728 0.16770154 0.40985355 0.12408183 -0.38787213 -0.59988767 -0.42030245 0.8733765 -0.039933536 0.31732252 -0.48837987 -0.092064716 0.5775985 -0.18418142 -0.13759474 0.30704734 0.09165168 -0.011114687 -0.68032867 -0.058098856 0.4992727 0.013086398 0.8032677 0.40418953 0.47993606 -0.07942879 0.23999509 0.512414 1.1343939 0.07797298 -0.21463284 -0.20594642 -0.106243804
1308 0.9020595 0.10235648 -0.78996974 0.15877701 -0.26506856 0.18201652 0.19998042 0.87573105 0.247342 0.35509527 0.206141 1.0573894 0.7992817 -0.027187156 -0.35684752 0.15517603 -0.024109174 -0.4001617 -0.7897216 0.08605681 0.31356573 -0.7062578 -0.12834667 0.23598884 -0.07455374 -1.0916673 -0.3285357 -0.47345945 0.7240779 -0.20988978 -0.09817996 -0.06490638 -0.3183361 0.056736182 0.9049559 -0.8407817 -0.20851956 -0.1115633 -0.031458013 -0.16038868 0.81157804 0.9210759 -0.29618728 0.5020949 -0.4927904 -0.47771636 -0.10743879 0.46078598 -0.54485446 0.20905931 0.8116703 0.7556563 0.13859034 -0.15700553 0.025341924 1.1157545 0.26294586 0.0032855526 -0.4167174 -0.5258915
