5000 20
2455 0.57574654 -0.32658544 -1.2131464 -0.27148402 -0.30215392 -1.899187 0.500029 1.5437951 1.0092969 -1.0079056 0.7476455 -0.29297087 -0.19061755 -0.14198959 0.0011325019 -0.17786738 0.22318792 -1.0381191 -1.3007661 -1.7648331
4229 0.20177393 -0.37470418 0.14599614 -0.4976777 -0.324603 -0.31625172 0.036099035 1.7296281 0.5311535 -0.8972458 -0.85206413 -0.3298311 -1.1094273 0.8415829 0.74221456 1.7521455 0.89055127 -1.1442543 0.22348851 -2.2291965
2074 0.07429251 -0.21252261 -0.16059992 0.3447391 -0.19184811 -0.70919526 -0.82517165 1.1609354 0.13279687 1.4249811 -0.07707133 -0.3580497 0.78167546 1.6748581 0.9868664 -0.57408947 0.5281391 -2.2341695 -0.40253472 -1.0120629
1822 -0.2204174 0.5855198 0.4051963 -0.77445966 -1.2057298 -0.4276483 0.014790237 1.5534022 -0.012734206 0.85216475 0.36603048 -0.4632529 0.5345997 -0.2870472 -1.0603305 1.3063121 2.3350863 -0.29001674 -0.355576 -1.465309
1305 -0.062950015 1.0370431 -0.24577308 0.6864943 -0.80790925 -0.14091606 1.4966246 0.5140463 0.121714115 0.3896025 0.8750935 -1.1758163 -0.9769028 1.035909 1.1005099 0.9816451 -0.3921602 -1.0132328 -1.1501367 -1.247326
3357 -0.3693875 0.9066737 -0.30343255 1.1387085 0.53145653 -0.7122087 -1.8802855 0.6107472 1.537758 0.4409727 0.5910631 -0.73911995 -0.19185872 0.3085921 0.31004727 1.9660527 0.0064460547 0.5417719 -1.2130924 -0.6802181
3926 1.1098502 0.7158044 0.1048166 0.04494842 -0.533754 -0.02305476 -0.7785638 -0.27738658 1.6183302 -0.18778767 0.9706821 -1.9705052 0.31219646 0.7587593 -0.133371 0.38818336 1.246109 0.10151068 -0.93618554 -0.5830955
3866 0.9570965 -0.07749713 -0.4413961 -0.8898751 0.6274225 -1.4833264 0.14656493 0.50490993 1.5772136 1.1632804 0.57522243 -1.5522311 1.2014238 0.580514 -0.29115632 1.1108621 0.34205273 -0.87868035 -0.07338487 0.27470282
113 1.2991201 0.6640509 -0.77467173 -0.026969053 0.05505908 -1.3331922 0.79939866 -0.37552753 1.7995005 0.57478756 -0.01566444 -0.24496685 1.4193687 1.3595091 -0.2208478 0.8507743 0.4534113 -0.7492719 -0.8711921 -0.551952
1624 -0.6884657 -0.41134384 0.7463958 -0.38115376 0.9480683 -0.3518652 -0.6997496 0.9436631 0.6664056 1.0738487 0.25196847 -0.5489524 0.72287506 -0.8211904 -0.69462574 1.3985393 1.483229 -1.4570603 -1.9180931 -1.1347301
1044 0.39459258 0.19944075 -0.5614623 0.6618987 -0.18154275 -0.59466535 -0.8446607 0.9414662 0.6318999 1.3094556 -0.3970801 -0.20807122 0.7396939 1.416124 1.3494008 -0.47004944 0.6377629 -2.0088933 -0.1366996 -0.73957473
926 -0.87396246 0.23803547 0.23101637 -0.6548208 0.72711784 -0.73323 -0.720973 1.5413184 -0.20570761 1.5828168 0.09355039 -0.838154 1.1682703 -0.73797625 -0.25605512 1.7735018 0.60265476 -1.4427335 -1.7773647 -0.54271996
1879 1.7615619 -0.0801899 -0.44811213 -0.42983374 0.38230532 -1.2254556 0.15530261 0.31233215 1.4557433 0.89589393 0.26550284 -1.6750515 1.1997036 -0.070316546 -0.39975032 0.5640631 0.28336117 -1.5550213 -0.166189 -0.12050066
1749 0.19945525 0.22187743 0.51298225 0.04383851 -0.36977056 0.5559438 0.41627598 2.2299626 0.5532481 1.1929135 1.4552162 0.0048248535 1.127585 0.14852282 -0.0034857276 1.1175257 1.2467834 -0.45943895 -0.41179475 -1.5130501
990 -0.83586097 0.16790229 -0.5484754 1.5257465 -0.20172702 -0.6672721 -1.0158716 0.03932317 1.1689422 0.21038903 -0.4790529 -1.0117419 -0.5536226 0.672926 -0.36345503 2.5916739 0.20430996 0.09911437 -1.0967308 -1.0911433
3692 -0.9888911 0.88090414 0.5497607 -0.53329015 0.44244823 -0.47011563 -0.2834244 1.9228911 1.2745214 -0.71525174 -0.13377291 0.36327818 -0.55657303 1.807737 -0.06736864 1.1300677 1.2179493 -1.0902377 -0.6195617 -1.0672389
2613 0.9840371 0.40378216 -0.31396657 -0.118647344 -1.893165 -0.47385204 -0.026806414 0.5452642 1.2798228 -0.76607853 0.38881677 0.12980448 -1.1145436 -0.58164597 1.2043715 2.1966002 0.95301783 -0.5704411 -1.2663904 -0.14521493
3388 0.88000774 -0.7019507 -0.7548782 0.4728879 -0.10537742 -1.4087785 0.40554944 1.3023345 0.29809514 -1.4164858 0.7348055 -1.3430411 0.05523117 -0.71043575 0.8098743 -0.04092269 0.64552176 -1.9912034 -1.1381872 -1.4407715
1676 -0.6522304 0.85783803 0.98649985 0.06259467 -0.19393715 -0.5281953 -0.3056477 1.7707757 1.5260563 -0.92964643 -0.556706 0.13133967 -0.48075163 1.4497267 0.83312845 0.8502721 1.2080162 -1.0374465 -0.6066915 -0.90897626
532 0.38962758 1.654057 -0.34476903 0.79400235 -1.5892767 0.3157743 1.0885636 -0.048393507 0.98670316 0.38932398 0.008944451 -0.16263874 -1.3411127 0.015153297 -0.42465723 1.2773342 0.13706815 -1.7643709 -1.239192 -0.76714325
3360 0.81655794 0.63681114 -0.13038716 0.9104702 0.2943617 -1.1634082 -1.9420578 0.15508299 0.6475239 -0.23224838 0.66569364 -0.07101071 -0.8766045 0.7441483 -0.43630126 2.5276606 -0.44726306 -0.77840364 0.1409172 -0.3895895
2550 1.2083578 0.28800133 0.08916926 0.85658586 -0.71170753 -1.4827336 0.5352853 0.36766133 1.2394991 0.0828287 -0.42549118 -1.2504071 0.453487 0.4852989 -0.91465336 0.88792837 1.397448 -1.466151 -0.43767685 1.0404323
1904 -0.44863272 0.98664135 -0.09864851 -0.45764312 0.56408215 -0.4665444 -0.6716942 1.5560061 1.1956769 -0.66551435 -0.30995405 0.37639713 0.004258259 1.9546604 0.51434785 1.400507 0.6472759 -0.8071378 0.4868455 -1.989242
568 0.24413148 0.61348826 0.10665673 0.013359079 0.23528752 -0.49375758 0.28236458 2.0744083 1.7461095 -0.03471318 -0.7553559 0.17774534 -0.6419891 1.8714273 0.33972532 1.2313458 0.1868816 -0.16802849 -0.46019006 -1.7519186
2983 -0.39547366 -0.502077 0.448267 0.11445375 -0.8480988 -0.19534466 0.63077086 1.6727234 0.61495054 1.3092418 1.1704358 0.3183737 1.408258 0.17489329 0.051907487 1.6155618 1.22331 -0.8051399 -0.27892283 -0.6699695
2291 0.10157757 -0.41240942 -0.5214845 1.3057656 -0.6139637 -0.6485496 -1.315214 1.4577113 0.61443335 0.17058502 0.82721305 -0.543853 -0.7024487 -0.5321836 -0.6430414 1.8817744 -0.9904708 -1.7756702 -0.013553982 -0.13186045
215 -0.41552243 0.7430825 0.29468763 -0.6320995 -1.2636989 -0.12049954 0.11887959 1.732544 -0.1674463 0.61969006 0.28710014 -0.28952023 1.2855288 -0.22262113 -0.9493111 1.4398711 1.6566175 -0.48467016 -0.68553793 -1.5772212
3507 -0.36927438 1.9140458 -0.44291484 0.7660256 -0.7178668 -0.97522604 -0.897775 0.27127975 0.26613277 -1.1453115 -0.33034 -1.6505073 1.2942889 0.12124788 -0.29578367 0.8965482 1.2375053 -1.4965566 -0.24527581 -0.11246536
4109 1.4618756 -0.17110854 -0.46457717 -0.9729842 -0.1543718 -1.2877417 -0.15461364 0.611786 1.4608312 0.59467304 0.56659776 -2.1251423 0.2794024 0.19276905 -0.18463016 0.6563341 0.97577965 -0.8345996 0.14576587 0.34425756
765 0.9436468 0.70250136 -0.3411443 0.04072575 -2.290052 -0.2871445 0.25707003 0.7720071 0.774456 -0.61755735 0.14354038 0.2866727 -1.2558299 -0.52810574 0.99230963 2.1793132 1.0857486 -0.8512291 -1.2055354 -0.30053982
1398 1.3557099 -0.17627291 -0.09006473 0.4861717 -0.35596654 -1.2106369 0.13265318 0.42387652 0.80866617 0.51302147 0.23309521 -2.3245015 0.1373379 0.20872274 -0.3806974 0.73149335 0.9081793 -1.261501 0.02811854 0.6428566
4277 -0.52127534 0.053187594 0.88481057 -0.32127535 0.2035972 -0.25314713 0.013234545 2.3168948 1.1658005 -0.7500603 0.19397843 0.47323343 -0.65247726 1.8960508 0.1347064 1.3853574 1.3655094 -1.4258082 -0.37379432 -0.92108095
1420 1.6704986 -0.0206655 0.5766386 1.2009128 -0.69806933 -0.5937169 -0.85990876 0.8427042 -0.07505322 1.3222991 -0.1684716 -0.1051416 0.06129209 1.4926445 0.28347757 -0.5238145 1.1162456 -1.4904587 -1.2089244 -0.9779846
2059 -0.29800004 0.71444935 -0.57511014 1.4266838 -0.18416978 -0.47741702 -1.4126732 0.20922403 0.3131357 0.87747705 0.37183258 -0.62255394 -0.6031453 0.76957655 0.7131956 2.469327 0.8100506 0.1675818 0.44333246 -0.9137406
3379 0.028239885 -0.24713595 -0.7452474 1.1128086 -0.64207953 -0.7145856 -1.9814847 1.307312 0.0746241 -0.28452256 1.0704422 -0.7129158 -1.3370848 -0.5948219 -0.10425094 2.1248434 -0.17072283 -0.8966335 -0.47384444 -0.5643931
1601 0.090685055 0.42745247 -0.88455087 0.02037789 -1.5198576 -0.6666968 -1.1229681 -0.33548293 0.9267937 0.7633264 -0.053423293 1.1302934 0.8736297 0.97282946 0.17652832 0.37552735 1.1380686 -1.7426039 -0.48184755 -0.28957334
1407 0.6823107 0.75977767 -0.31450176 -0.06807667 -0.48058638 -0.6846752 -0.878001 -0.46673092 0.8073957 1.266846 0.2635969 0.3168964 1.2247659 1.170631 0.5226249 0.02637476 1.1281321 -2.200389 -0.07719867 -0.17216365
3754 1.8997757 -0.15226631 -0.5629068 0.29618192 0.74147826 -1.1186614 -0.3221482 -0.09673967 1.240698 0.55903137 0.05364594 -1.1491582 0.5535362 0.17878345 -0.58556414 1.033293 0.30136606 -1.837136 -0.46356255 0.6700075
4612 0.39215237 1.2110647 0.05619727 0.51451045 -0.4506417 -0.32087165 -1.0624645 -0.69280833 0.83493954 0.23116517 0.4991361 -1.8444535 -0.122570865 0.3045676 -0.05808472 1.5947361 0.614372 0.4425585 0.09148172 -1.1591536
2643 1.2481952 -0.31605896 0.075326085 0.70795953 -1.1245904 -0.57235634 -0.8921626 1.0254295 -0.31841004 1.3804908 -0.5875105 -0.08432716 0.33361247 0.86558026 0.5486624 -0.3543439 0.8888514 -1.4892825 -0.8629921 -1.2408403
1682 -0.22833554 1.9845589 -0.6391529 0.8877286 -0.6705978 -0.80223304 -0.84002316 0.40370727 0.228537 -0.8066867 -0.57474244 -1.5656493 1.0601982 -0.037193287 -0.33090934 0.8110249 1.030197 -1.4138072 -0.41728657 0.043845065
925 -0.057231396 0.2996088 0.21050076 -0.38889885 1.066451 -1.2525147 0.7903703 -0.04211271 0.08194817 -0.7325821 1.3276875 -0.5790463 -0.8482483 0.060458407 0.502418 1.5839255 0.9206758 -1.1887436 -1.5906456 -1.3887413
2178 -0.24904837 -0.105023935 -0.80173707 0.3573442 -0.726733 -0.9940361 -1.0360612 0.8455737 0.16461271 1.3351122 0.041752484 -0.345216 0.95919734 1.6370406 1.05136 -0.0794111 0.9383311 -1.7059578 0.12699312 -0.34213609
3487 -0.10715004 0.52703184 0.27298388 -0.24998714 -1.1112238 -1.1051118 -1.5091285 0.7517499 -0.33675623 -0.035419546 0.5974692 -0.020100858 0.0035998116 0.4408152 -0.23256995 2.2419326 -1.7603652 -1.6264703 -0.8274216 -0.8063709
1198 -0.96518517 0.025283026 -0.92768717 1.3174387 -0.36661577 -0.16681491 -0.89405674 -0.5019458 0.88693464 0.11644078 0.27077362 -0.8057225 0.75004923 0.5931573 -0.82976854 2.6032145 0.5388019 -0.30972132 -0.30823776 -1.5110292
494 -0.11705403 -0.32254586 -0.70001405 1.2301736 -0.7102461 -0.6541305 -1.561063 1.0592704 0.48968476 -0.11913294 1.0628657 -0.8897731 -1.0014879 -0.4325296 -0.5314966 2.1865227 -0.7423278 -1.1873672 -0.45759505 -0.24648954
3878 -0.91903824 0.95978874 1.020921 -0.6588318 0.32702282 -0.480661 -0.7761185 1.5197445 1.0618348 -0.35172814 -0.34439155 -0.2710025 -0.71682173 2.113423 0.695251 0.7051611 1.190565 -1.2556559 -0.7550058 -1.3220804
1310 -0.20415097 0.27888453 0.62797034 0.118844144 -0.88397413 0.44605437 0.79763514 1.8889898 0.19561984 1.462428 0.98611397 0.059655678 0.8141089 0.5086188 0.13322559 1.3824493 1.9519343 -0.5277276 -0.72100765 -1.1658261
1192 1.6161366 0.25030562 -0.3225856 -0.4745318 0.15388836 -0.7231921 0.35792756 -0.022818672 1.9242473 0.7960517 0.35436112 -1.5112228 1.1222854 0.41259897 -0.576645 -0.19521685 0.12504107 -1.8271186 -0.41763684 -0.8534062
3643 -0.20317316 -0.35533413 -0.59393114 0.757075 0.91739076 -2.351727 0.9656403 0.7301346 0.33017275 -0.30340612 0.7573307 -0.32938087 0.075430885 0.26121932 0.7088941 0.5526455 -0.031148335 -1.7005533 -1.3380197 -1.2583436
4433 0.49771002 0.17743714 -2.1363258 -0.6831452 -1.1039119 0.038523167 0.7312114 1.4568121 0.63649327 0.22648083 0.63725936 -0.5081134 -0.13347124 0.1464932 0.35988805 0.78202444 -0.69708586 -1.6924868 -0.7640573 -0.68025815
883 1.640976 -0.5927673 0.35938072 0.2826006 -1.1844459 -0.3410946 -0.36437842 1.7413383 -0.07514549 1.5939474 0.3733221 -0.03302887 0.49829626 0.33047113 -0.11078102 0.83327097 0.8934607 -0.44019076 -0.03578595 -1.5646055
2334 1.5588884 -0.33338064 0.35906893 -0.23244308 -1.2077296 -0.8132394 -0.36734298 1.4603091 -0.52516186 1.2624208 0.36257386 -0.10468222 0.86800855 0.24130222 -0.28531188 1.0326257 1.0360347 -0.09084878 -0.44500437 -1.461641
4023 0.73180866 -0.4785965 0.112731755 -0.07759019 -0.2347464 -0.952221 0.60429627 0.37730432 2.2809467 0.8991384 0.5205149 -1.3199942 0.40031672 1.4477934 -0.32697734 0.86702335 0.38904804 -1.0566773 -0.73716646 0.6673819
1011 1.1755074 0.019626122 0.46256945 0.8778995 -1.4056172 1.080498 -0.08303924 1.158017 0.88165116 1.5410295 -0.14070922 0.09318914 0.64246815 0.57157046 -0.6359627 1.3357217 0.85211843 -0.84256375 -0.59456295 -0.84525156
4763 0.5841364 0.4638254 -0.24523658 -0.75980306 -0.75355357 -1.18347 -0.33249858 1.2934495 -0.18138067 1.3954352 -0.18065248 0.16349976 1.2124866 -0.80846906 -0.47845784 1.6998113 1.2651796 0.015724905 -0.9772223 -1.5334498
3227 0.48376405 -0.40030122 0.49114206 0.12942147 -1.769012 -0.2720302 -0.41170067 0.8231722 0.326066 1.3713237 0.70837474 0.40857828 0.21528332 0.9105976 -0.12616588 -0.43552843 0.3744209 -1.9514441 -0.67685705 -1.342911
2341 0.5005283 0.40279233 -1.680296 -0.78720325 -1.2862628 0.28450933 0.38552403 1.303719 0.26960146 0.38477618 0.906643 -0.2896782 -0.36530387 0.5727241 0.3044228 0.7129583 -0.5069519 -2.1137223 0.19674206 -0.5295689
2706 0.48185182 -0.9721835 -0.18659131 0.31895727 -0.107284345 -1.0274882 -0.56842226 1.2314135 -0.6191228 1.1141113 0.59236103 0.36124665 1.5874 -0.27213052 -0.9370067 1.4955257 1.4721881 -0.84881413 -0.79204434 -1.4611294
1641 0.201968 2.205867 0.722412 -0.19905563 -0.51594007 -1.7128171 0.45363873 -0.08719526 0.31131214 0.34526974 0.9334633 -0.39190528 -0.45488626 -0.43765488 0.4857474 0.3805829 0.22143888 -0.96567535 -1.6956555 -1.1121804
4554 -0.035412516 -0.2631802 -0.63550067 0.14440277 0.022249402 -0.6205777 -0.15807512 0.89512396 0.17264873 2.1035314 0.0878057 0.0015203085 0.84128076 1.2365075 1.0938215 -0.2946626 1.2486941 -1.8977522 -0.73078555 -1.018989
1665 0.9723709 -0.030044572 0.2907929 0.79606634 -0.1800147 -0.78930765 -1.9136426 0.5081756 -0.27787045 -0.29161933 0.5774173 -0.91709703 -1.2347666 0.4001228 -0.2276621 1.4714682 -1.0941719 -1.2914692 -0.49089873 -1.2530636
2031 0.27072307 -0.046489187 0.10307723 -0.82581455 0.11557539 -1.3079336 -0.07266509 0.19862606 1.6590004 0.45872277 0.74054545 -2.3260846 -0.09819598 0.7216814 -0.6010476 0.7612983 0.95776534 -0.7146549 -0.18226358 0.25789157
557 -0.45576298 2.2716017 0.70195514 -0.08105504 -0.38698238 -1.4423448 0.47527242 0.074828096 0.6019241 0.7436224 0.57023555 -0.84605557 -0.47176495 -0.2903769 0.9640421 0.6200797 0.1991903 -0.88325816 -1.8319273 -1.078136
1539 0.9799684 0.03430596 -0.00027107415 -0.25822136 -2.2653637 -0.8017088 -0.17053418 0.4203275 1.6239029 -0.75635993 0.524843 -0.023570428 -0.719157 -0.40178582 1.2014856 2.0756712 1.0372058 -0.4102359 -1.1174809 -0.1488144
1977 -0.8805532 0.25258374 0.4107183 -0.6472256 0.5853917 -0.6776025 -0.61368364 1.5216804 0.11263944 1.0583487 0.26617825 -0.79351884 1.2880431 -0.879335 -0.44414827 1.4414668 0.98951733 -1.5416465 -1.8610846 -0.47583553
2618 -0.3317719 0.40306064 0.025783082 0.2700997 -0.27535042 0.5622177 -0.2601299 1.958227 0.17277454 0.575828 0.8783809 -0.1424811 1.5050335 -0.682598 -0.6917356 1.390998 0.9222228 -0.63365835 -0.59499794 -2.1045961
4007 -0.87373924 0.294359 0.4929623 -0.61046046 0.21067558 -0.38087043 -0.056563716 2.5273054 1.6388265 -0.75766265 -0.08819521 0.35275838 -0.57195324 1.5171363 -0.082756855 1.5425248 1.0839677 -1.487991 -0.25451443 -0.63942
4849 -0.04520579 0.6680942 -0.19957452 -0.44540113 0.23576318 -0.88501126 0.13241148 2.346424 0.9283517 0.1665943 -0.5221367 0.05608789 -0.35132682 1.8493998 0.77956367 1.40993 -0.31321022 -0.56373894 0.14759469 -2.4561148
3211 0.282275 1.775226 -0.6043862 1.3126042 -1.181808 0.94276327 0.7668348 0.48173565 0.93541217 0.016356183 0.30212513 -0.850384 -1.2409843 0.54085964 -0.64312524 1.1503296 0.085115224 -1.6038845 -1.5919265 -1.0019974
1366 1.2409463 0.8382459 -0.91300803 0.21074562 -0.0021735537 -1.1509783 0.20688114 0.15724485 2.1180465 1.3978173 0.7223176 -0.15622383 1.12955 0.7170546 -0.5009895 0.81280893 0.31372923 -1.0125877 0.10569319 0.3270046
4257 -0.0048922896 0.44886428 0.21151921 0.5258434 -0.08556293 0.62462574 -0.28434703 1.8909792 0.24282973 0.8680624 1.6173767 0.16723484 1.5366914 0.01935616 -0.32799613 1.3059613 0.9404328 -0.5782751 -0.3975861 -2.02774
1458 0.06453933 0.88085073 -0.35985768 0.4781206 -0.7935875 -0.2741473 -0.6015154 0.3903126 -0.07725574 1.745438 0.036809135 0.37362942 0.3065344 1.8861364 1.1640956 0.18909605 0.3315821 -0.82747835 -1.0255345 -1.0481495
1611 -0.7208185 -0.21169205 0.67404675 -0.6094344 0.91778976 -0.62037426 -0.66496027 0.8158017 0.6932692 1.2773476 0.12705405 -0.329347 0.7926232 -0.66215765 -0.6710914 1.3707911 1.3554108 -1.4290693 -2.0079474 -1.1775658
538 1.5443376 0.13741921 -0.5111354 0.46619287 -0.18598714 -0.34464654 -0.9300631 -0.0512789 0.71750695 -0.19610122 1.2528216 -0.09104687 1.1677872 1.1633126 -0.15701579 0.3195133 1.459581 -0.7234976 -1.5496737 0.032708704
709 0.8301904 -0.2985992 0.57828194 0.02691955 -0.60064226 -1.578498 0.2216602 0.26689917 1.1185318 0.4506987 0.053161133 -2.1961005 0.48659867 0.14161728 -0.6569163 0.5523866 0.65767133 -1.6459496 0.00078873767 0.24306054
13 0.011774553 2.105849 0.88807195 0.22016755 -0.90476435 -1.373204 0.42941737 0.25376472 0.20008099 0.35860756 0.9530105 -0.6904796 -0.5359297 -0.33795705 0.6423566 0.16613665 0.41776112 -1.0738558 -1.5984545 -0.7407122
1610 0.73964095 0.5795893 -0.41281146 0.06961151 0.036874015 -0.6112561 -1.5615957 -0.27010837 0.6134089 0.51680386 0.6933699 -1.4368829 0.2221008 1.676516 -1.1960162 0.7846803 0.25484067 -0.6665549 0.6560691 -0.60998446
3374 0.87623715 0.19617583 -0.006613031 0.13628864 -0.6603483 -0.5392214 -1.1642963 0.79133993 0.3188687 1.1534779 -0.48027125 0.6582423 0.52545774 0.99412996 1.2896247 -0.33709309 0.91859496 -2.245861 -0.5677451 -0.9910701
2297 -1.2327402 0.2756368 -0.8419082 1.5058622 -0.7301582 -0.7868265 -1.4999961 -0.094298966 0.67754805 0.2912792 -0.14865495 -0.22724609 -0.516827 0.3142286 -0.43488017 1.9581538 0.98431176 -0.10551624 -0.95855904 -1.2723643
4646 -0.1476724 0.59434307 0.79384214 -0.9170231 0.07319222 -0.17601311 -0.3371445 1.1598772 1.1238445 0.31161246 -0.58523184 -0.48930678 -0.9542399 2.3683076 0.6837061 1.6518099 0.3893936 -0.47452354 -0.60068107 -1.6135739
4663 -0.37538153 0.8311587 0.2689897 -0.2217412 -0.7781971 -0.4721552 -0.16463643 1.7612176 -0.23883751 1.350916 0.28641334 0.019464068 0.3485281 -0.5269845 -0.7126133 1.9557948 2.0848477 -0.09448268 -0.5620307 -1.2831562
3892 0.69986093 -0.5108152 0.21469896 -0.21299991 -1.6459842 -0.19434334 -1.1084127 0.6342151 1.0294452 1.2515627 0.8342314 0.5041412 0.20980842 0.9850397 0.18844335 -0.42776337 0.8882657 -2.070295 -0.3588394 -0.59710354
2093 0.48377603 0.5180563 -0.88082844 0.10670202 -1.6604489 -0.70591104 -1.010067 0.29417473 1.3965763 0.70267844 -0.14618757 1.2945112 0.5887143 0.76797587 0.6965679 -0.016257683 1.0924796 -1.6227366 -0.6070496 -0.28432745
914 -0.6202412 0.9150345 -0.53326833 1.2762141 -1.1301991 -0.57875276 -1.1847926 -0.89011353 0.89420587 0.56043196 -0.21582189 -0.4381248 -0.10457969 0.87195814 -0.34118068 2.3181808 0.60942924 -0.12069314 -0.36853105 -0.9172832
2557 0.63000673 0.54392004 0.4800485 -1.0625353 -2.01251 -0.48970276 -0.8458965 0.7908898 1.8561655 -1.0386066 0.26463664 0.09197542 -1.0710037 -0.39048815 0.6094434 1.6603302 1.2506628 -0.84260744 -0.9265494 -0.24765205
3444 -0.6956147 0.9576318 -0.54695 0.42115688 -0.8358549 -1.2580503 -0.93978584 1.2025142 0.4328332 0.8769416 0.30829114 0.3627136 -0.73285824 0.2689542 -0.9339052 1.6217322 -1.2989262 -1.6347736 -0.6398778 -0.20336258
52 0.37228623 -0.16324238 -0.67238355 0.1271653 1.4088409 -0.9748784 0.19357535 0.23429315 0.04293714 0.19178304 2.1555068 -0.24244758 -0.100092925 0.08429238 1.5135056 1.5004358 0.47460237 -1.8338449 -0.31819376 -0.9368907
3632 0.27507818 0.19756806 -0.08912508 -0.32708326 -0.3613295 -0.4896244 0.6323242 1.5018395 1.1571506 -0.01403122 -1.0105487 -0.48542723 -0.97258186 1.2050496 0.15817402 1.6764768 1.047175 -0.81253386 0.99162817 -2.111411
3295 0.12348435 -0.15534903 -0.082354344 -0.22702526 -0.91675115 -1.2627065 -2.5902054 1.6425649 0.1600571 -0.21408568 0.31034735 0.031116424 -1.0946364 -0.22421151 0.028133951 1.2014478 -0.6306054 -1.7712004 -1.1190071 -0.5590812
3795 -0.37710726 0.8386266 -0.58250475 1.66529 -0.9590673 -0.49563512 -1.2632406 -0.18052597 0.42298386 0.563787 -0.0097672315 -0.5232442 -0.21922058 1.2243216 0.34297946 2.4007719 0.7485782 0.074270755 0.21483687 -1.0182866
2501 0.4540172 -0.29373008 -1.5426782 0.40492234 -0.10867293 -2.0223894 0.39654112 1.7033329 0.59795713 -0.87240154 1.103845 -0.06514091 -0.019172478 -0.6489552 -0.025288396 0.4269716 0.53245455 -0.5655378 -1.2154368 -1.5871304
1365 0.8025127 0.78977054 -0.05250685 0.65265584 -0.58692497 -0.23415838 -0.03830191 0.03362896 0.37795454 0.9342753 0.52490836 0.16873102 1.3541045 1.7119813 0.81968313 0.10283547 0.84689355 -2.452 0.25494042 -0.255302
3125 1.2255104 1.0218937 -0.25374746 0.09785162 1.3002468 -1.4607418 0.28773123 0.2516402 0.11951309 0.23754883 1.6370381 -1.164264 -0.35234293 -0.03473563 1.6829706 0.915221 0.78921586 -0.98800474 0.040446892 -1.3676572
3687 -1.2003726 -0.11946321 -0.9423843 1.2993158 -0.8475317 -0.318877 -0.8550894 -0.32576543 0.9104284 -0.018149778 0.49022758 -0.56761146 0.57379043 0.7297104 -0.98783857 2.384265 0.027830098 -0.40703788 -0.69860697 -1.1431504
3872 0.06933337 0.7721967 0.18884145 -0.21134521 -1.2887882 -1.0490019 -1.2901095 1.6431526 0.16219248 -0.5164631 0.59045774 0.65522206 -0.27301782 0.6256241 -0.47940952 1.5421201 -1.0836223 -1.9733592 -1.3360338 0.25408018
828 0.022261716 0.5623429 -0.8937047 -0.27752128 -1.4871479 -0.8714392 -0.8327792 0.05675416 1.6184502 0.83295774 0.20297854 1.0556886 0.74382794 0.6155983 0.81117684 -0.008710595 0.9169064 -1.8418344 -0.22858557 -0.28959835
2302 -0.14339116 -0.4696625 0.022381796 -0.20160805 -1.5263603 -0.19026953 -0.48913717 1.7228293 0.4855574 1.8717798 0.3214822 -1.1996185 0.10678091 -1.0884408 -0.4305292 1.3267422 1.4976845 -0.5537666 -0.19875751 -0.97559464
545 -0.50346947 0.22101027 -0.72398055 -0.21040826 0.99278206 -1.0761857 1.0673542 -0.30352825 0.20316273 0.51386696 1.2616029 -1.1731539 -1.0925848 0.13427792 0.70409095 0.86356974 1.067852 -1.5513419 -1.1888993 -1.8100793
2242 1.7814555 0.61565137 0.28262877 0.0041213892 -1.4562945 0.69110423 -1.335865 0.5534024 1.5852778 0.17503883 -0.0024641207 -0.57788086 0.82411724 0.6272879 0.23315193 0.66823715 0.68492144 -0.6485187 -1.972197 -0.1425719
4031 -0.5613038 -0.013763019 0.604561 -0.73896337 0.37215 -0.83007705 -0.5900018 1.3645287 0.30212358 1.2164766 0.18818004 -0.4612943 0.88843316 -0.9554715 -0.66384757 1.517618 1.5717773 -1.5240453 -1.7479085 -0.16395013
871 -0.41219062 0.86483836 -0.75738996 1.2614088 0.2580318 -0.95282096 -2.0249753 0.7083796 0.88482744 0.9034004 0.5515073 -0.4718673 -0.61058563 0.33435833 0.65101653 1.810958 0.78478545 0.6662294 -0.60362774 -0.7359146
379 1.5065325 0.30389124 -0.40822473 -1.1912153 0.65362453 -1.7666557 0.082527265 -0.22352272 1.471119 0.4989666 -0.5794804 -0.26300168 1.0735555 0.92742956 -0.16627882 1.4014469 0.18464448 -1.5488201 -1.265555 0.008116162
4091 -0.4257824 -0.14089358 -0.67347044 1.141738 0.04151961 -0.7249945 -1.6619123 -0.07692631 1.4802036 0.38926533 -0.0554547 -0.76137114 -1.2663133 0.7464817 -0.20994079 2.2089148 0.24295996 0.13427274 -0.92610276 -1.1785785
1799 1.8446419 0.29007316 -0.52784616 -1.1411363 0.6497387 -1.4111841 0.121270984 -0.05780934 0.8178883 0.20533656 -0.5583458 -0.8204975 0.6791669 1.0994893 -0.37348425 1.2825041 0.21111219 -1.9559525 -1.1743114 0.35541496
4762 -0.23514774 0.22189213 0.08164954 0.053819843 -1.8726208 -0.6522267 -1.2882135 0.37141162 0.3248044 0.6673834 -0.059310716 0.17092769 1.0432917 0.6278118 0.75860983 -0.3220545 1.2340181 -1.7503828 -0.2175033 -1.3684609
4139 -0.15042701 -0.3301141 -0.30541778 1.3065434 -0.48137128 -0.5173157 -1.4784434 1.4399416 0.7389334 -0.014298663 1.0734915 -0.57355 -0.50348395 -0.5278308 -0.2229958 2.1808088 -1.0336131 -1.5853103 -0.1370876 -0.024612522
2166 -0.07802965 -0.378411 -1.4847217 0.5792922 -0.170155 -2.1344342 0.36882067 0.8563337 -0.039279405 -1.1185209 0.712412 -1.1225736 -0.19090061 -0.68657506 0.41321403 0.23907188 1.0139469 -1.8529072 -1.060453 -0.96970254
2999 -0.27876568 0.08893894 -0.89870936 0.47197175 0.7102588 -2.004826 1.0329819 0.91691494 0.46692464 -0.8969958 0.7293358 -1.0480167 0.40572143 -0.0014589793 0.6921602 0.20938301 0.079188615 -2.0443094 -1.5513273 -0.94369
2592 0.63851094 0.011450045 -0.057155572 -0.68192816 -0.6195531 -1.0184225 -0.5288382 1.3391457 -0.30607918 1.515587 -0.18971089 -0.17284533 1.6763704 0.40752742 0.17507748 0.84556913 1.5947914 -0.042562984 -0.86589557 -1.769291
4520 0.06760003 -0.38101906 -0.2764349 1.3390725 -0.91881746 -0.22066934 -1.4852203 0.96598715 -0.041612342 -0.12788634 0.91629773 -0.7965945 -1.5422771 -0.53498054 -0.73918605 2.2162597 -0.14805171 -1.2173132 -0.3386563 -0.9100391
1308 0.17284738 1.0394315 -0.17122802 0.48081803 -0.59731805 -1.1849663 -1.0728643 0.5427805 -0.13229251 -0.8045587 -0.6685414 -1.9910185 0.9628898 0.46535516 -0.53810626 0.6751884 0.8958742 -1.5186168 -0.2745635 0.44571817
4079 -0.0061601456 -0.32085884 -0.6033679 1.2865005 -0.63147277 -0.8355653 -1.5995175 1.245793 0.764687 -0.14155914 1.1006912 -0.35422143 -0.6271943 -0.28463084 -0.29635364 1.8832183 -1.138816 -1.759835 -0.51905215 0.11685124
1633 -0.36569208 0.69531584 -0.30896997 0.84164214 -0.8203318 -1.8499924 -1.1002184 1.1835773 0.013868695 0.913084 0.29323766 0.41585624 -1.3359624 0.15956609 -0.87874943 1.4578129 -0.8464539 -1.5701851 -0.6046201 -0.19094744
4890 0.6458779 -0.038821843 0.53045505 -0.28667524 -0.45665208 -1.0833846 0.21811181 0.2188415 2.2565117 -0.3406009 -0.019884164 -1.6188847 0.010207404 0.3715502 -0.17604418 0.6435959 1.9234526 -0.90962064 -0.08405115 0.14306068
3128 1.6507193 0.4574991 -0.3468389 0.9896281 -1.0377942 1.2178042 -1.1128148 1.127887 2.0080347 0.91079485 0.19994631 0.18737176 -0.27315435 -0.52314097 0.8155486 1.1883079 0.5971329 -1.0888044 -1.4033018 -0.31246576
2720 0.17755464 0.7393424 0.18058866 0.25176027 -0.25368077 0.52194643 0.054637298 2.0801356 0.25178394 0.86611116 1.6225803 0.2523104 1.1670517 -0.18701805 -0.7230208 1.2454244 1.0178868 -0.5408013 -0.4097655 -1.7432276
1975 0.7499385 0.36298198 -1.313043 -0.25103593 0.11659779 -1.988517 0.46414566 1.2280777 0.8272508 -0.7978687 -0.3084147 -0.16057043 -0.62691975 -0.2947164 0.21103224 -0.11500359 -0.040865667 -1.3110585 -1.2168796 -1.7642844
2050 0.3591283 -0.123209655 -1.1984494 0.7972266 -0.057193335 -2.4075913 -0.1332365 0.6499428 -0.23331875 -0.8621848 1.2025104 -0.022130083 -0.496748 -0.0056036324 0.94543594 0.055562995 0.88566595 -2.004277 -0.9571118 -0.8171134
967 1.6545146 0.48551178 -0.07175514 0.24993981 0.6182661 0.09193141 -0.894702 0.13799432 0.93165946 0.47445503 1.3682355 0.048481207 0.805052 1.1455541 -0.26023826 0.07501909 1.3998784 -0.6966148 -1.6642215 -0.5832767
4490 1.4094374 -0.08216706 0.73314965 0.10794277 -0.77797586 -1.3679897 0.30128968 0.15336548 0.6540991 -0.3393522 -0.29425836 -1.7057551 0.6782725 0.47973374 -0.97082704 0.88841456 1.0942689 -1.6845489 -0.26731223 0.3776519
608 0.21659546 0.36264822 -0.520849 0.41612807 -1.1429063 1.104948 -0.34071904 1.5171523 0.55472827 1.5801637 0.17472935 0.84099776 -0.07440105 0.33496943 0.23585492 0.61293125 1.5402949 -0.9305877 -1.0044914 -0.9345604
2848 0.5389865 0.17174718 -0.5384885 -0.090889186 -1.8036876 -0.4549003 -1.1626168 0.17137256 1.5541403 0.93995076 0.66971177 1.1202828 0.18001907 0.9046434 0.49941692 -0.23201472 1.0342818 -1.8781843 -0.485096 -0.5879621
2554 0.38113338 1.5979006 -0.8786576 1.1342655 -1.0034235 0.8002385 0.73961526 0.5294014 0.9979556 -0.14200127 0.052727833 -0.48898932 -1.4426402 0.47831288 -0.46345356 1.0911562 0.1592472 -1.2975546 -1.7865558 -1.16991
4060 0.32552293 0.28535545 -0.40030494 0.14851934 1.4519769 -0.20087695 0.47399873 -0.22399443 -0.02261933 -0.43941247 1.1297821 -1.0591835 -0.50587493 0.12507582 0.9614254 1.1241951 0.30953968 -1.9258486 -1.1990769 -1.3662571
3927 0.28741375 -0.42380562 -0.6956707 1.2909497 -0.48831305 -0.55338496 -1.3099287 1.1687051 0.737325 -0.17088051 1.3223455 -0.3110278 -0.8064773 -0.15642746 -0.4417663 2.095602 -0.88124526 -1.6177227 0.42027572 -0.30899954
2671 -0.11785051 0.4900151 0.3395569 -0.55544 0.03875046 -0.520956 0.2585385 1.2365929 0.8267917 0.95832753 -0.88817495 -0.04704076 -0.7441697 1.9516097 0.42129087 1.5389628 0.21952319 -0.5084629 -0.19641516 -2.1275542
4143 0.53671396 0.7669036 0.036684085 -1.8210315 -1.9245584 -0.549163 -0.79431975 0.60294694 1.8729396 -0.16013096 0.4619721 0.28414142 -1.6421365 0.023796799 0.21213849 2.1690269 1.3362128 -0.5136141 -1.5300161 -0.5040283
2076 0.23465662 0.9078155 -0.71486235 1.017003 -0.58956134 -0.7688779 -1.4531423 -0.8847044 1.1077715 -0.08437412 0.6081755 -0.34087846 -0.08985697 1.5021628 0.22457619 2.9191234 -0.25209448 -0.18436816 -0.65438503 -0.2934481
3699 -0.39122778 2.2125905 0.6371962 0.77731514 -0.6431191 -1.74812 0.2717984 0.6597088 0.4452258 0.8260514 0.957392 -0.44932964 -0.73425895 -0.6296676 0.9672528 0.48880094 0.36958152 -0.8304274 -1.6835159 -0.61067444
548 0.24373025 -0.4545246 -0.25121495 -0.24113531 0.43888775 -1.3347938 -1.0324563 0.779572 -0.68620205 1.9341164 -0.36867568 0.044932768 0.7553051 -0.49874073 -0.41361314 1.5988916 1.1360706 -1.137347 -1.6090605 -1.0824674
2588 -0.09480384 0.8379343 0.2322469 -0.04191561 -1.0793908 -1.3353301 -1.1342833 1.2364786 -0.26709238 0.17623599 0.7522455 0.26138982 0.19364034 0.7767587 -0.62382597 1.7145213 -1.592729 -1.6649734 -0.43780398 -0.5604949
286 0.383711 1.7731074 -0.48784465 1.4064655 -1.091569 1.1300883 0.5688468 0.3935708 0.95104355 0.22509369 0.5889593 -1.125776 -1.2004672 0.5708984 -0.6639839 1.0398265 0.005053535 -1.6924989 -1.4655029 -0.9879894
2273 0.41571832 1.9588912 0.6500674 0.7966717 -0.9873668 -0.83190936 1.2230852 -0.10177804 0.949038 0.69303143 0.81425357 -0.7771008 -0.6156687 -0.12166197 -0.028981026 0.5117734 0.18830943 -0.6547273 -1.5043212 -1.5266682
1028 -0.29615757 0.35134822 -1.4547464 1.086295 0.057086673 -0.35891208 -1.8754805 0.8925538 1.066437 0.77550167 0.34685677 -0.16232854 -1.0753369 0.35043138 0.2209161 2.3903034 0.22998466 -0.100065276 0.18563576 -0.840233
338 0.31747124 -0.44008514 -0.7294451 0.093493186 1.1604999 -1.2106029 -0.10086517 0.23436525 0.031126862 0.014282427 2.0090146 -1.4123194 0.1805185 0.06620011 1.8524936 1.0030556 0.65563923 -1.6228385 -0.5695748 -0.84758943
3468 0.4792031 -0.37417626 -0.65852696 0.30034348 0.40138382 -1.546595 0.53994256 -0.052649435 -0.03013147 -0.67980945 1.0250322 0.54713976 -0.6093174 0.11430481 1.3381559 1.158286 0.37104878 -2.1449914 -1.1072509 -0.96827084
4165 1.2637273 0.29411477 -0.6382649 -0.56230474 0.5182583 -1.07688 -0.043184772 0.49919385 1.7674994 1.4636343 0.6274881 -1.7221041 0.26085168 0.3120057 -0.68074757 0.6659879 0.68005055 -0.5525833 0.10973458 -0.041521408
749 -0.5292619 1.1913238 -0.15380709 -0.30853498 -0.8940837 -0.9295959 -1.5820324 1.2383535 -0.2085879 -0.43174154 0.2237856 0.4489044 0.39353907 0.08943819 -0.41964725 2.1228645 -1.3451108 -2.0463758 -0.8532379 -0.6938628
2744 1.6241217 1.3622123 -0.17228168 0.42997348 0.105552964 -0.08882194 -0.49800435 0.21247095 0.97378415 -0.27443093 1.3689862 -0.14976443 0.8481738 1.172738 -0.50743145 0.2754335 0.9967756 -0.3096078 -1.6986271 -0.6728587
3887 -0.82338864 -0.2603291 -0.05266044 0.13946095 -1.6139808 -0.14230545 0.8295178 1.4780334 0.36593246 1.3033895 0.27843493 -0.060188394 1.2801234 0.34651998 -0.18043017 1.3525803 1.6953521 -0.8369525 -0.47284028 -0.6919655
2325 2.2096937 1.1519707 -0.82171226 0.5364626 -0.37198877 -0.45709896 -0.64092785 -0.060607746 1.2836884 -0.1495953 1.0357486 -0.36963588 1.0913382 0.9598875 -0.2518104 -0.0044919765 1.1177022 -0.43729597 -1.3442947 -0.630001
295 1.6474438 0.15089914 0.17824717 0.007613008 -0.9752306 -1.6619143 -0.51935464 0.29344344 1.1115767 -0.07425201 0.48242554 -1.7655498 0.30680683 -0.1649368 -0.31592077 0.33482626 1.0254147 -1.2830762 0.43081975 0.3671613
3787 -0.54253006 0.6047837 -0.60831094 0.754911 -0.89554226 -1.2673689 -1.8238189 1.3633131 0.16093409 0.11724416 0.44933808 -0.91748685 -1.1055771 0.22515665 -0.23090315 1.4111474 -0.5478688 -1.7861744 -0.08262117 0.45993167
2622 0.7787648 0.22158475 -0.74009395 0.8223548 -0.5276399 -1.172828 -1.2734501 0.8847009 0.086158395 0.13385202 0.121087715 -0.023128383 -0.81843317 -0.09718585 -1.0332235 2.3836124 -0.82144827 -1.3601607 0.7707684 -0.88078785
1709 -0.07091866 0.0755662 -0.87741274 0.04950907 -1.1067207 -0.30798224 -0.7221223 1.2731763 -0.5551704 1.3160825 0.63265306 -0.5626823 0.50529915 1.7968841 0.67716545 -0.32057968 0.4182691 -2.1865587 0.061993837 -0.7237885
563 0.21885905 -0.29356408 -0.29855412 1.0550776 -0.7245332 -0.37661064 -1.4221013 1.3154901 0.050748583 0.55014646 0.34187123 -0.77439064 -1.0447062 -0.42969155 -0.96249807 1.75057 -0.7433405 -1.9284257 -0.48285612 -0.024141062
3190 0.85568696 0.81789863 -0.5240302 0.20187435 -1.3441778 -0.19459866 -1.5573841 -0.2376008 0.5918127 0.8481159 0.3795198 1.0466843 0.9275418 0.5749689 0.6188686 0.39681393 1.3436561 -1.4635997 0.044004902 -0.71555156
2698 0.054325867 0.14410943 -0.62128055 0.962425 0.41509318 -0.55723184 -1.8931429 -0.06239617 1.5538018 0.49180675 0.33391148 -0.5511982 -1.0943673 0.67039806 -0.14304416 2.4682157 -0.14929618 0.0492205 -0.4812791 -1.240213
4881 -0.36178905 0.07293887 0.1948367 0.42976227 -1.4680827 -0.37349007 0.24431103 1.4748657 0.3930844 1.3247105 -0.27454314 -0.08928931 2.2503388 0.1933872 0.35550007 1.3789693 1.304716 -0.6751164 -0.4907711 -1.0981789
4617 0.19834542 -0.4007133 -0.36829126 0.6870588 -1.7123427 -0.70822597 -0.27132994 0.42795625 0.1587235 1.3951609 0.057141006 0.052065272 0.8912007 1.409983 -0.18844195 -0.25417078 1.0830753 -1.6337014 -0.22700319 -1.0229338
4082 -0.509927 -0.15662022 -1.0197757 -0.3316497 0.78279316 -1.2386442 0.16269699 0.4258553 -0.56387 -0.76018983 1.8988438 -0.3538324 0.2533602 0.75662 0.87254995 1.6140044 0.78323245 -1.8621413 0.11201705 -0.9727333
262 1.1397986 0.15847214 -0.3503642 -1.447852 -0.48699614 -1.3725823 0.6328892 0.02408224 0.70875794 0.47250575 -0.21008044 -0.6819763 0.6822622 1.8735621 -0.63789254 0.82047653 0.17429467 -2.007031 -0.51102275 0.13894455
2396 0.9745447 0.79832184 -0.41333774 -0.99708015 0.9496029 -1.3478135 -0.08462276 0.9705212 1.8037231 0.485646 0.8849455 -0.43855232 1.6931659 0.92319065 -0.4037653 0.7056874 0.42532143 -0.7196886 -0.30138817 -0.069573306
2753 -0.22208913 0.74122363 -0.08459006 0.16645761 -0.46185532 -1.1213398 -1.0512873 0.51059335 0.8998586 0.29421356 0.77077746 -0.20544799 -0.3785545 0.22611235 -0.21834671 2.6392305 -1.5795306 -1.4966316 -0.09114596 0.19848427
1262 -0.50770026 0.02022505 0.386943 -0.5605525 0.8902058 -0.84134704 -0.8087497 1.4850036 0.4497668 1.3450179 0.3476085 -0.5059065 0.94973433 -1.208361 -0.57083005 1.2280054 0.89404607 -1.4509137 -1.9061713 -0.712696
1722 1.2554619 0.8940355 0.15095644 0.02864981 -0.14654218 -0.82656044 -1.1305629 -0.23249723 1.4821441 -0.6563377 0.06870942 -1.339423 0.4763296 -1.389164 -0.34188452 1.1033763 1.0419621 -1.8477646 0.71253544 -1.0074677
1082 1.5286489 0.42442 -1.2266133 -0.0060574263 -0.35410824 -0.35076416 -0.5170731 0.53927267 0.35982206 -0.918398 0.73996454 -0.92973965 0.68300205 1.5060211 -0.1614579 0.71852994 1.4489818 -0.022179324 -1.830985 -0.15051238
4387 0.5042057 0.55118144 -0.18353389 -0.37050465 0.5399563 -0.94693965 0.56598645 -0.4361063 -0.2948898 -0.26941895 1.327684 -0.40404248 -1.2016504 -0.13359821 1.1782331 1.6701522 0.41929016 -1.8127772 -1.3059646 -0.7065304
2741 -0.65335596 0.017049106 -0.9288467 1.616894 -0.3628997 -0.9185847 -1.275169 -0.1258846 1.2587299 0.65651417 -0.18942319 -0.40624857 -0.8704516 0.25308305 -0.25077567 2.0610747 0.63422734 0.16611527 -0.8514793 -1.317412
3143 1.99648 0.43879563 -0.1458283 -0.7285729 0.3470168 -0.74874955 0.18225214 0.61475855 0.84092474 -0.07145549 -0.35431936 -1.264599 -0.116450444 1.1094333 -0.2703138 1.5598624 0.9975883 -1.8597523 -0.26560077 1.0884532
2375 1.0753299 -0.29162055 -0.5518739 0.6343015 -0.5700839 -1.116149 0.42172575 0.66784626 0.50921375 -0.9385397 0.91582733 -0.43636724 -0.040633034 -0.6590335 0.774627 -0.49425542 0.5302002 -2.1184642 -0.685217 -2.2920814
4405 1.6051236 -0.1514944 -0.9083467 -0.15771058 -0.6231052 -1.2647247 0.2072971 -0.39005777 1.2361377 -0.3819725 0.23454252 -1.6097931 1.298191 0.56276405 -0.42838112 0.63214713 1.5845002 -1.0312988 -0.8634307 0.21144457
3966 0.025005782 -0.6836184 -1.5970925 0.97999 0.0686778 -1.5703269 0.3894939 1.5251335 -0.06251883 -0.9789592 1.4529245 0.043021474 0.12378423 0.3575248 0.27566144 0.5521353 0.65591586 -1.6405159 -0.9255369 -0.7724398
1818 1.0843183 0.57117975 -0.06649278 -0.6500147 0.35979375 -0.44285843 -0.7354069 0.379261 1.7375368 1.2959585 0.6398861 -1.6690027 -0.073515214 1.0665808 -1.218507 0.68765014 0.46065432 -0.48816758 0.37883028 -0.34599942
3089 0.23882568 0.26321614 -0.33337346 -0.6636292 -0.73559844 -1.4425112 -0.4897997 1.4011132 -0.21619803 1.1133258 0.09737915 0.14975148 1.0716302 -1.1206338 -0.5763374 1.733891 1.6905354 -0.16144204 -1.4307228 -0.9300222
458 -0.53506845 0.87271804 -1.272581 0.5588078 -0.32576537 -0.12014163 -1.4140933 0.96652037 0.77454877 0.28711602 0.03184325 0.14732969 0.12757033 1.1736053 -0.0018203274 2.7345595 -0.46120194 -0.30348846 -1.3199495 0.30089745
1828 0.06900876 -0.40969154 0.24999179 0.89419276 0.02519631 0.60988075 -0.6253879 1.7372859 0.16235805 1.0784193 1.2642728 -0.68028706 1.1693238 -0.40547925 -0.49883208 1.3662497 1.4072428 -0.46304113 -0.4566983 -2.0242712
515 0.87599313 1.3168759 0.03703437 -0.14018798 -0.1705654 -1.0357894 -0.83729494 -0.01964475 1.4883353 -0.081722714 0.3150295 -0.7089233 0.09378898 -1.741984 -0.18746872 0.5757214 0.58690584 -2.243847 0.50287896 -0.9603215
1389 1.6031622 1.1625081 -0.08993511 -0.021619339 -0.47534388 -0.26971263 0.18758811 -0.53876 0.826208 -0.28815204 1.442295 -0.53850967 1.5560021 1.0384314 -0.3300818 0.079759546 0.72137386 -1.441099 -0.7337554 -0.5272667
1110 0.43050802 0.15687484 0.4038583 0.72347146 -1.0552886 0.68438 -0.37591115 1.2740003 0.84059584 1.852438 -0.5130928 0.0828006 0.7817757 -0.08445301 -0.9325265 0.7679333 0.48799384 -1.3575234 -0.42630064 -1.299702
2813 0.25548816 -0.13594809 -0.93820155 0.24582222 0.0041963 -1.8427995 0.66193986 1.087454 0.6479685 -1.3805854 0.4162779 -1.3315915 0.03906107 -0.22889377 0.6697509 -0.101191275 0.15801574 -1.714305 -1.5248634 -1.2342999
2518 -0.21793497 -0.44535565 0.9504016 0.26450822 -1.2304102 -0.6737766 0.06542079 1.0216098 1.4298568 -0.81702137 -0.91304314 -0.47190076 -1.0660214 0.3064044 1.3689157 1.6019349 0.7709645 -0.78022754 -0.59655875 -1.2542139
2948 0.6806651 2.0387483 0.15920097 0.9585603 -1.320899 0.14899759 0.98562884 0.44011056 1.0156126 0.9223357 0.30594444 -0.60837877 -1.4408629 -0.07036403 -0.24965031 1.2950264 -0.046017624 -1.1036378 -1.7948159 -0.85271645
2440 0.47328308 -0.02473448 0.4321761 0.44871557 -1.2279359 -0.20026375 -0.68129003 1.3968029 0.41487914 1.7933515 -0.48686308 -0.113169126 0.55327 -0.029489022 -0.88951564 0.016632725 1.11404 -1.0760032 -0.42000172 -1.94661
751 1.438318 -0.4825942 0.281574 -0.8332859 0.24924536 -1.2778339 0.38295132 0.4722583 1.8878012 0.5541666 0.35520348 -1.2342372 0.98061246 0.85659003 0.042537592 1.3958453 0.4813139 -1.0296605 -0.121696725 0.33608
1033 -0.50572366 0.08936073 -1.5460619 0.04707332 -0.43024302 -0.77211285 0.91011 1.9430217 -0.1803107 -0.50592226 0.9078704 -0.561249 0.24991272 -0.32112733 1.0012017 0.64058226 -0.18122001 -1.7506709 -1.005863 -1.0820354
1248 0.3278399 0.82535756 -0.62790906 -0.2604669 -1.1615489 -1.2003753 -0.5489678 -0.02763149 1.4519799 1.0375367 -0.09198428 0.81033605 1.0154121 0.9826449 0.643737 -0.044057094 0.953634 -1.8152299 -0.21454038 -0.12242214
1249 0.053526632 0.5882478 -0.38261327 -0.46996936 0.82907295 -1.4598038 0.81637186 -0.008077454 -0.15102887 0.32833937 1.4185587 -1.5419292 -0.8897725 0.37322518 1.425598 1.0325595 1.1584175 -0.7424878 -1.2436897 -1.2093954
148 -0.40126634 -0.16634466 -0.11316486 0.07477181 -1.2610501 -1.3268383 -2.5146036 1.4670221 0.13444023 -0.385417 0.0005524248 -0.53382874 -0.97959375 0.099409066 -0.26617178 1.0630829 -0.35193118 -1.6624632 -0.29334834 -0.56583035
29 0.48292702 0.38629156 -0.2896417 -0.2768588 -0.8940872 -1.1204928 -1.7656854 1.4003062 0.13064659 -0.23297586 0.011854296 0.27246255 -1.0840907 0.07891141 -0.31453872 1.4829557 -1.088783 -1.9767463 -0.9756886 -0.23069791
4090 0.08348939 1.6586515 -1.0451018 -0.59910166 -0.73757416 -0.4408813 -1.017135 1.2577095 0.78080475 -0.36805326 -1.9938599 -0.7756431 0.1662239 0.8508994 0.02679231 0.49782634 1.6158633 -1.3304538 -1.7043784 -0.68295515
1787 -0.62365407 0.7594526 -0.6044217 0.6854666 -0.7522211 -1.8607941 -0.89188963 0.97645324 0.36100835 0.609097 0.51050615 0.18384665 -0.96954423 0.19970733 -1.374923 1.508543 -0.8747625 -1.5377668 -0.3132854 -0.31965908
3744 0.30236536 0.6612479 -0.37348744 1.1872927 -0.6582373 -1.763704 -1.5260979 1.2411801 -0.7398725 0.7241379 0.47302246 -0.45418206 -0.5493159 1.3118888 -0.73942786 1.36854 -0.9976293 -1.7198865 0.35673478 -0.39109293
4420 0.64606553 0.41489786 -0.096052036 -0.8706787 1.1175687 -1.4420756 0.36477247 -0.2820335 -0.113543 0.050250016 1.326286 -1.7125982 -0.31408063 0.14846194 1.585168 1.0498254 1.3716764 -1.0994539 -1.0858612 -1.5207069
4057 -1.5290121 0.33101246 -0.4056977 1.3097036 -0.6225647 -0.60446554 -1.3402119 0.12454667 1.2917159 0.3912515 -0.1589349 -0.43366674 -0.32941484 0.7812453 -0.22863214 2.3858762 0.79450196 0.082162835 -0.9261312 -0.96999717
3090 -0.4398551 0.006890206 0.7655314 -0.62759495 0.39934304 -0.3136772 -0.8016151 1.0149406 0.61073226 1.1865313 0.17343959 -0.053692352 0.8337647 -0.90856224 -0.71909165 1.7235568 1.8160572 -1.376065 -1.9046102 -0.45001036
3134 0.33315817 0.5564939 0.21832712 0.20635383 -0.92161155 0.21502809 -0.21650684 2.516395 0.14537898 0.786758 -0.12190076 -0.55106366 1.7574573 -0.5902863 -0.20654352 0.95600754 0.85553455 -0.73430544 -0.4973283 -1.5259538
3104 0.8931333 0.24850231 -0.15445481 -0.93553674 -1.9798627 -0.6267369 -0.3079288 0.62944376 1.5309695 -0.70480406 0.5722305 0.046643198 -0.8340595 -0.31297863 1.1256837 2.4550061 1.1917654 -0.35926768 -0.9075409 -0.13626467
4125 1.1660253 -0.12299014 0.16685727 -0.1690523 -1.574761 0.6045361 -1.0838314 0.5669321 -0.040715046 0.83104694 0.13743345 0.2690938 0.8693482 0.39736077 0.37330967 0.14808688 0.6487077 -1.7935102 -0.58337206 -1.616955
409 -0.42681816 0.69358265 -1.6854224 -0.74042803 -0.8919818 -0.07766438 0.75749785 1.9027476 0.07786507 -0.28492513 1.1649557 -0.67724574 -0.8715247 1.030928 0.116467 0.95802504 0.062356316 -2.0611908 -0.25695986 0.010651327
3733 1.1704342 0.60906285 0.23081662 1.2131916 -1.3198606 -0.046839118 -0.33892858 0.42607382 -0.35015756 1.2499897 0.5659162 -0.004005486 0.1417051 1.0356667 -0.09877341 -0.32114074 1.6523534 -1.3785506 -1.22094 -0.58915925
4551 0.8597828 0.4607827 -0.514415 0.15059382 0.12550971 -0.28240865 0.12112623 -0.21795297 2.2612028 0.07406673 1.0457356 -1.3863454 0.46158528 0.40905595 -1.0625709 0.03493315 0.8560743 -0.68243796 -0.8296224 -0.5029292
48 0.05973888 0.59844273 0.93029207 -0.4680878 -0.11315327 -0.37033302 0.53571445 1.4847019 0.5428468 0.04864267 -0.978462 -1.1496843 -1.1106852 0.57623774 1.0863606 2.3971322 0.26002747 -0.6603993 0.013360912 -1.7053524
2192 0.3720281 0.39653614 0.045657426 -0.7094016 1.1262132 -1.2263012 0.54029995 0.0043136305 -0.14551595 -0.6430142 1.0577013 -1.5302793 -0.3587725 0.495685 1.3419492 1.1709129 0.5100103 -1.0493064 -2.0189633 -1.3306582
4753 0.9572318 0.2684089 -0.37066263 0.18486665 -0.87000394 -0.79733336 -1.9718323 1.3788959 -0.12939084 0.12565021 0.025354289 -0.24005426 -1.1015202 -0.18082324 -0.7298479 2.0788522 -1.2402685 -1.3322642 -1.0536395 -0.6204548
73 0.83525085 -0.5950511 0.70043355 0.18350528 -0.828534 -1.0548754 0.57543635 0.09085303 1.4321557 -0.010824171 0.15022022 -1.9019285 0.1686955 0.2607564 -0.877092 0.7057062 1.1647724 -1.523868 -0.26653102 0.20616105
2499 0.5832457 0.11386365 -1.2468752 0.12606363 0.03839114 -1.8670917 1.6690687 1.2271577 0.23293519 -0.1695062 0.8618617 -0.55424446 -0.029623933 -0.11516807 0.6125949 0.22766367 0.102678545 -1.1242715 -1.1818656 -1.5154301
520 0.6667078 0.79247314 0.15038277 0.14571247 -0.7157939 0.13439022 0.28677574 2.7349656 0.17516747 1.076708 0.5914741 -0.17716134 1.4244691 -0.68285114 0.00058871706 0.5553827 1.1741915 -0.81347954 -0.8181125 -1.2097389
559 1.2366096 0.9023163 0.16267197 -0.114078656 -0.8223676 -0.094529964 -0.8487443 0.145893 0.6119457 0.91084516 0.42735538 0.35669425 1.0216445 1.3950588 1.4523921 0.24296133 0.8181625 -2.0309982 0.119731165 -0.2783684
2164 0.63113993 -0.4171952 0.6756907 -0.13958257 -1.4852058 -0.60945565 -0.081600174 0.78917843 1.7041633 -0.6822111 -0.38771534 -0.28850847 -1.0771075 -0.060987778 1.6434228 1.5768185 0.8619165 -0.7210192 -0.5691481 -0.83611643
3183 -0.34344256 -0.06472511 -0.43276295 1.1007146 -0.50183743 -0.90439385 -1.2770052 1.5100169 0.16327628 0.022447167 0.49868008 -1.2379587 -1.0044558 -0.015992526 -1.4162112 1.5535187 -0.499107 -1.613774 0.09636607 -0.21329086
1513 -0.056016166 0.6953801 -0.24296509 -0.61829984 0.15086561 0.12608398 0.32781467 1.4007062 0.3166812 -0.8192165 -0.85507965 -0.24695273 -0.27033016 0.9015225 0.62842107 2.6727288 0.7813041 -0.8209403 0.2926087 -1.5299288
3230 -0.19778046 -0.1313656 -1.0909327 1.1212844 0.5119605 -2.2869794 0.7790649 1.2194188 0.3806827 -0.6603671 1.1086066 -0.19490907 -0.19580543 0.43773824 0.28391558 0.08722102 0.28402635 -1.7732216 -1.1756968 -0.79664636
2791 0.22706404 0.23844925 0.38707435 0.46852425 -0.5366709 -0.8144503 -2.3245559 1.3370043 0.28687766 -0.5712259 -0.13552216 0.1892731 -0.17782915 0.98804593 -0.60395336 1.3257179 -0.98393667 -2.049872 -0.7788045 -0.4281234
3007 -0.70349073 0.0715326 0.2782021 -0.11540282 -1.3751363 -0.1269448 0.9001282 1.4959098 0.18161266 1.2855593 0.08854508 -0.2938841 1.2908651 0.10227456 0.14966425 1.5319352 2.130037 -0.62621355 -1.181569 -0.76295775
45 -0.2706466 -0.96740085 -0.77255625 -0.45290518 0.08461873 -0.27816573 -0.20899393 1.2547673 -0.5063585 1.8375711 0.01318434 -0.1713777 0.42628416 0.13750456 -0.7946985 1.1514906 0.7901735 -1.7028002 -1.801108 -0.98212564
3301 0.70428413 0.5511149 -0.42139918 0.009440832 0.2955848 -0.9684764 -2.0255256 0.023410564 0.4903342 0.10908831 0.7282754 -0.7995205 0.07825324 1.5325178 -1.5701985 0.75067645 0.046283264 -0.770763 0.22800918 -0.57626414
360 -0.069543645 -0.08411267 -0.95853007 0.7848032 -0.72914815 -0.049681935 0.21666887 0.75642776 0.54999685 1.5698451 0.2640942 -0.09810875 1.3872436 0.6527225 0.7299321 -0.5653129 1.670299 -1.902131 -0.68952453 -1.1766396
3311 -0.23813549 0.42131764 0.5218299 0.0007746019 -0.62063783 0.11077449 0.19339627 1.8450725 -0.23413533 0.7381836 1.0361028 0.11483328 0.8146119 -0.49355617 -0.85829675 1.8023834 1.9187949 -0.7085709 -0.41665104 -1.4846776
234 -0.92475826 0.19660963 0.302026 -0.7254214 0.5302602 -0.9609444 -0.026439877 2.745904 0.53983533 -0.19314581 -0.2969821 -0.041287955 -1.3665441 1.1135533 -0.20998184 1.9388092 1.0565598 -1.6257193 0.37816557 -1.1868042
2761 0.38807008 1.5271258 0.33223948 0.32371664 -0.47323537 -0.65780324 -0.58207303 0.0973881 1.8730031 -0.24652977 0.6515085 -1.1419988 -0.2866784 -1.142865 0.54448825 0.05847214 1.4231031 -1.2694013 0.46589038 -0.89161843
4333 1.1494168 0.09202044 0.38865805 0.93949014 -0.7998464 -1.6210865 0.1357395 0.47080788 1.3661361 0.2424432 -0.19888334 -1.8822852 0.15691955 0.5286102 -0.6897004 0.49735054 1.0894538 -1.3070682 0.022457296 0.6243485
573 -0.37650084 0.4130068 -0.98899615 0.10545847 -1.0539392 -0.67248154 -1.2281482 0.29451558 0.9193576 0.9092598 -0.29415473 -0.07535505 0.9778301 1.1973501 1.1621909 -0.31838572 1.1904867 -1.8566308 0.14895882 -0.9782723
2457 0.13734362 0.48848435 -0.086421445 0.74150884 -0.87758166 0.6529239 0.14297064 2.0762577 1.020793 1.1468697 1.0714202 0.60872453 1.151684 0.10261786 -0.33599988 0.8600664 1.1669604 -0.59280986 -0.30622736 -1.4568257
2397 0.59803444 -0.05930994 0.30006793 -0.651005 -0.23658228 0.36149007 -0.02318399 1.8020986 0.7783215 -1.1579678 -0.8053511 -0.33134758 -0.5322751 0.9647122 0.6984508 2.1180053 0.89208895 -1.3457656 0.63635474 -1.4938631
679 1.2538755 0.59883416 -1.3396459 -0.15654409 -0.17516433 -1.554148 -0.60488254 -0.6771833 1.1826478 0.66133195 0.5323607 -0.74260825 0.6890061 0.9568509 -0.55848235 0.6288825 0.17759205 -1.5068983 -1.1259462 0.9185059
237 -0.49178597 0.30346 -0.26920334 0.0903941 -1.4481263 0.30899575 0.20689978 1.6130458 0.63432485 1.6819297 0.12911426 0.5753756 0.31037924 0.04101664 -1.1460254 0.9277788 1.7057406 -0.93364364 -0.8484366 -1.1970342
2766 -0.449332 -0.072433166 -0.6474708 -0.284102 -0.13919497 -0.8849712 0.98151696 1.4193356 0.2882387 0.18068206 -0.76080245 -0.23734775 -1.0842031 1.4034859 -0.14203954 2.0128818 0.39276615 -1.2797403 0.42514914 -2.032544
4298 0.7078112 0.33648664 -2.2353957 -0.6030965 -1.4003308 0.35037717 0.6656432 0.8917463 0.8618038 -0.015977357 0.51189476 -0.36814278 -0.18427521 -0.33344623 0.21806182 1.0469366 -0.4362429 -1.3448049 -0.9696529 -1.039974
2269 -0.3342126 0.3358146 0.28253764 -0.1807265 -0.89021116 -0.12216638 -0.09071774 1.4640312 -0.1849618 0.80824995 0.8527204 0.6079117 0.5104195 -0.8348518 -1.0168414 1.8107045 1.9289331 -0.6745967 -1.0347227 -1.6366603
4218 -0.97562885 0.1870563 -1.0211145 0.7682993 -0.9919752 -0.20781317 -2.1952662 0.078115724 0.8417945 -0.27687263 1.0075709 -0.81416917 -1.1714408 0.032849014 0.1466583 1.3732303 -0.1880196 -1.1743206 -0.2880449 -0.9905811
3364 0.7175982 0.060305793 0.49394584 -0.025261404 -0.6130075 -0.89735734 -0.76751626 -0.79085004 1.1374485 -0.4190082 -0.32073662 -2.4728425 -0.05273466 0.5776882 -0.6075974 0.6697825 1.5409834 -1.7457767 0.11013646 -0.49964625
857 0.7711698 0.5026117 -0.059574407 0.3151711 0.078268826 -0.48517898 -1.2923934 -0.73292077 1.5807105 -0.19614534 0.26339382 -2.582073 -0.2643969 0.5217398 -0.19695431 0.6962942 1.692054 -1.3628037 0.32699656 -0.38751173
2142 -0.059869096 0.06801719 -0.9913343 0.39735228 0.7301652 -2.092685 0.75364983 0.92248535 0.2862121 -0.68245536 0.6652472 -1.240009 0.01815172 0.6613882 1.1508491 0.13457212 -0.26391524 -1.4496928 -1.2085847 -1.465449
133 1.0296475 0.76026434 -0.15453707 -1.2351762 0.37208664 -1.834387 0.22764769 -0.010283241 1.8096209 0.0006245463 0.091441356 0.13644351 1.4157587 1.3099794 0.004135958 1.2542776 0.35414398 -1.1344782 -1.0355481 0.19897042
4450 -0.46223083 0.4908707 -0.3576501 1.4980233 -0.24943095 -0.49065086 -1.116712 0.20408013 0.07019959 -0.07439866 1.3472881 -0.7242492 -1.2266607 0.094111554 -1.568001 1.621788 0.6157875 -1.1878936 0.26459214 -1.3030851
1759 1.1288197 0.42432195 -0.87330157 0.17113097 -0.69191414 0.3006755 -0.3693 0.2540922 0.7735681 -1.258939 0.5493924 -1.0862612 0.26780593 1.563185 -0.07035168 0.73027724 1.579706 -0.09640122 -1.551775 -0.31415352
3570 1.5093867 0.6464964 0.74004036 1.1589705 -0.18397067 -0.23550121 -0.82033885 0.20518532 -0.056934863 1.0836906 0.8342335 -0.099445954 0.45865065 1.2427719 0.009290148 0.3857388 2.0774696 -0.6588441 -1.5449616 -0.4184448
2583 -0.31551537 0.7321257 -0.5309169 0.87084925 0.7235637 -0.94082874 -1.8399178 0.4514096 1.0211807 0.31100634 0.49645007 -1.0209427 -0.0896497 0.30220154 0.54211414 1.789842 0.6117188 0.7083045 -0.80670154 -0.8125789
3818 -0.12068893 0.32765394 -0.16892014 -0.5266271 0.21175218 -1.1913316 0.42032078 1.9443486 0.19822547 0.7589462 -1.061367 -0.54089123 -1.3152715 0.94076324 0.47942758 1.7504734 0.52149206 -1.2627782 0.73023987 -2.0203948
4841 -0.14523794 0.45690405 -0.011129811 0.13517736 -0.93412596 0.4119082 -0.40801919 2.192548 0.28351167 0.91972655 -0.11747032 -0.72742987 1.8527921 -0.13669641 -0.7569257 0.94645476 0.89969456 -0.63846254 -0.5414897 -1.6860241
3044 -1.0260594 -0.1146816 -1.0704522 1.2719547 -0.5022789 -0.6039897 -1.0953748 0.6966163 1.2114037 0.21740647 0.30913785 -0.90685236 -0.34557196 0.41903535 -0.47569013 2.390266 -0.82007664 -1.0299536 0.3842969 -0.54153544
3137 1.5608774 0.43039617 0.022709934 0.27045462 0.00610091 -1.5391271 -1.255464 -0.30134872 1.3080825 -0.16609856 0.31043148 -0.5594946 0.4503883 -1.3482602 0.16906722 0.45612988 0.22701544 -1.9825382 0.2806329 -0.8155912
3759 0.056096572 0.92605186 -0.21179904 0.47803664 -0.42435637 -0.14331649 1.6487154 0.514399 -0.13700485 0.057404153 0.8343351 -1.2838646 -1.0342553 0.9232402 1.2179651 0.759616 0.013637814 -1.3291444 -1.0698292 -1.814809
397 0.6105221 1.6568528 0.10740155 -0.05526878 -0.33031106 -0.7906788 -1.0112714 0.081123084 1.8283715 0.019296123 0.64456415 -0.86402255 -0.20803812 -1.6667904 0.2925582 0.1946466 0.67160404 -1.7944754 0.42514372 -1.10258
1926 0.026078766 -0.62762034 -0.5550183 0.7353801 -0.64267546 0.330846 -0.59097433 0.5868225 0.5734541 1.0201677 0.29445976 -0.67633843 1.1165628 1.0747701 0.65275717 -0.60908705 1.2512592 -2.378364 -0.4440106 -1.0262983
1165 -0.67037576 -0.6569094 -1.4846052 -0.15987837 0.73182625 -1.5828714 0.28853068 0.45781088 -0.0850305 -0.6042779 1.1267304 -0.7510472 -0.013849862 0.5845951 1.2459309 0.9272933 0.9975482 -1.6587857 -0.22250684 -1.2546247
2078 -0.3644162 0.81010836 0.068915196 -0.9417898 0.16141002 -0.24899112 0.6368429 1.1473947 0.18021022 0.093591265 -0.9974079 -0.42964086 -0.6244623 1.4226683 0.59249675 2.5943944 0.40049818 -1.0038688 0.04124761 -1.6360418
3760 0.11246401 1.338168 0.05514672 0.6172065 -0.07472033 -0.43628687 -0.22613746 1.0995502 0.20606908 -1.6919653 -0.36419362 -0.70796055 0.4450062 0.43033758 0.5636555 2.362731 1.0284494 -0.3333894 0.41628253 -0.9344658
339 0.4844399 2.4435015 0.37992728 -0.35851574 -0.3343014 -1.0397003 -0.22447672 -0.51214296 0.55303574 0.32789856 1.05118 -1.0284028 -0.60055774 -0.35546115 0.9524956 0.64249307 0.15186875 -0.35972187 -1.0835029 -1.4286858
733 0.4905659 1.3282528 -0.5578616 -0.3272812 -0.10089164 -0.005175082 -1.1201881 0.07916163 -0.09004902 1.2083021 0.5762254 -0.0815169 0.6809327 1.5820967 -0.267223 -0.17019942 1.4730293 -1.4658368 -0.37184283 -0.34621695
1008 0.74699247 0.18411252 -0.49183226 0.49819636 -0.6959933 -1.1419445 -1.7513803 1.2920709 -0.022726012 0.3006689 0.093087934 -0.88685226 -1.1831954 0.16964096 -0.5922966 1.6923467 -1.5433986 -1.2931926 -0.06205264 -1.2150046
4633 0.89291817 -0.49109566 0.26407292 0.6964209 -0.12046169 -0.94427395 0.54723966 0.40666837 1.9622328 0.8963297 0.52962214 -1.75811 0.26072836 1.2829607 -0.843216 0.8307985 0.53486586 -0.7660257 -0.7288489 0.33737653
2312 1.42527 0.5363787 0.044056434 0.26131997 0.7749115 -1.1701406 0.82034373 0.48606122 -0.47222942 -0.18145785 1.7124662 -1.1212285 -0.75897783 0.27146605 1.3731449 1.0636427 1.0841607 -0.7797215 -0.42599544 -1.5494721
3770 0.46573126 -0.2812458 -1.0994562 1.1364771 0.49574667 -2.134313 0.9086918 0.7774552 0.39770788 -0.29301566 0.82945913 0.49347875 -0.66057265 0.53543824 0.574494 0.060684577 0.7810571 -1.9591949 -0.99130887 -1.2680213
2590 0.23265989 0.15474531 -0.009853637 0.52480304 -1.5920465 -0.7929818 -0.5767511 0.55155694 -0.22120278 1.0274694 0.13850875 -0.009008892 1.4481772 1.1732961 0.72290593 0.16076958 0.98081595 -1.5219061 0.701451 -1.0174694
1990 0.7345072 0.23458391 0.5340792 -0.02513546 -0.7490763 -1.5772672 0.28124774 0.539449 0.86217016 0.1471021 -0.3746693 -1.8557609 0.49442267 0.29957464 -0.91704774 0.9355938 1.0558395 -1.7608877 -0.25087026 0.93684226
4297 0.7135508 1.1080194 0.18372138 0.13056868 -2.29922 -0.8945429 0.328545 0.5531454 1.3142092 -0.7881254 -0.042330682 -0.32741582 -1.0854423 -0.5270582 0.8910287 1.8417759 1.259008 -0.36587578 -0.67251045 -0.55683523
3958 -0.24994595 0.747393 -0.17049223 -0.0852877 0.76769954 -1.523374 1.0925103 -0.25328213 -0.036198385 0.51825947 1.2982191 -0.6318142 -1.0901506 0.039679397 0.604319 1.3506933 0.7096246 -0.77762663 -1.795242 -1.8003044
3988 -0.45993716 -1.0019015 -0.5370831 -0.7234666 0.58022 0.017487708 -0.07974649 1.3516368 0.45950076 1.7429404 0.7613533 -0.13533589 0.20256358 -0.28198114 -1.0434583 1.3628805 0.558445 -1.805904 -1.751294 -1.3364269
4152 0.9415879 -0.09069461 -1.2914525 0.24140422 -0.51249117 -1.3501366 1.5913484 1.0081455 -0.1564207 -0.122357264 0.98428637 -0.25796548 -0.26900348 0.017281748 0.775113 0.30735037 -0.013887251 -1.32907 -0.9261154 -1.80068
890 -0.4599374 -0.6355898 0.41458198 -0.79217553 0.019934377 -1.2402662 0.0063778707 1.3546591 0.7071539 0.88031924 0.1808209 0.16345635 1.1955892 -0.75110495 -0.634667 1.5882787 1.7397715 -1.0594376 -1.8492454 -0.3764231
4846 0.2828138 1.5166577 -0.89080054 -0.4168973 -0.5604071 -0.5153368 -0.7395004 1.271763 1.0258044 -0.40959978 -1.9042912 -0.35088423 -0.11412429 0.96740305 0.12027601 0.41710716 1.7834319 -1.2615615 -1.6391846 -0.46925035
934 0.8474716 -0.05621141 -0.02466525 0.74420345 -0.01946515 -0.9448047 -1.9826714 0.52203137 0.9321608 -0.5351246 0.6736746 -0.08639956 -0.41030565 1.6453273 -0.38898024 1.8854377 -0.9423525 -1.1804466 0.09689031 -0.31510547
3771 0.31775987 0.7330437 0.27649745 -0.41013515 -1.1973041 -0.9093957 -1.4378432 1.266691 -0.2714638 -0.25171307 0.3382064 0.26850864 -0.30311486 0.45721245 -0.4415203 1.7061161 -1.2845827 -2.042026 -1.0743726 -0.32028982
3081 0.7815731 0.13397571 -0.06593522 -0.74718004 -1.061027 -0.8654088 -0.7543998 1.3605807 -0.14941967 1.0358657 -0.31594145 0.010865169 1.125776 -0.41236702 -0.509081 1.3951101 1.5684952 0.07970083 -0.4704684 -1.7241737
1718 0.3916087 -0.46526915 -0.1730288 0.18475251 -1.9215859 -0.19619852 -0.9297557 0.705084 0.1892863 1.236592 0.8325475 -0.3401143 0.3976702 1.3598825 0.06087982 -0.6123426 0.42437744 -2.2879257 -0.42257318 -0.8652838
2270 -0.2840961 -0.29223135 -0.8824293 -0.0014578023 -0.98629177 -0.32857373 0.360292 1.1128393 0.08954984 1.9307264 0.7860784 0.280539 1.2369707 0.9591608 0.16772461 0.21217246 0.5185336 -1.9252614 -0.09953862 -0.5883568
1740 -0.5383677 -0.25525716 -1.3307124 0.9545359 -0.7841668 -0.88118714 -1.9665558 0.05972879 0.6140395 0.06551929 1.2764394 -0.74546593 -1.0864075 0.1739451 -0.12864137 1.8857983 -0.32161373 -0.81722707 -0.8933543 -0.25430578
4837 1.4272985 1.1454128 -0.40368906 0.45538026 -0.69041693 -0.41524887 -0.724792 0.17284182 1.3371155 -0.5310259 1.195158 -1.9368253 0.4416086 0.6104709 -0.0128124645 0.18074813 1.7141927 0.010360343 -1.0008937 -0.18951753
4727 1.1231997 0.047480535 -0.13452823 -0.8105608 0.8203733 -0.45251194 -0.08745456 0.6659684 1.7978073 1.1394345 1.0666384 -1.1001288 1.1344513 1.2908239 -0.90529615 0.9596006 0.16501111 -1.3190491 -0.10311735 -0.049304526
755 -0.21941212 1.9241878 0.7727626 0.36914846 -0.93782717 -1.3027493 0.85161924 0.03712248 0.7258588 0.8120177 0.55736333 -1.0494214 -0.6350246 -0.20270321 0.59321666 0.8079786 -0.14727257 -0.6738888 -1.7260193 -1.1993387
4505 1.7320747 -0.42790186 -0.24421002 -0.8682331 0.17920381 -1.1638204 0.18414459 0.31614652 1.9683688 0.6552419 0.24988045 -1.5066462 1.1094034 0.14095877 0.0822939 0.3829384 0.18329161 -1.5066137 -0.3184995 -0.3248691
4833 0.3357319 1.4160118 -0.1294951 0.074659884 0.002673831 -0.5264095 -1.9454933 -0.6508088 1.4360142 0.44463947 -0.02781853 -1.4948888 0.26000574 0.79564846 -0.40102845 1.5375395 0.46659425 0.021022141 0.45036718 -1.1334261
2930 0.1295295 0.73722726 -0.60335577 1.5592327 -0.24894686 -0.55431 -1.5685031 -0.48583496 0.89651024 0.14026058 0.15004714 -0.26779112 -0.5594165 1.55159 0.6408774 2.5059502 0.31359512 -0.3666393 -0.39524955 -0.16156709
2688 -0.44324255 0.4630287 -0.54134953 -0.95583016 0.01306242 -0.42746887 0.6802023 1.4569429 0.06222694 -0.20068675 -0.50537723 -0.63091063 -0.24907187 1.5011597 0.6816398 2.3415504 -0.08496889 -0.81349975 0.18994243 -1.9391389
1919 1.72753 0.123811685 -0.21916796 0.46527547 -1.4505504 1.0093298 -1.4878794 0.42024705 1.5319542 0.5974063 0.06389908 0.084796324 0.24050535 0.469918 0.5932629 0.8691255 0.96211785 -1.228208 -1.1929023 0.16098553
4105 0.68442065 2.0951545 0.49280256 0.6158879 -0.16488984 -1.4654603 -0.27623877 -0.46986842 0.16884932 0.26358786 0.5552676 -0.35178784 -0.76448005 -0.7804869 0.9460625 0.84463716 0.82730484 -0.6469518 -0.4163455 -1.1989274
686 0.22036368 0.070925206 0.09892893 0.6029433 -0.0013004142 0.6701689 -0.28072515 2.110835 0.47608075 0.760858 1.6068118 -0.112762205 1.0850917 -0.45124117 -0.3623385 1.4987173 1.3177192 -0.37574846 -0.3203066 -1.9626809
1638 0.4270447 1.765706 0.61883247 0.508745 -0.81348956 -0.72438514 0.84763825 -0.0852774 0.9022272 0.46724695 1.1183019 -1.0693148 -0.73281586 -0.12497893 0.28084478 0.18369855 0.39883178 -0.4475034 -1.4946638 -1.5136906
1225 1.2850695 -0.77052635 -0.17591156 -0.6720949 0.59326136 -0.67003703 0.088447 0.3292955 1.8219585 0.6498887 0.5074531 -1.283543 1.1048244 1.2139497 -0.5349388 0.8993993 0.1076283 -1.1029003 -0.56465656 -0.2288495
3 -0.6517789 0.44824713 0.7556778 -1.1611413 0.4035349 -0.23396021 -0.6542907 1.1810321 -0.16103114 1.688791 0.17494303 -0.5558951 0.90214443 -0.37831524 -0.3764753 1.7312391 1.2879919 -1.448798 -1.7073088 -0.5810521
428 0.87824005 0.63917094 -0.27391082 0.23193172 -0.069153935 -0.3181521 -1.0355167 0.56943893 -0.26191545 1.6922839 1.0042456 0.04255284 0.59050673 1.3225589 0.1633812 -0.31742385 2.1509721 -1.3337791 -0.79714113 -0.5315992
4281 0.41732925 0.47081098 -0.9087316 -0.05964105 -0.47698689 -0.9798745 -0.91920227 0.4701245 0.9454289 1.760842 0.4458272 0.25345138 1.1347934 1.1277066 1.1553283 -0.044043336 0.6524052 -1.5889974 -0.40990707 0.15408094
4392 2.001029 0.28853923 0.16757299 -0.5268274 0.1849144 -0.7962335 0.27487677 0.43747315 0.23934285 -0.0827922 -0.24037747 -2.0245194 -0.016036952 1.4214033 -0.19371465 1.1512265 1.1115578 -1.6726288 -0.37815577 0.6367627
4599 -0.44970644 1.5151464 0.4967509 0.41775846 -0.32334268 -0.60227007 -0.41743556 1.022596 0.5665947 -1.5280932 -0.3391308 -0.4561819 0.600304 0.7952435 0.3667687 1.4834924 0.7137791 -0.45457014 0.45959076 -0.6950011
3945 -0.08082567 2.0951316 -0.7092472 0.8792774 -0.9350145 -0.47204188 -1.0855658 0.25955716 0.029331582 -0.92215693 -0.42307147 -1.439734 1.3298217 -0.0459404 -0.4265186 0.8826667 0.8196444 -1.563716 -0.5576335 -0.20332853
4460 0.359533 0.9669446 -0.13910758 0.5770905 1.3272642 -0.28841272 0.7279116 0.42030907 -0.05787864 -0.47916564 1.2909238 -0.78612345 -0.6558429 -0.75527763 0.93207943 1.374477 0.40429893 -1.8224148 -1.2496604 -1.4063883
1226 0.533994 -0.6770535 -1.2047379 0.18774107 -0.17867722 -1.8809547 0.11891239 1.807586 0.83995885 -1.0277501 1.3118389 -0.38748586 0.2519117 0.11012895 0.58294207 0.06568217 -0.06593981 -0.8542193 -1.038256 -1.4847336
3905 1.8142561 0.12670432 -0.32566658 -0.67296404 -0.025112217 -0.63456285 0.15983894 0.039692935 1.4872893 0.8451979 0.69943064 -2.2823966 1.4460129 0.6226513 -0.22121902 0.3341959 0.045750163 -1.5925885 -0.16726802 -0.578859
3903 1.5188371 0.0017709404 -0.31291923 0.38779232 -0.039433006 -1.3223666 0.36560768 0.76032174 0.22844934 -1.1896818 0.6353914 0.0651285 -0.59948814 -0.63591003 0.56723756 0.02978175 0.90232533 -1.660622 -0.8789878 -2.1871374
964 -0.15227911 0.5554104 -1.25036 0.8727265 -0.38905767 -0.68663853 -1.5669404 -0.22889987 0.99400336 0.20752938 0.014689764 -0.17171898 -0.2736577 1.2697668 0.092187025 3.1893961 0.26244166 -0.65651757 -0.43601212 0.5714326
2190 1.1110921 0.88988245 -0.36054122 -0.6917944 0.50043476 -1.0411551 0.33433974 -0.14071311 1.5781813 0.12076743 1.1780484 -0.31769416 1.4008627 1.0241836 -0.52604675 0.59799033 0.9071305 -0.7884456 -1.4231368 -0.041729797
3345 0.14948241 0.49328282 0.77354926 1.0536321 -0.7563059 -1.0879344 -1.7797991 1.2958664 1.0786686 -0.15303762 0.4075952 0.29452097 0.028564608 0.71433556 -0.9867496 1.4027735 -1.2362636 -1.6535251 -0.6068462 -0.2758345
3173 -0.4731724 -0.03784145 -0.886427 1.007667 -0.55411905 -1.3528453 -1.6664662 0.74667627 0.294695 -0.3697049 1.0925368 -0.8949784 -1.3106378 -0.088544734 -0.44934016 2.1290736 -0.34067127 -1.2490077 -0.40151557 0.15158512
2532 -0.11537228 -0.52073014 -1.4378841 1.5141838 0.22686884 -1.7712874 0.7152881 0.9803455 0.2976614 -0.41822845 0.40051082 0.17425127 -0.2061073 -0.059059273 0.6520804 0.07440622 1.0924771 -1.9529557 -0.79336566 -1.8643849
4117 0.1520599 0.20176427 -0.53244203 -0.24541858 0.45297152 -0.29604614 -0.091899514 1.0442868 -0.5880829 2.080388 0.2851539 0.0664611 0.43702132 1.1391879 0.4995516 -0.09954589 1.3659712 -1.4630609 -0.8335739 -1.2988352
3418 1.6859637 -0.35061544 0.07784578 -0.15581773 -1.3255372 0.43327704 -1.014464 1.2077277 -0.27104178 1.4334041 0.009001066 -0.42439657 0.93101037 0.22423102 0.25145477 1.2519001 1.3317041 -0.92751044 0.08545006 -0.95621413
2665 -0.24644658 -0.13673656 -0.031641684 -0.3660864 0.5244357 -1.2898433 -1.3475482 0.88545007 -0.39770392 1.7878424 -0.27548313 -0.30336082 1.0154945 -0.71805096 -0.3725621 1.7001815 0.8233655 -1.1858315 -1.7863749 -0.9463465
2105 0.3267271 0.17756785 0.15996456 0.26495168 -0.6226162 -1.2472739 -1.8182383 1.7402426 0.42237037 0.35065332 0.35386166 -1.4355342 -1.0353826 0.3039526 -1.1030555 0.96603197 -1.329177 -1.3779014 -0.46026284 -0.5388361
2760 0.10626534 -0.6663712 -0.07623223 -0.58362055 -0.6223969 -1.47638 -0.8998754 1.4667534 -0.31000847 1.1423255 0.04002099 0.7044192 1.0844387 -0.34058332 -0.19035205 1.7130394 1.6145068 -0.47648814 -1.7017947 -0.74382013
3171 -1.3437575 0.43136755 -0.2437157 0.9975469 -0.07629236 -0.60030454 -1.0867591 0.6296766 0.65855974 -0.17477341 -0.4149409 -1.3327298 -0.2565131 0.9837882 -0.13184778 2.6357145 0.9412998 0.40318775 -0.6977624 -1.1945773
1994 -0.4396584 0.31082883 -0.8049679 0.6843484 0.57329124 -1.8784583 0.96207196 1.3429106 0.7523359 -1.4534851 0.7109873 -0.7218446 0.5513583 -0.18416527 0.4809874 0.22193049 0.17821325 -1.9193443 -1.2640797 -1.1929595
605 1.5966586 1.0173049 -0.7971853 0.19744141 -1.0336384 -0.16162425 -0.30184135 0.38006046 0.53122693 -0.83550066 0.7479159 -1.5376948 0.46170577 1.1621865 0.113503404 0.16849305 1.5164939 -0.10755337 -1.4614372 -0.4104782
3087 1.2325103 0.90111226 -0.38824964 0.45525312 -0.8731609 -1.7346987 -0.33779234 0.41530815 0.74310076 -0.7171145 0.7124121 -0.3337519 -0.82821316 -0.72475433 0.5246397 -0.29882059 -0.194864 -0.790127 -0.89488393 -1.6645151
1500 0.28635666 -0.40079096 0.7382522 -0.66076976 -0.7252736 -1.5766143 0.23384055 0.08905921 1.2386178 0.34046328 -0.039645758 -2.2187161 0.20933528 0.56607026 -0.65881217 0.8334543 0.74087286 -1.5877147 -0.18089193 0.3294451
529 0.19113429 0.5676934 -1.1915867 0.48876444 -0.5943002 -1.0989722 -1.0259869 0.58061826 0.73140365 1.4490743 -0.31666008 -0.25962502 0.44113287 1.7249743 1.5711093 -0.33429846 0.28625846 -1.8097252 -0.09996927 -0.4324543
2382 -0.67898685 -0.22600517 -1.0778189 -0.5275935 0.5663344 -2.1216686 0.4145401 0.12099042 -0.42102423 -0.50268996 1.2396553 -1.0662997 -0.33844095 0.064837165 0.55188555 0.9556377 0.7928793 -1.9976058 -0.013053119 -1.1267048
3178 0.07132389 -0.36198038 -0.22025031 0.7071152 -1.1921911 -0.23406836 -0.5979526 1.0039043 0.19764438 1.3771108 0.8466743 -0.45432007 0.4611652 1.7226137 0.041835938 -0.7525948 0.9173778 -2.2441475 -0.3312631 -0.87545353
3019 -0.24571495 -0.048688848 1.341034 -0.109183095 -0.27796394 -0.021670649 -0.5378344 1.0184139 -0.011202547 0.92624646 1.5996548 0.06309967 0.89060295 -1.0454907 -0.9250207 1.8810096 0.99479175 -1.430202 -1.2082603 -1.4573892
4086 0.3896211 0.8267434 0.013795863 0.103094324 1.5496848 -0.98458683 0.23150626 0.6222766 -0.7318533 -0.22185467 1.3076755 -1.4266242 -0.5586646 -0.5110385 0.90640897 1.1500928 0.29720443 -2.2529676 -0.8306695 -1.1949346
4973 0.5697923 0.058218576 -0.108390436 -0.90035677 -1.4422371 -0.24535072 -1.17431 0.4659648 0.9217822 1.4197396 1.2714899 0.19730355 0.3113747 0.92839676 0.6706114 -0.4139838 1.2414861 -2.0831444 -0.27014065 -0.35422528
4664 -0.15537696 0.49881637 -0.7198566 1.0503991 0.43166125 -0.5342421 -1.7030103 0.117304645 1.8252441 0.3661575 0.34933755 -0.95393836 -0.43549943 0.20688003 0.1535848 2.109085 0.0731134 0.46863064 -0.8256436 -1.2419512
517 0.39342797 -0.34748513 -0.880713 0.42098004 1.0052928 -1.0314757 0.95482534 -0.20052502 0.18403517 -0.3312438 0.8336404 -0.108781464 0.20756488 -0.10856098 1.5559762 1.8589067 0.078400284 -2.0143695 -0.8618025 -1.0439128
1058 1.1633215 0.5814591 -0.6941999 0.31814042 -0.46522078 -1.1415905 -0.98147047 0.633618 0.73500884 -0.73353183 0.32438004 -2.0146744 0.10493663 0.5186059 -0.5813004 0.5614582 0.7996074 -0.97590214 0.2884691 0.6688483
1037 0.6696225 0.2255725 -0.044850625 -1.1244351 -0.9289138 -0.88830876 -0.8203798 1.2643399 -0.09263361 1.4843265 0.24522582 0.44732583 1.1687465 -0.35868534 -0.34375557 1.3164753 1.008265 -0.13916646 -1.001573 -1.5544745
326 0.45379478 0.003914301 0.10732993 0.037277963 -0.83443993 -0.85080194 -0.15441468 0.41454023 2.2493198 0.7231835 0.40436012 -1.1427077 0.57672244 1.467612 -0.43272072 0.21256876 0.31292787 -1.3408258 -1.2343388 1.0265527
2860 -0.12339376 1.3989842 -1.7191142 -0.21780057 -0.73046786 0.21982184 0.8278088 1.8253647 0.04298983 0.052402347 0.7411692 -1.0930704 -1.0295255 0.86047864 0.24618237 1.1441891 0.0624053 -1.2580054 0.1426522 -0.32519737
243 -0.6323621 -0.057304993 -0.72529584 -0.49735045 0.87732863 -1.7069854 0.88763267 -0.2838943 -0.23463526 0.09222105 1.122017 -1.5345079 -0.7819527 -0.115279585 0.30037093 0.9788683 1.3569541 -1.9934329 -0.6900457 -1.6664387
4838 0.54875076 1.6352234 -1.3002641 -0.5746246 -0.7490719 -0.4848486 -0.68932605 1.2291306 0.90244263 -0.11178661 -2.1897602 -0.8352912 -0.10123984 0.8351453 0.27798456 0.7233723 1.6801751 -1.1954445 -1.6295185 -0.6333204
1476 0.28760335 -0.072045214 0.3632105 -0.061947368 -0.61027265 -0.3898767 -0.010123453 1.5304587 -0.66081965 1.0712506 1.6370325 0.26518375 1.0593395 -0.63836354 -1.1533203 1.5021749 1.3193132 -0.98744124 -0.84882563 -1.3812426
4197 -0.551232 -0.55751634 -0.31113258 -0.23249036 -0.4109883 -1.0362028 0.62003636 1.6351432 0.5943976 -0.46290135 -0.9284582 0.31987414 -0.97103167 1.056882 -0.13983715 2.137068 0.92662764 -1.5576638 0.41553038 -1.8552381
4995 0.4502373 -0.023782698 -1.2679847 0.061280683 -0.13518438 -2.3331168 0.2766874 1.083187 0.6881606 -1.0371065 -0.13270919 -0.5414839 -0.32155576 -0.20459986 0.21373424 -0.3535538 0.5347904 -1.5257982 -1.5043741 -1.6600239
1592 1.0147315 0.83654755 -0.32464832 0.028610334 -2.4781063 -0.2928253 0.022402171 0.9310607 1.0401499 -0.52192086 0.18620715 0.5355738 -1.1690596 -0.43751964 0.8388787 2.0498397 1.1412748 -0.7075089 -1.0295999 -0.3523465
810 0.7272386 0.6054801 -0.38302705 -0.030580267 -0.34114158 -0.5328357 -1.859911 0.42656794 0.61755073 0.11031301 0.6223828 -1.2133287 0.17476027 1.1290933 -1.5605425 0.8206883 0.035880785 -0.5711085 0.5307417 -0.27476713
3677 0.36192712 0.3453524 -0.0047272 -0.7233767 0.41233495 -1.4297539 0.36209708 -0.58963597 -0.36151707 -0.84725434 1.1712291 -0.3624726 -0.65736246 0.40424588 1.1407077 1.6396966 0.8496746 -1.132707 -1.7042884 -1.2186973
939 1.2548138 0.5115684 -0.0050602397 0.7122283 0.0040346007 -1.6632763 0.80603176 -0.06605942 -0.52887064 -0.31259608 1.1175667 -0.43967897 0.0704323 -0.3018089 1.0867071 1.0609541 0.23248042 -0.7839999 -0.46301317 -1.8233291
3689 1.3799042 0.45203108 -0.9061226 -1.3832793 -0.18312894 -1.3145957 -0.2107711 -0.3210343 1.0919213 0.51616544 0.6958601 -1.5475521 -0.36384577 0.7427173 -0.4846253 1.359223 1.1220609 -1.2551434 -0.28223097 0.980909
1381 -0.2282287 -0.31819502 -0.74473286 0.14558193 -1.4081025 1.0504962 -0.6799261 1.3985233 0.20074525 1.2412772 -0.21929795 0.39354554 -0.112280004 0.09803039 -0.37186867 0.6602517 0.83707064 -1.3235084 -0.9435405 -1.2801869
564 0.07740717 -0.449399 -0.81033224 0.3253753 -0.013658971 -1.9556714 0.34329742 0.5812253 -0.04381501 -0.89411986 1.451176 -1.5900203 0.28593874 -0.48718956 1.2034545 0.40463912 -0.020552099 -2.1982374 -0.80990404 -0.7118813
4262 -1.4849856 0.762603 -0.23014581 1.3918691 -0.09482377 -0.13606611 -1.4606096 0.74184513 1.9776815 0.35093075 0.4496675 -0.4950026 0.49243268 0.7973941 0.031223044 2.2630928 -0.28961477 -0.456455 -0.81417865 -0.2921953
2434 -0.58138734 0.46526596 1.3417802 -0.10694875 -0.69495356 -0.5172579 -0.22795364 0.8693357 1.5971822 -1.1827245 -0.41796985 0.25073636 -0.7289425 0.6396012 1.3279965 1.2520288 1.1110967 -1.1267378 -0.6521889 -1.3132929
3416 0.7494156 1.117121 -1.355135 -0.59278715 -1.0048027 -0.37017915 -0.6318247 1.184001 1.1106873 0.35806915 -2.2362866 -0.9515681 -0.236068 1.041639 0.23386501 0.6812396 1.540569 -0.9887129 -1.8841299 -0.5949885
1360 0.26139233 1.1787864 -0.54444903 0.2678681 -0.57116324 0.72010493 1.1260408 0.38604742 0.28826812 0.27739698 0.7235708 -0.9069466 -0.7940413 1.648248 0.45939997 0.86909723 -0.31574976 -1.0995566 -0.77943516 -1.4225602
1741 -0.5734846 -0.5978578 0.26972872 -0.014569412 -1.6059604 -0.2973098 -0.5596853 1.7933054 0.64549226 1.593204 0.17730549 -1.4927227 0.29210773 -1.2434644 -0.3092839 1.4373354 1.2860312 -0.45962465 -0.42223614 -1.3766209
773 -0.31228817 0.8738032 -0.5508639 0.8556635 -1.0609154 -2.1942096 -1.5667324 1.4615446 -0.12337967 0.4993385 0.19127417 -0.3659988 -0.87444586 0.46851242 -0.9290944 1.1460714 -0.62468684 -1.5032266 0.30123654 -0.19446614
3349 0.9328647 0.08280198 -0.011722315 0.5169731 -1.1981643 -0.00045138603 -1.292828 0.45867205 0.09131595 1.0683849 -0.72009003 0.6066129 0.12085659 0.58363354 0.5723585 -0.16707027 1.3190889 -1.7852283 -0.99306893 -1.591355
3082 -0.032475818 -1.2774116 0.09655197 0.46155518 -1.1665841 -0.20449676 0.2539743 1.3038465 0.4016744 1.2814115 1.5740712 -0.13890344 1.3430202 -0.09052774 -0.04159329 1.7831537 1.2859241 -0.78 -0.10562505 -0.6001226
1966 -0.24443224 0.26861978 -0.5272645 -0.8852449 0.003615951 -0.6824882 0.46066463 1.6592762 -0.35769078 0.40619352 -0.29513735 -0.5204295 -0.59416807 2.0168545 0.95762515 2.1034985 -0.024085786 -0.8361269 0.042392172 -1.6074494
401 1.4566604 0.4914619 0.1254816 -0.76055354 0.3964672 -1.470019 0.13802332 0.11589807 0.9771045 0.394558 -1.026667 -0.74500006 0.54033846 0.6194336 -0.35635206 1.6435617 0.56897205 -2.1158407 -0.8393877 0.93010306
1959 -0.06396124 0.98837835 -0.31504145 0.021690076 -0.036194768 0.22459912 0.5883773 1.3838487 0.1431002 -0.23361091 -0.7399498 -1.2227983 -1.033054 0.58088124 0.3524105 2.4139361 0.51911426 -0.3084129 0.14708185 -1.6269333
1092 -0.5944084 0.99582106 0.13802777 -0.82127094 -0.7050432 -0.6407181 -0.6031432 1.4069101 -0.26965284 0.90112823 0.16060932 -0.38876677 0.8714004 -1.1246961 -0.50446284 1.6302238 1.6720926 -0.35085183 -1.6762305 -1.0122235
4411 1.0774328 2.1316957 -0.029811792 -0.049839433 -0.45647162 -0.9413195 0.12841953 -0.010922383 0.7137189 -0.02436581 0.92539597 -0.24860784 -0.28851777 -0.2466083 0.6530598 -0.053393338 0.108914845 -0.40127838 -0.7278954 -1.722245
4739 1.5062909 0.6422434 -0.7776292 0.23115501 -0.45960385 -1.5741631 0.20382302 0.96210223 0.31311175 -0.89483327 0.28315887 -0.21886756 -0.6360008 -0.70896155 0.15625058 -0.13932626 -0.004669995 -1.2733293 -1.0028254 -2.0832772
2098 1.1962289 1.1211183 -0.9345836 0.51356333 -0.8172137 -0.91553605 0.24447949 -0.58127326 1.6140116 0.48291275 -0.23922215 -0.35419792 1.6315213 1.4104875 -0.6440951 0.9763671 0.80271167 -1.1893328 -0.5170861 0.31161562
1701 -0.5243266 0.10124727 -1.1761862 0.97292453 -0.28957105 -0.18347445 -1.7791878 0.5669934 0.05641255 0.93053126 0.6389096 -0.32522324 -1.2002681 0.46619695 0.49821305 2.141629 0.58886296 0.05458994 -0.12739314 -1.3285499
2669 0.13451347 0.061745476 -1.7630982 -0.50416094 -1.1598636 -0.052738257 0.7185579 1.6963673 0.779272 0.037721287 0.6360505 -0.08310523 0.23955613 0.40701196 0.65169674 0.6073866 -0.8278908 -1.7556632 -0.835481 -0.483035
1460 1.2963973 -0.22092764 0.6062876 1.03305 -1.3238183 -0.10337505 -0.71667296 1.0237807 -0.328367 1.2808446 0.43786177 -0.46971673 0.29465094 1.193213 0.32664463 -0.4000818 0.90007156 -1.7932276 -0.89366716 -0.7727077
697 -0.670494 1.1474605 -0.41450325 0.022378182 -0.6578134 -0.67426515 -1.2391455 1.333206 0.2250454 0.06085551 0.9081702 0.070722 0.30790222 0.40082276 -0.17113 1.9071798 -1.648217 -1.451138 -0.751936 -0.28745344
4345 1.2888222 0.6094344 -0.893776 -0.05965911 0.39489263 -1.017302 -0.3045505 0.10385468 1.9063178 1.7476573 0.84997725 -0.9846494 0.12972106 0.5918011 -0.9086817 0.60821575 0.46256322 -0.48605677 -0.3693463 0.23817503
4349 0.49061283 0.17446768 0.10308545 0.41642296 -1.4561548 0.053825874 -1.0045843 0.46483225 -0.12130482 1.2136438 -0.7186699 0.70795363 0.16302818 0.3801296 0.49353263 0.05667431 1.3066835 -1.8354369 -1.0706838 -1.7129067
2600 0.2406195 -0.41627717 -0.895481 1.3359305 0.11682062 -1.5739671 0.73401535 0.6226574 0.5066677 -0.63929564 0.43574435 0.5081402 -0.13715586 -0.16792695 0.7787313 0.13751192 1.082595 -1.8350786 -0.7996538 -2.382437
4443 2.2260268 0.04655333 -0.45632416 -0.6209183 0.029405871 -1.0678633 0.49658194 -0.086044826 2.253565 0.23403968 0.5865931 -1.0323217 1.0641221 0.3907474 0.31154385 0.6377426 0.5856153 -1.4545926 0.15152933 -0.30935633
2690 0.3860994 -0.5948309 -0.6359893 0.6014835 0.32874995 -1.418555 0.4389667 -0.45130217 -0.57141864 -0.8397469 1.4181317 -0.5997693 0.44490176 0.30382693 1.3282872 1.5623529 0.5786016 -1.8407189 -1.0657783 -0.8215593
2147 0.9874363 0.1295455 -0.45149446 -1.3882275 -0.5240073 -1.8849365 0.65866345 -0.20059498 1.2298242 0.3655887 -0.0098467665 -0.514793 0.47426432 1.8447875 -0.39282998 1.1441909 0.11816634 -1.6627462 -0.4345399 0.2476029
3987 -0.40997675 -0.7909683 -1.0636085 1.4681479 0.23140197 -1.7257546 0.50703853 0.62659997 -0.030265758 -0.45811224 0.7370369 0.1030475 0.025833393 -0.074762665 0.92525685 0.6547137 0.7231384 -1.6902741 -1.3672824 -1.5801418
3972 -0.16821636 -0.108034186 -0.45555958 0.5958699 -0.01219894 -0.932244 1.3041627 -0.05081057 0.027556138 -0.21610253 1.8525587 -0.08446396 0.31456485 0.18947032 1.3635759 1.8301401 -0.19863252 -1.2553599 -1.4479154 -1.0102762
2435 -0.015597687 0.15627985 -1.197411 0.5500797 -0.6168897 -0.5310369 -1.2127512 0.4678796 0.6605936 1.3531274 -0.43564203 -0.31890425 0.88494134 1.256647 1.3964689 0.031793576 0.8106198 -1.8786331 0.17682502 -0.49757537
2027 -0.17587267 0.8959162 -0.37904483 -0.11195333 0.5815256 -0.5023125 -0.023315765 1.8013557 1.7422646 -0.10176814 -0.5902026 0.5024099 -0.3448909 1.7485213 1.0324339 1.0683746 0.599193 -0.50126123 0.055346716 -2.0141845
4582 -0.92295355 0.9927909 -0.24417843 1.1849737 0.124024704 -0.15333925 -1.7792329 0.933359 1.4741341 0.4574385 0.23473184 -0.5049947 0.44122273 0.8440669 0.10049168 2.380121 -0.02990697 -0.07397372 -1.3415203 0.1236168
4847 -0.780789 0.17310683 -0.9613296 1.2905538 -0.3812321 -0.78259534 -1.9522496 0.41421252 0.75593686 0.8406909 0.16383834 0.053898837 -1.0158194 0.23978835 0.011248001 1.9813937 0.8847845 0.26161346 -0.50370514 -1.4811251
3789 0.67423916 0.9875584 0.44789812 -0.092528075 -0.22427838 -0.94670135 -0.6720619 -0.107085936 1.3032644 -0.74441713 -0.04041783 -0.31231362 0.23647484 -1.2817122 0.46052927 0.4155673 0.9169295 -1.8128123 0.41269824 -1.1266334
2745 0.6277448 0.7467704 -0.20761682 -1.0867267 -1.8038124 -0.46570042 -0.35806334 0.4792131 1.4426674 -0.6767051 0.5202707 0.09087678 -1.238173 -0.13752195 0.5410331 2.3740766 1.2735462 -0.21527646 -1.2160915 -0.270605
1550 -0.3631559 0.7237592 0.11514265 -1.2196273 0.35501957 -0.18233787 0.1815641 0.8486894 1.1992588 0.7563482 -0.9770281 -0.72051007 -0.88790363 1.7124442 0.44217294 1.9154617 0.5134426 -0.90059024 0.21891682 -1.827228
2685 0.10250987 0.5231434 -0.35573745 -0.29403326 -0.7435005 -0.76126695 -1.6144766 1.256493 -0.23662688 0.13174394 0.09829241 -0.14498425 -0.9488016 0.3315424 0.12315449 1.5967779 -1.0253791 -2.3298585 -1.1113281 0.39177433
3174 -1.7480817 0.32848346 -0.34406286 1.1135436 -0.22448139 -0.06917914 -1.3394207 0.108759455 1.6915313 0.27265072 0.5517441 -0.48710802 0.86677265 0.902978 -0.40159976 2.5012298 0.1338973 -0.6597626 -0.685058 -0.6393208
1208 -0.025655912 0.9004403 -0.03669578 -0.15357326 -1.188331 -1.1016581 -1.2400316 1.3535839 0.35809162 -0.5420397 0.3778754 0.75271356 -0.0953265 0.7055044 -0.42519152 1.8844309 -1.1164763 -1.6699471 -1.0669489 0.17556907
3367 0.7489429 1.0270973 0.07153886 0.4600265 -2.4648588 -1.0921104 -0.06691605 0.639649 0.8849617 -1.0781108 -0.17861103 -0.32068425 -0.81400704 -0.6318224 1.2526144 1.7605846 1.3744771 -0.52422935 -0.52919877 -0.7120125
4486 -0.3788097 0.47028843 -1.4813216 0.171637 -0.22744454 -0.70702916 0.6733355 1.2854282 0.2739914 -0.455801 1.0184647 -1.0917029 0.40020975 -0.38442296 1.1167082 0.33448172 -0.74626315 -1.5395555 -1.2405571 -1.4163182
2337 -0.32038194 0.13401027 -0.020890927 -0.61246336 0.6050938 0.13612457 0.15528421 1.0013729 -0.7557201 1.6490352 -0.2529916 -0.5781022 0.67585707 0.33947423 -0.23551436 1.1179333 1.929502 -1.2405959 -1.519924 -1.7635179
2620 0.6148199 0.029487653 -2.2054543 -0.78214824 -1.4872082 0.32982436 0.32053646 0.99860793 0.85285 0.22439578 0.76760876 -0.66952765 -0.009374053 -0.048708647 0.23217353 1.1508372 -0.7287421 -1.6732718 -0.2657929 -0.774096
1882 0.082014754 0.3489526 0.44704995 -0.17552108 -0.6689716 -0.91110307 -0.5708587 2.0022209 -0.19916883 1.4225749 0.42446232 0.28316548 0.29341817 -0.686839 -0.49696508 2.0217996 1.7949481 0.09322098 -0.5104023 -1.2005006
780 0.53283334 1.2172729 -0.24086936 0.058967084 -0.17876178 -0.6841541 -1.8891114 -0.68343824 1.3297127 0.14673439 0.18923973 -1.4988464 0.4220376 0.8568453 -0.39120904 1.6487261 0.21166688 0.0951111 0.35329857 -0.9792264
89 0.5776872 1.6179296 -1.2786642 0.11198376 -0.36571726 0.9008093 0.5355448 1.1370498 0.34220722 0.1801303 0.76468277 -0.8388005 -0.92237216 1.0363768 0.5480283 0.4976149 -0.27584967 -1.4878798 -0.49658185 -0.8279883
2725 0.08022017 0.32421166 -0.018857745 -0.1343487 -0.34362808 -1.1887085 -2.2903414 1.2976891 0.03284888 -0.2472027 0.1741782 0.29431495 -0.90451354 0.4149633 0.15090005 1.2483047 -0.867202 -2.1080623 -1.2871712 -0.1480731
845 0.6679944 1.6410885 0.29075366 0.16240957 -1.1407577 -0.57589287 0.71808094 -0.7508847 1.1471373 -0.5958452 0.12203523 -1.2516589 0.4093024 -0.46997103 0.21256472 0.22417216 0.6639076 -1.1824293 -0.91041124 -0.84363526
4524 -0.2650354 -0.24100727 0.2706194 0.29947275 -0.1467982 0.7340349 -0.12362847 2.0046372 0.16418025 0.9246122 1.4533833 -0.6675038 0.5872981 -0.53732276 -0.22294317 1.3330028 1.5707262 -0.6315529 -0.5369208 -1.5861679
2336 0.9704358 0.31115225 -0.67601395 -1.0602605 0.120871775 -1.8629894 0.21859866 -0.50420976 1.5735053 0.5358078 -0.5578018 -0.044319753 1.0354656 1.4577738 -0.10304892 0.9443758 0.092642255 -1.421 -1.0664288 -0.26533556
2890 -0.46988773 0.69677377 0.5255744 1.0265088 -0.51978195 -0.9554474 -2.0630784 1.1843618 0.8947673 -0.18731944 0.9901475 -0.06643625 0.116461635 0.95656234 -0.4235774 1.4246598 -1.3814107 -1.3357173 -0.73970914 -0.36044204
4145 1.4619976 0.487562 0.72687525 -1.521982 -0.31667987 -0.52388126 -0.19078614 0.0006713591 0.936302 0.17232111 0.56851065 -1.8349472 0.20791358 0.6117808 -1.1611768 0.9954341 1.0947139 -1.3882358 -0.034739576 -0.03873521
4476 -0.3125001 1.0686278 -0.40635365 0.23163016 -0.20850796 -1.2560036 -1.6773775 0.1510931 -0.07490851 0.6504816 0.21757892 -0.34655482 -1.2825559 0.53263164 0.331274 2.3024855 -0.64075434 -1.9290624 -0.0939082 0.33631164
4084 0.16622041 0.28429386 0.7393436 -0.22140954 -0.31564987 -0.6555087 -0.26104954 1.9141303 1.4132353 0.030643169 -0.68791056 -0.42643115 -0.9590268 2.32429 0.731477 1.3668171 -0.03612711 -0.14933972 -0.9536772 -1.5723605
3698 0.3103709 0.6383052 -0.15148373 -0.0657923 1.6644225 -1.0601903 0.7218301 0.13506545 0.12359224 -0.6735798 0.7835033 -1.1066566 -0.3679137 0.11298026 0.6594882 0.9025167 0.38108894 -1.5713732 -2.0741477 -1.54753
4760 -0.19934101 0.082275085 -0.28220144 0.17726347 1.6191534 -1.8216275 0.8697223 0.15855484 1.0277352 -0.32033968 1.7803952 -0.49311763 -0.7414837 -0.28431225 0.74943763 1.6376555 1.3265544 -1.3108257 -0.5411671 -1.0486662
4653 0.14028747 -0.30048546 -0.7120735 0.1887548 1.1932727 -1.2570097 0.3826518 0.08621058 0.2461325 0.22806445 1.7874061 -0.5470482 0.49821523 -0.034314234 1.9743029 1.6691403 0.63308525 -1.2563221 -0.4533902 -0.9557681
2474 -0.31591386 -1.2536271 -0.7601224 -0.90629864 0.13803312 0.16311885 -0.12764803 1.142044 0.4101664 1.7073652 0.5293768 -0.44682443 0.18620788 -0.24396852 -1.0780854 1.3020523 0.66417015 -1.7501559 -1.457264 -1.3189548
3953 -0.41530964 0.9641958 0.39204818 -1.0409396 -1.1461799 -0.35661414 0.011075984 1.67486 0.040310014 1.5321032 1.0360947 -0.6786619 0.96019197 -0.2575928 -0.97511023 1.3558505 1.4502082 -0.40982157 -0.37416616 -0.80809194
1363 -0.12340571 0.52809393 -1.4113697 -0.31754524 -1.4950937 0.5115975 0.6449809 0.9801734 0.92044526 -0.14153913 0.79487306 -0.24514644 -0.12084727 0.8021899 0.18160874 0.7580799 -0.74323833 -2.4372506 0.114564836 -0.62656623
4168 -0.8024507 -0.17286056 -0.56365585 0.7315661 -1.3821716 -0.9986998 -2.5743146 1.1364737 0.56954247 -0.43313035 0.26559985 -0.99115473 -0.9650528 0.27679023 0.15877864 1.2825427 -0.36355746 -1.3835036 0.117026776 -0.7193126
2807 0.22793287 0.49921194 -0.71617895 0.1307654 -1.390464 -1.0812707 -0.85521644 -0.17603993 1.3797587 1.3350469 0.50205886 0.9138219 0.8274725 0.86498827 0.4930698 0.054876495 1.2096759 -1.9945728 0.05656443 -0.08497615
3963 0.15398936 1.1749929 -0.42131573 0.8982549 0.7847519 -1.6228045 -1.0212263 -0.02124107 0.49145123 0.09182506 -0.14768516 -1.0277692 -0.13276266 -0.87542325 0.94899803 1.2439688 0.2407037 -0.27835163 -0.12835088 -1.6052988
3371 -0.03255944 0.5023121 -0.14283192 -0.61137295 0.073501654 -0.15871903 0.6767816 1.3470502 1.168662 0.03612926 -0.6510834 -0.28234327 -0.4911966 1.8506001 0.042628635 1.6127682 0.12100802 -0.91346484 0.4989235 -2.527973
176 0.0019760048 1.2605972 -0.4202442 -0.50502867 -1.1876658 -0.7768346 -0.8185748 1.4936478 0.12643704 -0.35936117 0.6681075 0.5486507 -0.19197297 0.56330454 -0.42294493 1.7913693 -1.1247578 -1.7396262 -1.0115514 0.45299754
759 0.14397964 -0.26964173 -0.30464238 0.88915735 -0.39296627 -0.9786005 -2.435939 1.1988844 -0.046995785 -0.02628702 0.67696863 -0.25673908 -1.2653652 -0.2052943 0.6804475 1.8316405 -0.26902035 -0.62531286 -0.9962785 -0.78741777
4208 0.11853073 -0.009099076 -0.68106014 1.229423 -0.29775512 -0.49190456 -1.5495263 1.4228458 0.16947815 -0.31847736 0.4081466 -1.0964694 -1.626279 -0.36375692 -0.6507152 2.1696434 -0.08349131 -0.8843095 -0.4471192 -0.4573606
4662 -0.4646617 0.64283514 -0.18345617 -0.10341192 1.3808626 -0.71678877 1.0073471 -0.047724526 0.07939808 0.10576675 1.3909781 -1.4867083 -0.43498534 0.08786529 0.6939323 0.9547658 0.7965506 -1.6444569 -1.5127745 -1.748135
56 -0.2945009 -0.5308386 -1.5220445 0.38792738 0.25643772 -1.5606513 -0.6442567 0.96046454 0.53965414 -0.45719647 1.3562396 -0.70768 -0.26004565 0.3525724 1.499585 0.029921519 0.29398036 -0.7802931 -0.9819703 -1.8243585
3622 0.0225686 -0.25839475 0.68470347 -0.036960088 -1.2999818 -0.74799454 0.17079484 1.3099314 1.0591576 -0.56490713 -0.993209 -0.671896 -1.0220139 0.80609876 1.6151474 1.6022246 0.30495167 -0.40806025 -0.4187415 -1.8887874
1803 -0.015807422 0.3483182 0.23778829 -0.07223109 -1.1751289 -0.15684442 -0.26017827 1.6823132 0.15841445 1.1851571 -0.460544 -0.81294245 2.1869066 -0.08980631 -0.12102827 1.2278024 0.5071908 -0.3638451 -0.8438894 -1.7385224
2886 -0.17104511 -0.45059726 -0.7990486 0.36058608 0.40553725 -1.5974091 0.89693934 0.053422388 -0.092707545 -0.90466636 1.1965379 0.18381394 0.5404922 0.15718748 0.7433749 1.2566029 0.21266808 -2.1270764 -0.91643083 -1.3618164
3518 -0.5046771 0.5648192 0.15917173 0.82826686 -0.75671184 0.5605804 0.18538865 1.5520548 -0.06542485 1.9000983 0.4310711 0.43194133 0.3108334 0.8494802 0.18287207 1.0842454 1.8188173 -0.6628753 -0.8864514 -0.97338253
369 0.5479011 1.0703645 -0.4848022 0.6785947 -0.11685575 -0.27216423 -2.0554762 0.4790665 0.2791973 -0.34863824 0.8066433 -1.8763613 -0.43374932 0.08050232 -0.28214446 1.7721009 -0.47931364 -0.6677252 0.6963482 -0.96649235
4223 1.0755184 1.1978642 -1.092253 0.39905015 -0.6260034 -1.1074129 0.029264424 -0.39065284 1.4476169 0.06164763 0.19026266 -0.10413748 1.9261671 1.3419169 -0.28633282 0.8693446 0.6889223 -0.8601872 -0.91951156 0.25186768
4122 0.24265857 0.58525735 -0.35920766 0.2331121 -1.4025257 -0.80699617 -1.0842947 -0.0724649 -0.11181934 1.3738226 0.25084022 0.79005617 0.54203284 1.9074063 0.91339844 0.13664141 0.39949298 -0.9200012 -1.1557825 -1.7863157
3042 0.3810748 1.8293288 -0.92914337 -0.37922376 -0.41354364 -0.4855933 -0.80986077 0.8735723 1.0779388 -0.42583233 -1.8294237 -0.11155341 0.25622594 0.681521 0.20960379 0.15852942 1.558906 -1.2677789 -1.6751742 -0.84020793
61 0.9884067 0.67781377 -0.10548596 -0.6944721 -0.21988797 -1.8746102 1.2037615 -0.38777223 1.3765888 0.85875887 -0.2800173 -0.7106831 0.5102048 1.1016109 -1.2344983 1.5304207 0.08502697 -1.1800958 -0.5873725 -0.0791068
4946 -0.037893347 0.54732233 0.32321748 -0.57710874 0.16197656 -0.8162402 0.22409749 1.6779823 0.30921236 0.84008706 -1.2646048 -0.8555393 -1.3648539 0.77992016 0.6434686 1.9620934 0.6809659 -1.17035 0.658515 -1.7581584
1339 1.0383626 -0.077568516 0.5233187 -0.16203111 -0.9267171 -0.6138201 -1.046316 -0.0437632 0.05193424 1.2945527 0.09466851 0.7904931 0.597747 1.2930857 0.94115764 0.59338504 0.9699451 -2.3025808 0.0023489993 -0.50990844
488 -0.2987372 -0.7415979 0.35310984 -0.3568026 -1.0103662 -0.38003325 -0.83919066 1.4822507 0.64389765 1.6288817 0.8043033 -1.3448071 0.15067025 -1.3709701 -0.27838224 1.378574 1.4162246 -0.45488894 -0.59982026 -1.3124591
4386 -0.6914621 0.9252736 -0.77236634 0.19792637 -0.70355076 -0.90967214 -1.2082106 1.2073534 0.3786572 0.6613919 0.22798216 -0.1763845 -1.059166 0.4745296 -0.22909884 1.325997 -1.1220404 -1.9029776 -0.82648075 0.4325351
2358 -0.6379937 1.0701597 -0.0386541 -0.53570026 0.68224466 -0.5569742 0.032596096 1.4017228 1.6301501 -0.08212421 -0.2955447 0.34553105 -0.7407048 1.9609947 0.6516959 1.2150211 1.2178961 -1.0263122 0.3972527 -1.7167528
3837 0.65281755 0.7001203 0.42854676 0.14804094 -0.68184537 0.66253567 0.5486542 1.8240981 0.12046893 1.7315588 0.64230436 -0.21971133 0.84919554 0.35547143 0.68276066 1.3211819 1.8885349 -0.15035155 -0.8273423 -1.5512985
3823 0.31525844 1.4414544 -0.6989299 0.31711665 -1.4548339 0.15615655 1.2284561 -0.12530725 1.1195182 0.40103707 -0.25375563 0.37721944 -1.2248758 -0.21165238 -0.61239433 1.6481633 0.14811376 -1.8364719 -1.6189348 -0.90909135
2217 0.23433398 -0.3281674 -2.4682958 -1.2827884 -0.7853789 0.18250832 0.25196365 1.6514709 -0.013163528 0.13171497 0.8129148 -0.3989111 0.07026585 0.11398386 -0.78464836 1.3654821 -0.1226905 -1.8864703 -1.3574319 -0.9966169
4969 0.41089272 -0.35099417 -0.20296235 0.6980222 0.3310165 -1.9695724 0.7018244 0.12593064 0.7883413 -0.59635365 1.156053 0.30102322 -0.7298465 -0.22607571 1.1570342 0.22755526 1.1743933 -1.9773511 -0.99075174 -1.4040959
2937 0.8523224 0.042033963 0.2970472 -0.48929557 -1.273522 -1.058071 -0.35550073 1.5103092 -0.10877558 1.1175367 -0.2587074 -0.22903195 0.6830714 -0.032066893 -0.5419288 0.541444 1.9859786 -0.07400916 -0.30701965 -1.9518251
4072 -0.1257085 -0.28754726 -0.5804189 1.5139519 -0.29660222 -0.62727153 -1.30791 -0.37479305 1.3859482 0.27900824 -0.30805603 -0.67096937 -0.2836311 0.24751768 -0.19463103 2.6002662 0.5456109 0.1897532 -0.6219233 -1.2851994
526 0.30557 0.7115184 0.7284541 0.17738247 -1.126444 -1.1172633 -1.1622101 1.4445469 0.14095463 -0.3690416 0.9229299 0.47770053 0.122443564 1.0953133 -1.0890886 1.379996 -1.2539129 -2.0327847 -0.9952668 -0.18431288
601 0.7415365 2.036891 0.16947001 0.1964176 -0.5607843 -0.9193712 0.6872977 -0.039580535 1.1831944 0.119436346 0.9312288 -0.26597527 -0.51744276 -0.027671203 0.84686065 -0.10053281 0.271963 -0.41470656 -1.1291487 -1.3608828
3932 0.3025576 -0.05343584 -1.4113545 -0.06611627 1.2521663 -1.3598816 -0.7862664 -0.14072084 0.079389974 0.46290338 1.3078946 -1.0601754 0.13968302 0.081380144 1.938268 1.603452 0.93098766 -0.4119015 -0.41118222 -1.2848953
3100 0.18104821 0.6658686 -0.07962504 1.3021624 -0.02777631 -1.7192178 -1.6043626 0.7001837 -0.36140952 0.4313342 1.0060974 -0.3859699 -0.8481343 1.2155135 -0.8698049 1.3528401 -0.44228548 -1.6314933 0.44257018 -0.2109468
4056 0.41105285 -0.11033926 -0.60246056 -0.1142804 1.0449291 -0.7836311 0.8156353 -0.15516363 0.59895444 -0.70368737 0.96658003 -0.21825919 -0.86696255 -0.24026613 1.0525299 1.3429219 0.5628886 -2.2571611 -0.99707407 -0.8259139
1760 -0.44213516 -0.3704218 0.2642369 -0.40800205 -0.5226682 -0.038167775 -0.05552964 1.2068704 -0.4241424 1.5007465 2.1777046 -0.012399169 1.0529798 -0.38220373 -0.92204076 1.5825984 0.90099263 -1.5054792 -0.49081996 -1.3514469
4314 0.6924698 2.581936 0.43265167 -0.12147882 -0.19602531 -1.3962406 0.111419976 -0.2424595 0.77509403 -0.33815008 0.74665153 -0.047877677 -0.5526288 -0.29221627 0.9208083 0.7234612 0.19634005 -0.7258947 -0.874425 -1.4323415
4510 0.37140906 -0.38276315 0.39722604 -0.2932333 -0.996127 -0.41488945 -1.4758592 0.7836265 0.16767135 0.9075531 -0.21226971 0.79000443 0.54558176 0.7022811 0.53663486 -0.042396724 1.5063711 -2.0791113 -0.35490236 -1.3293937
3909 0.57856405 -0.6909967 -1.0774646 0.69726324 -0.22419387 -1.4905849 1.5728486 0.30031225 0.22365041 -0.36214894 1.2970673 0.22735886 0.03599498 0.035849407 0.56622493 1.0479271 -0.12628981 -1.5122317 -0.86762303 -1.801447
1111 -0.83933496 0.71675223 -0.73309666 1.598598 -0.77981955 -0.7468944 -1.3195746 -0.51454395 0.81568116 0.5409442 -0.2677563 -0.35111353 -0.5045778 0.3675129 -0.6265022 1.8841629 1.0633801 -0.052039817 -0.75901216 -1.3146526
3838 0.17622933 0.4637133 0.40706295 -0.44380423 -0.0066863345 -0.67539644 0.53819007 2.0755472 1.4341459 -0.009857971 -0.030984974 -0.44498694 -0.80731404 1.9111867 0.7025511 1.6924975 -0.026718484 0.07106073 -0.024464859 -1.9879549
2485 1.1239117 -0.007933637 -0.4685418 -0.20429733 -1.9508115 -0.25614914 -0.02065768 0.32426697 1.6780592 -0.525433 0.4900302 0.0997419 -0.7551696 -0.5873469 1.2724206 2.2539291 0.71687007 -0.5377444 -1.0811071 -0.25971276
419 1.2311517 0.13371757 -1.1593294 -0.63584846 0.19409777 -1.5883884 -0.087752484 -0.50693184 1.5569404 0.7212397 -0.63225776 -0.17829551 1.1045295 1.5158459 -0.16254528 0.5952638 0.6037116 -1.504505 -0.7607459 -0.2778649
1433 0.23020704 -0.24694838 -0.22364609 0.0062582837 -0.7870275 -0.4404328 -0.7223383 1.4909974 -0.045326762 1.9698763 0.8492342 -0.9124877 0.3756221 -1.632028 -0.19265841 1.3079007 1.2973324 -0.5437908 -0.6009297 -1.2214036
3023 0.45865864 -0.6214116 -1.4082538 0.84206164 0.3507858 -1.8638836 0.6104888 0.86519754 0.5307786 -0.38228676 0.51714385 -0.31260377 -0.77732426 0.3745531 0.40819 -0.43535793 1.0693153 -1.5461956 -1.0129 -2.1692228
3363 -0.43559617 0.0643624 -1.001544 0.9847592 -0.31008884 -0.20842534 -1.0551983 -0.52768797 0.9282098 -0.055843744 0.0885235 -1.2029413 0.27798778 0.6341881 -0.68293166 2.7501972 -0.41058037 -0.06238223 -1.1294602 -1.430146
822 0.75288284 0.0015486962 -0.07650188 0.99518234 -0.2477699 -1.0588756 -1.7806332 0.6215943 0.47727385 -0.56584185 0.48930413 -0.4070469 -1.1823018 1.1733276 -0.66344583 0.8673551 -1.0324583 -1.6208469 0.0060285283 -1.2851925
2266 0.42472038 1.4931448 -1.0293244 0.41473708 -1.6218057 0.3054391 1.2112881 -0.23769134 1.076501 0.34207216 -0.2426568 0.15138039 -1.052198 -0.15614112 -0.37379527 1.7408649 0.19982384 -1.8306142 -1.4244794 -0.7577397
232 0.93118644 0.31550896 0.1341414 -0.1663526 -1.1720479 0.54856175 0.33206028 1.9590496 0.4530479 1.6827774 0.7520671 0.041000824 0.899122 -0.06803854 0.95057875 1.1892033 1.6828842 -0.2001985 -0.86182714 -1.2185403
3061 -0.4649912 0.41522384 0.17307673 -0.7974218 0.21759343 -0.7927816 0.32746503 1.7356619 0.2509644 0.84110695 -0.8834777 -0.5450572 -1.3303596 1.4255785 0.7950676 1.7379633 0.4220261 -1.0633501 0.0069160555 -1.6149303
4135 -0.21787742 0.6402805 1.2899724 0.13189685 0.6735997 -0.97485125 1.0053891 0.25576463 1.0079281 -0.17868538 -0.4080433 -0.29921854 0.106132574 -0.676177 1.5000353 2.120912 0.7150891 -1.4048965 -0.21085244 -1.2917573
381 0.23238145 -0.48423067 -0.3867838 0.15688369 -1.461377 -0.47786447 -0.9379984 -0.5278139 0.9644791 1.3740109 0.8680648 0.11934312 0.66917396 1.3015671 0.1390307 0.07403764 0.87624955 -2.4783926 -0.042388413 -0.32061672
2833 -0.2197761 0.46764886 -0.48126736 -0.18436088 -1.3009899 -0.6199264 -1.4687215 0.2364239 0.55291694 0.87041837 -0.66797733 0.26880112 0.80722475 0.5057864 1.0203006 -0.3154683 1.2797687 -1.7626599 -0.52338666 -1.1960299
1341 0.04645937 1.2774533 -0.34053254 1.3404747 -1.6195607 0.7153181 1.37342 0.18093139 0.9966026 -0.07014288 0.57366216 -0.9047825 -1.3340136 0.59148145 -0.52604455 1.7380254 0.37466854 -1.6185093 -0.9874191 -0.65744746
4874 2.121108 0.53058344 -0.5812413 -0.30588263 0.43227512 -0.52256244 0.88988084 -0.22368006 1.7042233 0.8289703 0.4016205 -0.50979394 1.1053274 0.76739424 -0.8459352 1.4818728 0.34668618 -1.5187953 -0.028093833 -0.23762496
2367 -0.6978723 0.12812325 0.36998397 0.11765799 0.040598378 0.49315834 -0.040332988 1.2274445 -0.14669755 1.8880394 0.5888552 -0.6210569 0.7795368 0.79279155 0.047290687 1.107513 2.0205479 -0.43298426 -1.1881804 -1.8650569
1563 -0.016498176 0.952382 -0.3638106 -0.7803514 0.07760373 -0.16659875 0.42484352 1.176649 0.6524287 0.8133295 -1.2775106 -0.9544867 -1.3651018 0.9304284 0.4246872 1.9514061 0.71140224 -1.1825017 0.740201 -1.503355
2703 -0.23607111 0.96365 -1.3029958 0.0519727 -0.940515 0.30750138 0.8834001 1.5930704 0.26188588 -0.08729401 1.1424085 -0.9469358 -1.0069561 0.8245617 0.8443488 0.81231946 -0.018273558 -1.4590614 -0.44878346 -0.055563
250 0.49368438 0.76220375 0.054984003 -0.36361748 -0.65029556 -1.0904325 -1.570628 0.8678173 -0.72061086 0.16809072 0.43177155 -0.24299759 -0.6227258 0.6837188 0.21464841 1.959485 -1.2036767 -1.9381112 -0.6720105 0.048120882
4096 1.3884805 1.1090902 0.4142932 0.29049698 -0.16635022 0.31946674 -0.22384721 0.21549849 0.7087641 -0.76248586 1.2851119 -0.75980675 0.42116663 1.6721078 -0.7505967 0.33200207 1.0356642 -0.5388725 -1.386934 -0.8525479
831 0.86388266 0.46569765 -0.35628176 -0.73657733 0.94908845 -0.78077567 -0.53925043 1.0122433 1.770839 1.0219699 0.83665437 -0.662002 1.3517969 1.3844224 -0.30120873 0.13854134 0.12230848 -1.1504216 -0.07058361 -0.24907704
3854 0.42011338 0.7898878 -0.009275887 -0.9498683 0.38747257 -0.52836645 -0.14024004 0.14791983 1.4320836 0.89603704 0.6018794 -2.1168423 -0.38094574 0.79773545 -1.2358749 0.82263225 1.2252268 -0.8070841 -0.31611547 0.20593798
3305 -0.24189015 0.40964714 0.16393617 -0.45440444 -0.7230549 -0.44287312 0.013404406 1.686468 -0.13326375 0.7903394 0.93888843 0.55624294 0.65882367 -0.6686105 -0.81842047 1.6152352 1.9228513 -0.45217502 -0.78283525 -1.5226588
3327 1.6376796 -0.24680698 0.85430306 0.75529337 -1.3634598 0.0020384935 -0.43844104 0.9694073 0.15875079 1.7369972 0.8295595 -0.0022296028 0.11897924 1.2219151 0.03200218 -0.17346367 0.71233374 -1.6403457 -0.8360124 -0.9358831
3567 -0.19834389 0.27395734 -0.23196301 1.3671674 -0.5849304 -0.32866648 -1.2555659 0.19116749 0.325543 -0.023328206 1.4275833 -0.57086784 -1.3295064 -0.2652461 -1.136619 1.9378521 0.33811 -1.2603832 0.5045931 -1.1694258
2465 0.56367946 0.4423051 -0.5093207 0.8766991 -0.66410017 -0.3191815 -0.6054986 0.6729525 0.2526372 1.038767 -0.34068897 -0.05638215 0.4329273 1.9615492 0.8975831 -0.4260666 0.22786766 -2.4721332 -0.10314404 -0.764544
762 1.5169381 0.61220515 -0.79041517 0.14148855 -0.062422216 -1.1889997 0.46061653 -0.60881084 1.3732108 0.101363875 0.047914334 -0.5533636 1.91098 1.3724048 -0.24914353 0.9224565 0.8443998 -0.6223554 -1.2469263 -0.52827007
268 0.35985157 0.37191436 -0.08485908 -0.2073619 1.1650987 -1.1992447 0.324075 -0.33938035 -0.10876863 -0.6057296 1.0557534 -0.5569981 -1.3306259 -0.048908688 0.3455059 1.4401196 0.4833489 -2.0478938 -1.805901 -1.2560815
839 -0.47403643 2.0937545 0.60063934 0.8443556 -0.31038472 -1.4279182 0.48191246 0.46071768 0.42036757 0.8774409 0.927693 -0.38418728 -1.1500648 -0.5669814 0.9471565 0.33285344 0.547448 -1.034376 -1.2959462 -1.3524435
